tree
version=v4
num_class=1
num_tree_per_iteration=1
label_index=0
max_feature_idx=6
objective=regression
feature_names=temperature pressure humidity wind_speed wind_direction precipitation cloud_cover
feature_infos=[-9.9766565125432507:34.989440161145474] [990.01572098220436:1039.9988510208848] [0.0013168556207476811:99.994725745453366] [0.00048098791446959943:24.988974562163399] [0.061623224818112554:359.99369583920605] [0.00094419658442923549:19.999141825601811] [0.014259604881772248:99.977778979623736]
tree_sizes=2690 2857 2860 2851 2844 2856 2852 2857 2864 2864 2863 2862 2869 2864 2868 2875 2868 2870 2879 2868 2892 2888 2865 2890 2866 2869 2871 2887 2898 2885 2891 2889 2894 2888 2897 2883 2881 2899 2888 2893 2905 2901 2902 2912 2908 2901 2897 2904 2913 2914 2912 2920 2920 2927 2925 2891 2917 2899 2928 2915 2929 2916 2913 2926 2940 2928 2918 2916 2922 2912 2926 2942 2918 2937 2921 2929 2929 2935 2920 2923 2922 2922 2924 2916 2926 2930 2935 2913 2935 2938 2914 2931 2908 2914 2895 2931 2909 2919 2936 2942 2929 2955 2910 2940 2921 2944 2925 2928 2916 2911 2934 2939 2930 2939 2950 2920 2948 2949 2946 2943 2923 2927 2923 2898 2926 2928 2913 2920 2915 2922 2937 2927 2949 2931 2956 2950 2930 2942 2931 2969 2931 2936 2943 2919 2920 2928 2912 2936 2933 2941 2936 2933 2945 2938 2925 2948 2908 2936 2960 2958 2943 2929 2941 2947 2946 2967 2932 2933 2924 2937 2942 2964 2959 2942 2948 2914 2932 2937 2933 2921 2911 2940 2927 2927 2931 2941 2957 2954 2963 2940 2953 2936 2927 2938 2940 2928 2939 2951 2928 2931 2961 2928 2941 2949 2927 2951 2938 2955 2948 2932 2908 2923 2940 2920 2925 2941 2943 2942 2925 2953 2939 2932 2946 2953 2933 2912 2907 2913 2923 2950 2940 2930 2938 2938 2933 2931 2913 2926 2929 2912 2941 2942 2922 2938 2931 2939 2937 2940 2949 2923 2947 2944 2950 2951 2949 2931 2937 2942 2949 2941 2951 2935 2938 2960 2935 2912 2930 2939 2940 2938 2947 2939 2954 2937 2939 2925 2924 2938 2946 2941 2935 2944 2932 2924 2912 2917 2946 2928 2923 2941 2924 2944 2921 2926 2936 2922 2946 2941 2924 2931 2956 2954 2950 2934 2967 2943 2926 2945 2943 2938 2948 2952 2958 2940 2959 2962 2932 2945 2930 2939 2955 2947 2938 2935 2941 2922 2919 2912 2947 2909 2932 2944 2924 2931 2943 2954 2953 2951 2948 2958 2949 2923 2946 2945 2949 2937 2927 2932 2949 2933 2936 2961 2938 2937 2959 2946 2941 2957 2927 2937 2920 2937 2939 2932 2936 2919 2935 2927 2941 2955 2934 2933 2943 2953 2963 2933 2922 2934 2941 2931 2946 2965 2947 2951 2945 2927 2934 2971 2976 2933 2953 2933 2948 2926 2955 2935 2934 2915 2931 2932 2945 2939 2952 2929 2949 2960 2948 2921 2953 2947 2934 2918 2939 2950 2926 2951 2948 2956 2947 2963 2934 2952 2919 2914 2935 2927 2947 2926 2936 2953 2942 2954 2943 2948 2935 2946 2952 2931 2965 2971 2966 2956 2957 2945 2948 2935 2948 2940 2933 2939 2947 2940 2960 2932 2938 2946 2943 2952 2935 2948 2961 2945 2956 2956 2943 2959 2930 2935 2931 2925 2941 2940 2927 2934 2925 2941 2946 2927 2931 2918 2946 2924 2931 2942 2955 2941 2967 2953 2953 2961 2940 2931 2960 2962 2958 2959 2930 2955 2948 2958

Tree=0
num_leaves=31
num_cat=0
split_feature=2 6 6 5 5 5 5 2 2 2 2 2 2 2 6 6 6 6 5 6 6 6 6 6 5 2 5 5 6 2
split_gain=69.1593 27.7764 15.0663 10.9285 8.63181 6.51015 3.16585 2.87645 2.7855 2.73088 2.33793 2.19965 2.03863 1.99013 1.33107 0.998595 0.967085 0.944157 0.935414 0.877157 0.728864 0.674474 0.639333 0.63843 0.56915 0.486973 0.464159 0.449816 0.41043 0.399815
threshold=45.705240954353663 49.554098308546351 35.001710908438874 9.7636551824409761 10.237279766060354 9.7636551824409761 9.7027277687165103 68.640588469525355 63.541595493233565 19.596341285430928 21.991399596255764 13.974607634680117 22.644058687235702 71.586449632781765 59.098950367096322 59.828400271217255 64.459990926308265 29.444109892704258 5.0045860306987828 32.289717253171439 74.856791996181428 22.42469508787865 67.110327528999733 83.867550860166105 4.9455480672082075 88.661316213314151 15.248035845031824 16.685400789313562 30.408882312725552 34.486119513258167
decision_type=2 2 2 2 2 2 2 2 2 2 2 2 2 2 2 2 2 2 2 2 2 2 2 2 2 2 2 2 2 2
left_child=1 4 5 10 12 7 8 24 14 22 23 21 18 27 -4 -10 -12 -14 28 29 26 -6 -5 -3 -2 -9 -11 -7 -1 -13
right_child=2 3 6 9 11 13 -8 25 15 20 16 19 17 -15 -16 -17 -18 -19 -20 -21 -22 -23 -24 -25 -26 -27 -28 -29 -30 -31
leaf_value=0.72234694048526382 0.73819840115713964 0.73832381096126276 0.74796491308908208 0.74597204910422787 0.73245262969463232 0.74991794630504549 0.76193638157806853 0.74803849593791483 0.75660675905561026 0.75198906008287736 0.74278982638239488 0.74086072351104426 0.73305672476978445 0.75933576228403132 0.75584942041057368 0.76145567043890949 0.74997118830948528 0.73971039969882013 0.73151168636910113 0.74800306049340015 0.75997372288819576 0.73963184726426079 0.75217952943468624 0.74404550053764695 0.74418240614357667 0.75289437345448773 0.75761447300878404 0.75518994838987885 0.72935879299491635 0.74587727764851097
leaf_weight=60 81 151 91 69 54 110 745 127 179 67 71 131 156 182 130 261 138 81 118 110 155 83 104 72 78 87 81 64 32 57
leaf_count=60 81 151 91 69 54 110 745 127 179 67 71 131 156 182 130 261 138 81 118 110 155 83 104 72 78 87 81 64 32 57
internal_value=0.7506 0.743351 0.756677 0.74949 0.737032 0.750844 0.759702 0.746228 0.757183 0.754716 0.743732 0.742046 0.732152 0.75568 0.752603 0.759483 0.747532 0.735331 0.728565 0.744457 0.757577 0.736802 0.749704 0.740171 0.741134 0.750013 0.755068 0.751857 0.724786 0.742382
internal_weight=3925 1790 2135 908 882 729 1406 373 661 476 432 435 447 356 221 440 209 237 210 298 303 137 173 223 159 214 148 174 92 188
internal_count=3925 1790 2135 908 882 729 1406 373 661 476 432 435 447 356 221 440 209 237 210 298 303 137 173 223 159 214 148 174 92 188
is_linear=0
shrinkage=1


Tree=1
num_leaves=31
num_cat=0
split_feature=2 5 5 2 2 2 5 2 5 5 5 5 5 2 2 2 2 5 2 2 2 2 5 5 5 2 2 2 0 2
split_gain=62.481 16.3124 9.80518 6.79902 5.10862 2.73273 1.70415 1.50799 1.44203 1.01684 0.939426 0.91232 0.882156 0.571853 0.507982 0.422834 0.413406 0.412344 0.316873 0.294875 0.286232 0.272854 0.424671 0.262985 0.254277 0.237576 0.233664 0.203125 0.198467 0.186866
threshold=42.031709819437147 10.237279766060354 10.776966866550575 63.883349803361561 19.596341285430928 24.829844929026297 6.5668214810074934 71.586449632781765 15.830300651900384 3.4143088459484421 5.9945840361067289 4.3608991207801093 17.045989275151452 72.447799957526541 50.823303315473886 73.634795253227139 28.555768283367474 13.723257199456331 51.142016936227613 57.318098668010329 5.2794681679854358 17.016679547333204 7.6705824010124291 12.548276694981263 3.9047827289499799 9.9824170257881999 5.2794681679854358 52.458576393438356 13.102717414526518 26.891267146011923
decision_type=2 2 2 2 2 2 2 2 2 2 2 2 2 2 2 2 2 2 2 2 2 2 2 2 2 2 2 2 2 2
left_child=1 5 3 6 12 9 14 17 29 20 -7 15 23 -13 24 -5 -10 18 28 -8 -1 22 -11 -3 -2 -14 -25 -19 -4 -6
right_child=2 4 7 11 8 10 19 -9 16 21 -12 13 25 -15 -16 -17 -18 27 -20 -21 -22 -23 -24 26 -26 -27 -28 -29 -30 -31
leaf_value=-0.022056917714722016 -0.0098224499667677184 -0.010840271987641852 -0.002108081357298596 -0.00017456666419716322 -0.0032536609132833741 -0.011190660793552284 -2.8631882395573138e-05 0.01088348194292714 0.0015135916412327788 -0.016031451840899536 -0.0057895043827111614 0.0037732510361820461 -0.0055965184600667121 0.0077501217216728513 -0.003070190407167904 0.0042296682485057106 0.0061165300816297535 0.0065281621878966693 0.0063062737548181709 0.0041833515742778658 -0.016878382118293008 -0.011129113193395325 -0.011645167777506807 -0.010399290291673463 -0.0050568934685240189 -0.00088306277419530573 -0.0063093249170924548 0.0089523761997867025 0.0047660704968231068 -0.00034744334377108084
leaf_weight=34 55 72 21 73 86 181 126 514 80 128 145 123 47 341 172 215 125 137 134 62 124 113 97 46 57 62 145 234 21 155
leaf_count=34 55 72 21 73 86 181 126 514 80 128 145 123 47 341 172 215 125 137 134 62 124 113 97 46 57 62 145 234 21 155
internal_value=7.65272e-05 -0.00736985 0.00542098 0.00237152 -0.00237105 -0.0123443 -0.00233218 0.00893891 0.00123763 -0.0146816 -0.00878831 0.00532385 -0.00669759 0.00669591 -0.00477659 0.00311332 0.00432026 0.00711165 0.00511851 0.00136043 -0.0179928 -0.0131337 -0.0141405 -0.00826509 -0.00739712 -0.00291547 -0.00729434 0.00805718 0.00132899 -0.00138452
internal_weight=3925 1640 2285 1224 818 822 472 1061 446 496 326 752 372 464 284 288 205 547 176 188 158 338 225 263 112 109 191 371 42 241
internal_count=3925 1640 2285 1224 818 822 472 1061 446 496 326 752 372 464 284 288 205 547 176 188 158 338 225 263 112 109 191 371 42 241
is_linear=0
shrinkage=0.05


Tree=2
num_leaves=31
num_cat=0
split_feature=6 5 5 6 6 6 5 5 5 5 5 6 6 6 6 6 5 6 5 3 5 5 6 0 3 6 6 4 5 5
split_gain=36.6067 10.6105 9.89359 4.18983 2.3517 1.85014 1.45123 1.15187 1.12304 0.961521 0.886054 0.729474 0.447721 0.363435 0.338761 0.334329 0.320223 0.299493 0.284656 0.279645 0.275727 0.254194 0.250691 0.29396 0.244787 0.243645 0.243347 0.430473 0.242882 0.240558
threshold=40.027392910384471 10.237279766060354 10.776966866550575 67.559016971724915 17.728662696546873 61.407145692756437 16.76206127673818 4.0074372715321136 4.3608991207801093 3.5753428561091662 4.7891551701250359 15.609313703563386 53.864442494118684 87.058609626765403 83.131254251922044 38.204953036222172 14.845016708728105 10.696200002823977 18.703722070524734 5.2375518706113953 8.3885697213407013 6.7612782478133777 36.071038991672609 4.9484560958925652 14.572475818354354 50.644705570974871 87.058609626765403 91.855819185187428 9.0959044106342883 14.114905856950662
decision_type=2 2 2 2 2 2 2 2 2 2 2 2 2 2 2 2 2 2 2 2 2 2 2 2 2 2 2 2 2 2
left_child=1 4 3 9 10 16 11 22 26 -2 17 -3 -11 -10 29 20 25 -1 -8 -12 -9 -14 23 -6 -19 -4 27 -5 -22 -7
right_child=2 6 5 8 7 14 18 15 13 12 19 -13 21 -15 -16 -17 -18 24 -20 -21 28 -23 -24 -25 -26 -27 -28 -29 -30 -31
leaf_value=-0.017086261267620095 -0.0051851100091416238 -0.0056039636961844391 0.0011128152267380809 -0.0058629245755063113 -0.014749903732192014 0.0061757282168267936 0.00010945700102626053 -0.0069983681518351664 0.0040546298586657111 -0.0024045649059726637 -0.0068317219887564827 -0.0016107269361944493 -0.0011167054501129315 0.0071456900362375708 0.010063956703849231 0.00019108332134783269 0.0058436103829828043 -0.015165306800785898 0.003542148279595795 -0.01143746686894225 0.0006783763989806176 0.0026562863092645913 -0.0058510689980998312 -0.0098456316178531528 -0.0091176800068717943 0.0048258727517626852 0.0028843053418790327 0.00098125292115582865 -0.0053993090822283801 0.0087449230617066328
leaf_weight=103 188 188 85 28 46 137 146 168 254 210 41 292 80 152 316 25 241 44 103 168 25 101 23 91 27 92 103 128 48 272
leaf_count=103 188 188 85 28 46 137 146 168 254 210 41 292 80 152 316 25 241 44 103 168 25 101 23 91 27 92 103 128 48 272
internal_value=7.27008e-05 -0.00594289 0.00394869 0.000863129 -0.00988518 0.0073069 -0.00156798 -0.00732906 0.00357074 -0.00224665 -0.0127283 -0.00317474 -0.000833786 0.00521187 0.00883435 -0.00531262 0.00465761 -0.015364 0.00152941 -0.0105339 -0.00588354 0.000988666 -0.0106814 -0.0114923 -0.0128655 0.00304277 0.000998154 -0.000247189 -0.00331791 0.00788434
internal_weight=3925 1538 2387 1244 809 1143 729 426 665 579 383 480 391 406 725 266 418 174 249 209 241 181 160 137 71 177 259 156 73 409
internal_count=3925 1538 2387 1244 809 1143 729 426 665 579 383 480 391 406 725 266 418 174 249 209 241 181 160 137 71 177 259 156 73 409
is_linear=0
shrinkage=0.05


Tree=3
num_leaves=31
num_cat=0
split_feature=2 6 6 5 5 5 2 5 2 2 2 2 2 2 2 6 6 6 6 6 6 6 6 6 6 5 5 5 5 2
split_gain=56.1885 21.0375 13.905 7.482 6.14288 5.61206 2.85498 2.67698 2.30294 2.0045 1.69252 1.43026 1.39403 1.35979 1.07286 1.1448 1.05006 0.895352 0.682058 0.608252 0.604482 0.589971 0.565582 0.562913 0.515069 0.489365 0.485429 0.434308 0.410444 0.405675
threshold=42.031709819437147 51.849977637598627 35.001710908438874 9.7636551824409761 11.196835036645789 9.167493167202915 68.159066765760898 5.6389169344018359 67.737264604562782 63.541595493233565 17.323021339847593 25.800832826845319 17.688025997242772 17.016679547333204 64.350365273427954 61.033145791372682 23.445543051260003 66.798571993391718 25.908614017297854 28.333846818318815 59.098950367096322 74.856791996181428 33.113229966647388 70.612261828156022 21.594723553244325 16.621389668365389 12.350274886480335 15.187474121516583 4.9455480672082075 81.358220242917653
decision_type=2 2 2 2 2 2 2 2 2 2 2 2 2 2 2 2 2 2 2 2 2 2 2 2 2 2 2 2 2 2
left_child=1 4 5 12 11 6 24 9 25 17 -5 16 -3 19 15 26 28 -4 -15 -6 -11 -12 -13 -14 -2 -7 -9 -10 -1 -8
right_child=2 3 7 10 13 8 29 14 27 20 21 22 23 18 -16 -17 -18 -19 -20 -21 -22 -23 -24 -25 -26 -27 -28 -29 -30 -31
leaf_value=-0.024987856684059936 -0.01138568579722031 -0.0095080955008577037 -0.0038043504619660476 -0.00085339842400870803 -0.014352135546505452 -0.0024731572276786005 -0.0035787394140513514 0.001587217611425634 0.0050746187302338945 0.0043587027916348435 0.0033853591934600922 -0.014551637897697778 -0.0064461997000302522 -0.0079478838198286089 0.010503959822184709 0.0093709689260463979 -0.015778829005493482 0.0039001903646587303 -0.0023789623131354651 -0.0082241536856333657 0.0092926034916747269 0.0080644641744713093 -0.0082482417180602032 -0.0011158250395648952 -0.005653622970179034 0.0030178271574042149 0.0069401409252895984 0.0094096478861141614 -0.019318307705328497 0.0010786147239892083
leaf_weight=58 113 175 78 146 80 114 74 90 127 108 129 130 87 112 663 263 157 73 108 82 146 141 49 115 60 63 80 106 71 127
leaf_count=58 113 175 78 146 80 114 74 90 127 108 129 130 87 112 663 263 157 73 108 82 146 141 49 115 60 63 80 106 71 127
internal_value=6.90658e-05 -0.0069924 0.00513725 -0.00113979 -0.0124719 -0.000259643 -0.00468888 0.00795615 0.00378069 0.00448255 0.00348366 -0.0163313 -0.00624153 -0.00777393 0.00923974 0.00730399 -0.0185251 -7.96387e-05 -0.00521405 -0.0112503 0.00719472 0.00582889 -0.0128261 -0.00341158 -0.00939769 -0.000518739 0.00410624 0.00704678 -0.0218674 -0.000636033
internal_weight=3925 1640 2285 793 847 784 374 1501 410 405 416 465 377 382 1096 433 286 151 220 162 254 270 179 202 173 177 170 233 129 201
internal_count=3925 1640 2285 793 847 784 374 1501 410 405 416 465 377 382 1096 433 286 151 220 162 254 270 179 202 173 177 170 233 129 201
is_linear=0
shrinkage=0.05


Tree=4
num_leaves=31
num_cat=0
split_feature=2 6 6 5 5 5 5 2 2 2 2 2 2 6 2 6 6 6 6 6 6 6 6 2 5 2 6 2 5 5
split_gain=50.7796 20.7726 10.9365 7.50352 5.80315 4.01911 2.39647 2.23685 2.06881 1.99996 1.75431 1.67604 1.55822 1.47925 1.44977 0.866621 0.768817 0.707861 0.675416 0.64311 0.519521 0.518034 0.481859 0.47461 0.442833 0.406717 0.379966 0.358508 0.352102 0.319545
threshold=45.705240954353663 49.554098308546351 29.956736114105542 9.7636551824409761 10.237279766060354 9.7636551824409761 9.7027277687165103 71.927225579549557 79.240384417692226 20.388613226480242 21.991399596255764 25.248984088205983 14.679287090211348 57.938273718284542 74.258312057444101 24.761757157869308 77.020646297784381 14.980668989726189 56.594930135177201 67.110327528999733 83.867550860166105 74.856791996181428 29.053526466511268 62.070775705030535 6.393214421414199 30.182435660928185 83.867550860166105 35.197295451922422 15.248035845031824 16.621389668365389
decision_type=2 2 2 2 2 2 2 2 2 2 2 2 2 2 2 2 2 2 2 2 2 2 2 2 2 2 2 2 2 2
left_child=1 4 5 10 12 8 7 13 23 19 20 17 24 -4 29 25 -12 -6 -9 -5 -3 28 -13 -2 -1 -14 -15 -17 -11 -7
right_child=2 3 6 9 11 14 -8 18 -10 21 16 22 15 26 -16 27 -18 -19 -20 -21 -22 -23 -24 -25 -26 -27 -28 -29 -30 -31
leaf_value=-0.023057650806198659 -0.0097393968532971959 -0.010359090419381316 -0.0011715424244992964 -0.0042115660379513182 -0.014875003000100454 -0.00080997034870299771 0.0095290709295370521 0.0056704673647699462 0.00074164779687567657 0.0012352308483633142 -0.004802706696279347 -0.0059696313235218885 -0.018468405306339263 0.0038378349625557053 0.007644607373744461 -0.012584814384073309 0.0013825828363700395 -0.0086570129462972007 0.010116437772909801 0.0018094321725214216 -0.0051976672209598802 0.0081875362053947295 -0.00073196342918153447 -0.0048053558974061163 -0.016717736124992371 -0.013779554422944785 0.0083798966022916657 -0.0071492708912173422 0.0062036182052791836 0.003590749647066167
leaf_weight=71 99 151 146 73 60 110 786 144 135 65 125 108 93 131 141 103 84 193 210 113 72 146 74 96 45 92 71 43 79 66
leaf_count=71 99 151 146 73 60 110 786 144 135 65 125 108 93 131 141 103 84 193 210 113 72 146 74 96 45 92 71 43 79 66
internal_value=6.56125e-05 -0.00614547 0.00527303 -0.000836871 -0.0116106 -0.000153956 0.00763275 0.00550952 -0.00401634 0.00349323 -0.005608 -0.00749929 -0.0156115 0.00266288 0.00386682 -0.0138639 -0.00231675 -0.0101316 0.00830791 -0.000553648 -0.00869262 0.00608881 -0.00384003 -0.00731033 -0.0205982 -0.0161367 0.0054343 -0.0109839 0.00396094 0.0008403
internal_weight=3925 1790 2135 908 882 647 1488 702 330 476 432 435 447 348 317 331 209 253 354 186 223 290 182 195 116 185 202 146 144 176
internal_count=3925 1790 2135 908 882 647 1488 702 330 476 432 435 447 348 317 331 209 253 354 186 223 290 182 195 116 185 202 146 144 176
is_linear=0
shrinkage=0.05


Tree=5
num_leaves=31
num_cat=0
split_feature=2 6 6 2 6 2 2 6 2 6 6 6 2 6 6 6 2 6 2 6 2 2 2 2 2 2 2 2 6 2
split_gain=47.6156 16.5698 11.9194 5.28935 2.5825 2.57053 2.41521 1.91886 1.45413 1.01237 0.878499 0.67032 0.634867 0.468508 0.459355 0.409249 0.40536 0.404651 0.401438 0.352294 0.308942 0.282233 0.279308 0.247071 0.241225 0.196514 0.183256 0.180135 0.197411 0.174577
threshold=39.470061788916091 54.281874095515306 35.209368799430912 68.159066765760898 16.852359961012116 63.883349803361561 15.709992516185517 66.497201213549374 25.800832826845319 74.856791996181428 21.31986996751845 18.08966038287593 24.829844929026297 89.84624268885554 32.797855447357868 36.071038991672609 81.358220242917653 60.60740087656621 60.577085237027781 82.354409087319638 79.612896256451407 50.516604607799749 9.1622159623259662 14.961198533265886 75.50807604826926 3.5329698070954212 26.548201630924748 32.523255721959877 63.752734741588739 56.080208799715315
decision_type=2 2 2 2 2 2 2 2 2 2 2 2 2 2 2 2 2 2 2 2 2 2 2 2 2 2 2 2 2 2
left_child=1 4 3 10 12 7 13 21 14 27 18 20 22 25 23 -10 -13 24 -2 -9 -5 -4 -1 -6 -7 -3 -11 -8 -29 -12
right_child=2 6 5 11 8 17 9 19 15 26 29 16 -14 -15 -16 -17 -18 -19 -20 -21 -22 -23 -24 -25 -26 -27 -28 28 -30 -31
leaf_value=-0.020538275703214683 -0.0075416780290192614 -0.0089495239901060068 -0.00032744458343802118 -0.0009816452700434138 -0.015222394271764193 0.0056853347436282842 -0.002345503378264831 0.0053963513872537384 -0.0082883757550707045 0.0019678007149700038 -0.0029656532457215438 0.0028228269673962608 -0.012477126356507053 -0.00071775954181574429 -0.0099636165401486235 -0.0036834039212489088 0.0069462802464184464 0.0095478966634981125 -0.0030027758726977154 0.0086576356426759198 0.0027807792271768135 0.0028258800536022639 -0.016128305586632984 -0.011393403200927424 0.0083185070505657904 -0.0051911815293154305 0.0048636559678237705 -0.0022107402374967936 0.0032472294465814896 0.00047404201806481683
leaf_weight=52 186 44 118 89 89 132 141 158 104 101 89 108 101 53 226 90 133 529 66 174 141 178 116 80 255 166 119 30 37 63
leaf_count=52 186 44 118 89 89 132 141 158 104 101 89 108 101 53 226 90 133 529 66 174 141 178 116 80 255 166 119 30 37 63
internal_value=-6.53116e-05 -0.00690996 0.00431764 -0.000344651 -0.0115508 0.00695981 -0.0011475 0.00449589 -0.00969701 0.0011697 -0.00454211 0.00325572 -0.0156099 -0.00491847 -0.0114381 -0.00615205 0.00509843 0.00864904 -0.00635292 0.00710558 0.00132488 0.00156881 -0.0174933 -0.0134099 0.00742037 -0.00597864 0.0035342 -0.00133121 0.000803362 -0.00153999
internal_weight=3968 1549 2419 875 858 1544 691 628 589 428 404 471 269 263 395 194 241 916 252 332 230 296 168 169 387 210 220 208 67 152
internal_count=3968 1549 2419 875 858 1544 691 628 589 428 404 471 269 263 395 194 241 916 252 332 230 296 168 169 387 210 220 208 67 152
is_linear=0
shrinkage=0.05


Tree=6
num_leaves=31
num_cat=0
split_feature=2 6 6 2 6 2 2 6 2 2 2 6 6 6 6 6 6 6 6 2 2 2 2 2 6 2 2 3 6 6
split_gain=42.9731 14.9593 10.7573 4.77662 2.75039 2.3199 1.93657 1.73177 1.13438 0.997461 0.760602 0.705613 0.670025 0.528952 0.517807 0.365198 0.349103 0.343481 0.321763 0.301935 0.256463 0.25643 0.217705 0.214659 0.176729 0.166917 0.165408 0.153581 0.151966 0.151044
threshold=39.470061788916091 57.938273718284542 35.209368799430912 65.11217329567738 30.802368064563233 63.883349803361561 15.709992516185517 66.497201213549374 14.679287090211348 26.199663363793999 84.200148278497224 83.131254251922044 21.31986996751845 21.31986996751845 14.195548867802023 60.60740087656621 16.852359961012116 89.84624268885554 86.088626783226715 29.947614087687334 51.142016936227613 60.577085237027781 75.50807604826926 30.182435660928185 11.834012125273626 27.376108764221406 6.4204688960525234 7.533162116602476 63.752734741588739 41.205927957745843
decision_type=2 2 2 2 2 2 2 2 2 2 2 2 2 2 2 2 2 2 2 2 2 2 2 2 2 2 2 2 2 2
left_child=1 4 3 12 8 7 17 20 24 -6 13 19 21 -5 23 22 -12 26 -9 -8 -4 -2 -7 27 -1 -16 -3 -10 -21 -22
right_child=2 6 5 10 9 15 11 18 14 -11 16 -13 -14 -15 25 -17 -18 -19 -20 28 29 -23 -24 -25 -26 -27 -28 -29 -30 -31
leaf_value=-0.018498341083081803 -0.0071645941566643046 -0.0070986976113476576 -0.0001501107355087091 -0.00089455673243638402 -0.0092500449821338558 0.0054010680986300835 -0.001729587339252288 0.0053880036957165665 -0.012741820567932266 -0.0039097767584957187 0.0028039597913244235 0.004174268331600302 -0.0019231636101311005 0.0034842390114061986 -0.011142401977496457 0.0090705019744053237 0.006694804936274887 -0.00068187157860693506 0.0085288528352975845 -0.0012898068168553812 -0.0001023782663313406 -0.002839047803510247 0.0079025817411385625 -0.011003412148776523 -0.01517982109077275 -0.0081860428226044335 -0.0040343732657861396 -0.016843763921748509 0.0029421667278820909 0.0036011445043200641
leaf_weight=67 186 73 132 157 291 132 137 188 39 125 107 151 135 123 103 529 125 53 144 29 35 42 255 47 100 89 111 55 79 129
leaf_count=67 186 73 132 157 291 132 137 188 39 125 107 151 135 123 103 529 125 53 144 29 35 42 255 47 100 89 111 55 79 129
internal_value=-6.2046e-05 -0.00656446 0.00410176 -0.000327419 -0.0106491 0.00661182 -0.000653668 0.0042711 -0.0131482 -0.0076454 0.00278318 0.00148583 -0.00471483 0.00102899 -0.0114616 0.00821659 0.00490032 -0.00422852 0.0067503 -0.000171129 0.00149037 -0.00636778 0.00704935 -0.0137624 -0.0165112 -0.00977201 -0.00525011 -0.0151419 0.0018058 0.00281076
internal_weight=3968 1549 2419 875 916 1544 633 628 500 416 512 396 363 280 333 916 232 237 332 245 296 228 387 141 167 192 184 94 108 164
internal_count=3968 1549 2419 875 916 1544 633 628 500 416 512 396 363 280 333 916 232 237 332 245 296 228 387 141 167 192 184 94 108 164
is_linear=0
shrinkage=0.05


Tree=7
num_leaves=31
num_cat=0
split_feature=2 6 6 5 5 5 2 5 2 2 6 2 2 5 6 2 6 5 2 2 6 6 6 5 2 5 5 5 5 2
split_gain=38.7832 13.5281 9.70845 5.36288 5.2997 4.75101 2.67147 2.52654 2.08689 1.71106 1.20207 1.01025 0.85682 0.727806 0.705405 0.650783 0.774549 0.589999 0.578821 0.532363 0.488762 0.46373 0.440107 0.436369 0.42689 0.407163 0.396513 0.374824 0.364266 0.330329
threshold=39.470061788916091 54.281874095515306 35.209368799430912 10.585702772966258 11.132708061163827 7.7867167224331384 62.424634571213609 6.6641010005256875 65.11217329567738 72.447799957526541 34.148839331168155 15.709992516185517 17.016679547333204 5.9945840361067289 65.122381782251935 63.883349803361561 61.033145791372682 14.31825359799315 17.688025997242772 84.785621946347703 59.828400271217255 28.333846818318815 32.289717253171439 7.00949221106272 18.018271273895447 4.1791408303523196 16.685400789313562 4.668327649063241 13.222414023217764 12.36201287728082
decision_type=2 2 2 2 2 2 2 2 2 2 2 2 2 2 2 2 2 2 2 2 2 2 2 2 2 2 2 2 2 2
left_child=1 4 3 6 10 18 25 8 14 26 13 -7 21 29 -4 16 28 -13 -3 23 -10 -6 -14 -8 -15 -2 -5 -12 -9 -1
right_child=2 5 7 9 12 11 19 15 20 -11 27 17 22 24 -16 -17 -18 -19 -20 -21 -22 -23 -24 -25 -26 -27 -28 -29 -30 -31
leaf_value=-0.022175118862054286 -0.011947749566399692 -0.0090932662417259769 -0.0033388444554237015 -0.00078779749256171247 -0.011333323495332587 -0.0011383475633827483 -0.0047929893148528149 0.0011881907075694035 0.0038188554077910695 0.0073504533429590681 -0.013513873833598514 0.0016053823308741105 -0.0058541033663865307 -0.016435266896838049 0.0024064991623228772 0.0087530357997533618 0.0079031479079276334 0.0061555497269459893 -0.0042652911585240221 0.0015357775217630318 0.0079073856969525715 -0.006110104199060949 -0.001259504491329493 0.00043552548016805308 -0.010911639679859324 -0.0069802005133930258 0.0035752986130925517 -0.0086687017848835063 0.0058868638107768927 -0.016888914196217648
leaf_weight=39 66 118 103 137 86 157 106 83 130 189 66 144 130 61 111 608 260 141 131 119 167 84 87 64 82 110 84 101 82 122
leaf_count=39 66 118 103 137 86 157 106 83 130 189 66 144 130 61 111 608 260 141 131 119 167 84 87 64 82 110 84 101 82 122
internal_value=-5.89437e-05 -0.00623624 0.00389667 -0.000311048 -0.0104296 -0.00102948 -0.00398667 0.00628123 0.00340549 0.00385764 -0.0139916 0.00208232 -0.00609438 -0.0158638 -0.000358783 0.00770378 0.00620273 0.00385652 -0.00655325 -0.00102915 0.00611779 -0.00875244 -0.00401203 -0.00282461 -0.0132679 -0.00884303 0.000870574 -0.0105836 0.00352329 -0.0181694
internal_weight=3968 1549 2419 875 858 691 465 1544 511 410 471 442 387 304 214 1033 425 285 249 289 297 170 217 170 143 176 221 167 165 161
internal_count=3968 1549 2419 875 858 691 465 1544 511 410 471 442 387 304 214 1033 425 285 249 289 297 170 217 170 143 176 221 167 165 161
is_linear=0
shrinkage=0.05


Tree=8
num_leaves=31
num_cat=0
split_feature=2 6 6 5 5 5 5 2 2 6 2 2 6 2 6 5 6 5 6 6 2 6 5 5 2 5 5 2 2 5
split_gain=35.0019 12.2633 8.85525 5.25054 3.94445 3.78187 3.10486 2.13369 1.66829 1.06301 1.04805 1.0183 0.982535 0.918546 0.996873 0.754623 0.732804 0.584588 0.584527 0.569722 0.528519 0.43268 0.43198 0.371595 0.336253 0.33087 0.314087 0.306771 0.298122 0.291939
threshold=39.470061788916091 57.938273718284542 25.399200391471954 10.237279766060354 11.397415975151764 8.8480584317183197 6.6641010005256875 65.655594218002534 64.772333680462012 34.148839331168155 16.570073539774167 72.447799957526541 65.122381782251935 56.465188476062131 61.033145791372682 16.032875165107747 59.098950367096322 5.9945840361067289 29.444109892704258 32.289717253171439 17.688025997242772 79.965953480815628 14.784860266618301 7.1832204596027607 88.251804690585814 4.6166224171348409 17.903774653100083 86.805445333132738 12.36201287728082 7.8602108760940741
decision_type=2 2 2 2 2 2 2 2 2 2 2 2 2 2 2 2 2 2 2 2 2 2 2 2 2 2 2 2 2 2
left_child=1 3 4 9 8 20 7 12 23 17 18 -6 -4 14 22 21 27 28 -5 26 -3 -7 -8 -2 29 -11 -12 -9 -1 -10
right_child=2 5 6 10 11 15 13 16 24 25 19 -13 -14 -15 -16 -17 -18 -19 -20 -21 -22 -23 -24 -25 -26 -27 -28 -29 -30 -31
leaf_value=-0.021066363003009406 -0.010179957071042462 -0.0075009450471028687 -0.0038758437217859577 -0.011319137506264572 0.00046031426077670592 -0.00087160951488099436 -0.00043406520863451686 0.0013327103697392568 -0.0051483970705586942 -0.012778219542925871 -0.0070301699079573154 0.0066259620481216143 0.0024241829932409179 0.0078603443227799937 0.0072568302963926497 0.005638695586110333 0.0074887573196201363 -0.0126721937163565 -0.0059210504481147621 -0.0010005376671740254 -0.0030203059586161258 0.0035060763694513978 0.0049897675681765371 -0.0052558165035831439 0.0009503421617835132 -0.0084489803845062862 -0.0013321035873940998 0.0057992898562023868 -0.016044468518163338 -0.00028344234565784242
leaf_weight=39 106 125 134 96 147 135 90 114 78 79 110 123 115 854 183 137 167 122 105 112 139 97 62 60 77 100 31 58 122 51
leaf_count=39 106 125 134 96 147 135 90 114 78 79 110 123 115 854 183 137 167 122 105 112 139 97 62 60 77 100 31 58 122 51
internal_value=-5.59966e-05 -0.00592443 0.00370184 -0.00962273 -0.00133118 -0.000572697 0.00552018 0.00254818 -0.0046701 -0.0133753 -0.00580401 0.00326911 -0.000966193 0.00698994 0.00477104 0.00269627 0.00512953 -0.0152828 -0.00849924 -0.00366274 -0.00514182 0.000958716 0.00177829 -0.00840015 -0.00166434 -0.0103597 -0.0057774 0.00283888 -0.017261 -0.00322504
internal_weight=3968 1549 2419 916 642 633 1777 588 372 462 454 270 249 1189 335 369 339 283 201 253 264 232 152 166 206 179 141 172 161 129
internal_count=3968 1549 2419 916 642 633 1777 588 372 462 454 270 249 1189 335 369 339 283 201 253 264 232 152 166 206 179 141 172 161 129
is_linear=0
shrinkage=0.05


Tree=9
num_leaves=31
num_cat=0
split_feature=2 5 5 2 5 2 2 5 5 2 5 2 2 2 5 5 2 2 2 5 2 5 5 2 2 2 5 2 2 2
split_gain=31.5892 8.35432 5.73502 4.42027 1.681 1.67654 0.995448 0.905058 0.874129 0.874085 0.634441 0.600108 0.422094 0.366936 0.312694 0.276994 0.25277 0.236423 0.206376 0.206112 0.193028 0.169605 0.161055 0.16004 0.150541 0.133404 0.117818 0.114778 0.113726 0.106541
threshold=39.470061788916091 11.196835036645789 10.776966866550575 62.070775705030535 5.164581138515552 15.709992516185517 24.097058931132036 3.7536035267320096 4.4374722997648615 63.883349803361561 16.228250914662649 30.182435660928185 88.661316213314151 84.200148278497224 13.531926660894909 15.117513330522746 51.142016936227613 12.664442148382166 30.182435660928185 8.4600382020407334 35.197295451922422 3.4143088459484421 13.328793863780549 50.823303315473886 46.691027641250805 7.715385446578316 18.449881473799888 33.688463867194805 73.227584188250475 82.750024962299307
decision_type=2 2 2 2 2 2 2 2 2 2 2 2 2 2 2 2 2 2 2 2 2 2 2 2 2 2 2 2 2 2
left_child=1 4 3 7 11 15 25 23 12 14 20 17 28 -10 24 -3 -9 -1 -12 -8 -7 -19 29 -2 -4 -6 -17 -21 -5 -11
right_child=2 5 9 8 6 10 19 16 13 22 18 -13 -14 -15 -16 26 -18 21 -20 27 -22 -23 -24 -25 -26 -27 -28 -29 -30 -31
leaf_value=-0.014324942993169483 -0.0072898207232356075 -0.0066299068103359924 -0.00060601010918617251 -0.00098061896256190751 -0.010322146113709175 -0.0020095678622252026 -0.0055957357223304187 -0.0024404015346925099 0.0037391666291988063 0.0050096911922585044 0.0012047261017634752 -0.0077425961959349037 0.0041299437333947534 0.006536654937509938 0.0052454210464422816 -0.004030119278807736 0.00034843435535066546 -0.012628007405458316 0.0045851984031863875 -0.0035392669618077993 0.0018295859816508033 -0.0095432462590759187 0.0078009497978293561 -0.0040764778825248798 0.0033539647275161277 -0.0080197506600022134 -0.00047888192829900777 0.00036053247749805455 0.001283562966296828 0.0073540756610196295
leaf_weight=110 78 112 33 101 92 204 94 163 306 105 124 86 103 190 330 120 162 112 71 54 39 74 470 77 88 199 29 29 123 90
leaf_count=110 78 112 33 101 92 204 94 163 306 105 124 86 103 190 330 120 162 112 71 54 39 74 470 77 88 199 29 29 123 90
internal_value=-5.31967e-05 -0.00562821 0.00351674 0.00126365 -0.00895809 -0.00157899 -0.00694921 -0.00254965 0.00348769 0.00614737 0.000311272 -0.0114192 0.00148079 0.00481079 0.0044482 -0.00475115 -0.00105027 -0.0124874 0.00243556 -0.00399245 -0.00139341 -0.0114007 0.00729975 -0.00569351 0.00227397 -0.00874766 -0.00333894 -0.00217669 0.00026266 0.00609171
internal_weight=3968 1549 2419 1303 850 699 468 480 823 1116 438 382 327 496 451 261 325 296 195 177 243 186 665 155 121 291 149 83 224 195
internal_count=3968 1549 2419 1303 850 699 468 480 823 1116 438 382 327 496 451 261 325 296 195 177 243 186 665 155 121 291 149 83 224 195
is_linear=0
shrinkage=0.05


Tree=10
num_leaves=31
num_cat=0
split_feature=2 6 6 5 5 5 2 2 5 2 2 6 5 5 2 2 6 6 6 6 2 2 6 6 6 6 6 6 2 5
split_gain=28.4164 14.3324 5.60213 4.93296 4.34733 2.88503 1.90939 1.49527 1.20367 1.17367 0.931251 0.852406 0.821899 0.782742 0.780234 0.718914 0.606648 0.479819 0.455551 0.388894 0.383225 0.359757 0.329246 0.324774 0.32269 0.320046 0.294559 0.293806 0.369616 0.289731
threshold=51.142016936227613 51.849977637598627 29.956736114105542 11.030931253504933 13.584092729131326 9.0416337975821168 25.800832826845319 23.006718238749045 5.7518741712266994 23.006718238749045 21.991399596255764 55.106550661938833 5.9945840361067289 6.0415673452452978 74.258312057444101 79.612896256451407 79.039032554061833 79.746956778399081 69.959871898165403 21.797142330634159 73.89651609600898 77.929571305689919 23.113673237744973 20.111379321414152 28.677600969245109 32.797855447357868 29.444109892704258 51.366249458804639 67.737264604562782 15.014712122646701
decision_type=2 2 2 2 2 2 2 2 2 2 2 2 2 2 2 2 2 2 2 2 2 2 2 2 2 2 2 2 2 2
left_child=1 4 5 7 6 15 12 18 11 17 24 20 26 23 29 -2 -9 -5 -3 -14 -4 -13 -12 -8 -6 -15 -1 28 -10 -7
right_child=2 3 8 9 10 14 13 16 27 -11 22 21 19 25 -16 -17 -18 -19 -20 -21 -22 -23 -24 -25 -26 -27 -28 -29 -30 -31
leaf_value=-0.017948746290512203 -0.005580845367086756 -0.0086591802772722753 -0.0025668641862769924 -0.00098963782127343557 -0.0085610298374119934 -0.00097466821290171637 -0.01307540302965003 -0.0026208655973584956 0.0033269532657868696 0.0059962637468993635 -0.0033693358034973865 0.0037963477331494073 -0.013758785074407405 -0.0072765238853582347 0.0058101744872684005 -0.00032721806197110305 0.0021354524098320775 0.0041352527292623916 -0.0042725880321480073 -0.0091831854027178555 0.0028267385614573217 0.0076554437512876819 0.00077192959250863068 -0.0085062878065590951 -0.0039208176533635985 -0.0030753804305705297 -0.013442123291584163 0.0076089126760008133 0.0071112020161458265 0.0034269820028342887
leaf_weight=82 164 95 57 122 85 88 71 157 104 276 95 137 77 136 171 108 117 73 157 117 78 108 97 86 67 68 65 693 170 65
leaf_count=82 164 95 57 122 85 88 71 157 104 276 95 137 77 136 171 108 117 73 157 117 78 108 97 86 67 68 65 693 170 65
internal_value=9.11106e-06 -0.00410796 0.00433807 0.000181605 -0.00819657 0.000301887 -0.010453 -0.00314648 0.00612394 0.00389832 -0.00359184 0.00373964 -0.0131361 -0.00791864 0.00348927 -0.00349485 -0.000589883 0.000928911 -0.00592626 -0.0109993 0.00054944 0.0054975 -0.00127713 -0.0105726 -0.00651567 -0.00587614 -0.015956 0.00706089 0.00567484 0.000895314
internal_weight=3986 2043 1943 997 1046 596 702 526 1347 471 344 380 341 361 324 272 274 195 252 194 135 245 192 157 152 204 147 967 274 153
internal_count=3986 2043 1943 997 1046 596 702 526 1347 471 344 380 341 361 324 272 274 195 252 194 135 245 192 157 152 204 147 967 274 153
is_linear=0
shrinkage=0.05


Tree=11
num_leaves=31
num_cat=0
split_feature=2 6 6 5 5 5 2 2 2 5 5 2 6 2 2 5 6 6 6 5 2 6 2 6 6 6 6 2 5 2
split_gain=25.6458 12.9442 5.05592 4.47541 3.90799 2.60374 1.73378 1.33823 1.13136 1.08631 1.06796 0.833838 0.769296 0.704161 0.64929 0.590418 0.477277 0.418952 0.379157 0.371732 0.34762 0.347212 0.324681 0.310021 0.29379 0.278596 0.26516 0.333579 0.26503 0.257177
threshold=51.142016936227613 50.644705570974871 29.956736114105542 11.030931253504933 13.584092729131326 9.0416337975821168 14.961198533265886 23.006718238749045 23.006718238749045 5.7518741712266994 5.9945840361067289 21.991399596255764 55.106550661938833 74.258312057444101 77.072042354210609 5.2307796022841799 70.612261828156022 69.959871898165403 16.265577768192273 5.9945840361067289 70.747591189374944 14.711181654748087 77.929571305689919 79.039032554061833 18.08966038287593 27.805978792041866 51.366249458804639 67.737264604562782 13.391294431632554 35.197295451922422
decision_type=2 2 2 2 2 2 2 2 2 2 2 2 2 2 2 2 2 2 2 2 2 2 2 2 2 2 2 2 2 2
left_child=1 4 5 7 6 14 19 17 16 12 18 25 20 28 -2 -9 -5 -3 -8 -1 -4 -12 -14 -17 -13 -6 27 -11 -7 -23
right_child=2 3 9 8 11 13 10 15 -10 26 21 24 22 -15 -16 23 -18 -19 -20 -21 -22 29 -24 -25 -26 -27 -28 -29 -30 -31
leaf_value=-0.016894807134355819 -0.0055895180372467065 -0.0082253414184824385 -0.0028938503385385656 -0.001844749440940003 -0.0081603662704028898 -0.0015707963225073539 -0.014034372249520139 -0.0030661762852648294 0.0056787170128680753 0.0031606056101736615 -0.0091525889446751937 -0.0040187800183048242 0.0036065303401029026 0.0055196657190671227 -0.00069046547386466368 -0.00056612663025634345 0.0030383722210215337 -0.0040589586363743496 -0.0096691875854351874 -0.012272845270112158 0.002406556860559845 -0.0069016163621563459 0.0072726715019800605 0.0040313203879801468 0.00014118801422199117 -0.0037618513474525469 0.0072284669612455461 0.0067556419081280621 0.0026390413265537727 -0.0032816498890990415
leaf_weight=77 146 98 48 94 84 65 76 134 278 104 90 64 137 171 126 81 107 157 144 100 87 120 108 67 126 63 693 170 88 83
leaf_count=77 146 98 48 94 84 65 76 134 278 104 90 64 137 171 126 81 107 157 144 100 87 120 108 67 126 63 693 170 88 83
internal_value=8.65548e-06 -0.00390256 0.00412117 9.8836e-05 -0.00786109 0.000286793 -0.0100166 -0.00303532 0.00361249 0.00581774 -0.0085444 -0.00344771 0.00355265 0.0033148 -0.0033201 -0.000661792 0.000754723 -0.00566016 -0.0111772 -0.0142835 0.000521968 -0.00656759 0.00522263 0.00151515 -0.00126006 -0.00627529 0.00670785 0.0053911 0.000850548 -0.00542153
internal_weight=3986 2043 1943 1016 1027 596 690 537 479 1347 513 337 380 324 272 282 201 255 220 177 135 293 245 148 190 147 967 274 153 203
internal_count=3986 2043 1943 1016 1027 596 690 537 479 1347 513 337 380 324 272 282 201 255 220 177 135 293 245 148 190 147 967 274 153 203
is_linear=0
shrinkage=0.05


Tree=12
num_leaves=31
num_cat=0
split_feature=6 5 5 6 6 6 6 5 5 5 5 5 5 5 6 5 1 4 6 6 4 6 5 3 6 1 5 0 6 6
split_gain=15.4537 6.01901 3.81331 1.46049 1.323 0.90583 0.747138 0.690085 0.505697 0.466908 0.400942 0.380353 0.379583 0.339164 0.250166 0.192916 0.191023 0.190412 0.171785 0.136131 0.197411 0.128723 0.126328 0.126037 0.14651 0.120891 0.10871 0.117235 0.149232 0.108607
threshold=44.852634522049264 10.237279766060354 8.5501145961769982 70.16328665158106 16.265577768192273 10.324626691715968 79.039032554061833 5.903303689835818 14.408450900216812 5.9945840361067289 14.193353271846744 15.325809950476243 5.3828993590855072 3.2408933376061024 37.754926034960384 18.624844996781722 1016.4256081116204 108.13168394101413 27.102085671362122 90.744902039244948 79.957472413988754 51.849977637598627 17.903774653100083 12.682297192102103 4.5449584115438268 1002.7302975786727 0.61958379234659977 -4.9561839229348079 27.519056925666511 51.366249458804639
decision_type=2 2 2 2 2 2 2 2 2 2 2 2 2 2 2 2 2 2 2 2 2 2 2 2 2 2 2 2 2 2
left_child=1 4 3 13 9 11 10 14 -7 23 21 -3 19 29 26 18 -9 -15 25 20 -5 -4 -12 -1 -25 -10 -6 -28 -29 -2
right_child=2 5 6 12 7 8 -8 16 15 -11 22 -13 -14 17 -16 -17 -18 -19 -20 -21 -22 -23 -24 24 -26 -27 27 28 -30 -31
leaf_value=-0.01155933034006912 -0.0058791924511751859 -0.0052996430760494581 0.00040492620784789325 -0.0025437794170445867 -0.010122264795764177 -0.0012711365170830979 0.0060587515390199912 -0.0042215430490303444 -0.00252521258392712 -0.0066597169386823814 0.0040958199870392399 -0.00095149135682731872 0.0039259880772640641 -0.0028856736847759552 -0.0038242502630843472 0.0034997554746876965 -0.0013938085766476733 8.7037359774724186e-05 0.0022467718811246566 0.0026995096644184188 0.0011782386696424978 0.0028423553169525874 0.0059982826363528148 -0.011755647309914683 -0.0076648975443094972 0.00063697807623058279 -0.0098984737750680129 -0.0076706283156923252 -0.0048354732202303208 -0.0028707718572695742
leaf_weight=101 40 114 65 45 27 259 493 117 41 155 289 90 191 74 75 98 122 198 134 92 171 325 125 33 65 115 26 97 89 120
leaf_count=101 40 114 65 45 27 259 493 117 41 155 289 90 191 74 75 98 122 198 134 92 171 325 125 33 65 115 26 97 89 120
internal_value=8.22271e-06 -0.00349659 0.00277369 0.000332181 -0.00633049 -0.000476211 0.00452624 -0.00480263 0.00043978 -0.00871724 0.00358652 -0.00338134 0.0021748 -0.00179622 -0.00634359 0.00158186 -0.0027781 -0.000721715 0.000933745 0.00108884 0.000402818 0.00243612 0.00467024 -0.0103198 -0.00904239 -0.00019411 -0.00713418 -0.00675362 -0.00631402 -0.00362288
internal_weight=3986 1758 2228 931 907 851 1297 553 647 354 804 204 499 432 314 388 239 272 290 308 216 390 414 199 98 156 239 212 186 160
internal_count=3986 1758 2228 931 907 851 1297 553 647 354 804 204 499 432 314 388 239 272 290 308 216 390 414 199 98 156 239 212 186 160
is_linear=0
shrinkage=0.05


Tree=13
num_leaves=31
num_cat=0
split_feature=2 6 6 5 5 5 2 2 2 5 6 2 2 5 5 6 2 6 2 6 6 6 2 5 6 2 5 2 6 5
split_gain=23.0652 10.769 4.09081 4.01704 3.10844 1.9105 1.43589 1.1925 1.07229 1.07215 0.81121 0.791477 0.727976 0.603954 0.574598 0.510807 0.453141 0.445884 0.386661 0.365337 0.332085 0.323847 0.289146 0.258832 0.25784 0.320144 0.250804 0.242314 0.237322 0.227855
threshold=51.142016936227613 49.554098308546351 25.048773858204303 10.832072689663773 6.9577138884769045 7.4973367163101114 25.248984088205983 23.006718238749045 23.006718238749045 5.6389169344018359 55.106550661938833 14.679287090211348 74.258312057444101 15.117513330522746 14.058770169208115 79.039032554061833 77.072042354210609 70.612261828156022 86.805445333132738 69.959871898165403 19.432692822229104 13.715037945077931 77.929571305689919 14.845016708728105 43.597711802991483 67.737264604562782 4.2592075678673362 45.430772880081761 32.797855447357868 13.584092729131326
decision_type=2 2 2 2 2 2 2 2 2 2 2 2 2 2 2 2 2 2 2 2 2 2 2 2 2 2 2 2 2 2
left_child=1 4 5 7 11 16 13 19 17 10 18 -1 23 20 28 26 -2 -5 -4 -3 -6 -13 -12 -7 25 -11 -9 -23 -8 -14
right_child=2 3 9 8 6 12 14 15 -10 24 22 21 29 -15 -16 -17 -18 -19 -20 -21 -22 27 -24 -25 -26 -27 -28 -29 -30 -31
leaf_value=-0.015681089507415893 -0.0063131141121207622 -0.007784088830164862 -0.001066154154924319 -0.0020422508528825331 -0.012141726469000181 -0.001560445061280916 -0.0060995063057121381 -0.0049690553371155109 0.0051006592107619838 0.0021094955728147872 0.003376285480151316 -0.012731301054358483 0.0028673720533541063 -0.0050921865334246494 -0.00079830687348364082 0.0017279153146924017 -0.00136697788471249 0.0026136665851983166 0.004709796301138245 -0.00398489275419266 -0.0079395232204761777 -0.0097753657054688251 0.0068690777051129519 0.0026612947613262293 0.0065366322701328047 0.0059839655539970131 -0.0010236343051915492 -0.0052732859977128871 -0.0023459979971836432 0.0066530090896412741
leaf_weight=80 99 106 122 99 75 100 136 67 288 81 136 75 79 126 146 115 87 107 38 157 126 140 105 57 803 156 101 38 61 80
leaf_count=80 99 106 122 99 75 100 136 67 288 81 136 75 79 126 146 115 87 107 38 157 126 140 105 57 803 156 101 38 61 80
internal_value=7.81158e-06 -0.0037014 0.00390793 -0.000136419 -0.00739789 2.08905e-05 -0.00543555 -0.00309221 0.0031305 0.00526205 0.00306566 -0.0113462 0.00238738 -0.00780619 -0.00317549 -0.000839588 -0.0039996 0.000376114 0.000305634 -0.00551613 -0.00950751 -0.00997543 0.00489804 -2.77115e-05 0.00610893 0.00465978 -0.00259711 -0.00881425 -0.00493725 0.0047721
internal_weight=3986 2043 1943 1040 1003 502 670 546 494 1441 401 333 316 327 343 283 186 206 160 263 201 253 241 157 1040 237 168 178 197 159
internal_count=3986 2043 1943 1040 1003 502 670 546 494 1441 401 333 316 327 343 283 186 206 160 263 201 253 241 157 1040 237 168 178 197 159
is_linear=0
shrinkage=0.05


Tree=14
num_leaves=31
num_cat=0
split_feature=2 5 5 2 2 5 2 2 2 5 5 5 5 5 2 2 2 5 5 2 3 2 2 2 5 2 2 3 2 3
split_gain=20.9439 5.49057 3.52376 2.8964 1.22771 1.0635 0.812143 0.562595 0.487761 0.467771 0.391814 0.350268 0.32219 0.293298 0.269551 0.216734 0.164981 0.15011 0.147859 0.141141 0.132966 0.125393 0.113582 0.108238 0.100778 0.0991657 0.0949345 0.0950474 0.0945318 0.0856068
threshold=39.470061788916091 11.561855274059214 9.3131492907141098 64.350365273427954 19.596341285430928 5.9945840361067289 61.667991364419876 12.36201287728082 20.691761147278296 3.2408933376061024 3.9047827289499799 13.531926660894909 15.248035845031824 18.449881473799888 78.974900715679311 79.612896256451407 50.823303315473886 13.652435232137849 3.4143088459484421 58.177833797681792 9.6656391122027525 30.182435660928185 11.451967402618969 7.3515983340836657 18.449881473799888 34.865302277194495 48.758608086866126 14.116748360522655 52.458576393438356 6.7592216942655954
decision_type=2 2 2 2 2 2 2 2 2 2 2 2 2 2 2 2 2 2 2 2 2 2 2 2 2 2 2 2 2 2
left_child=1 5 3 10 13 7 11 -1 23 15 16 26 25 22 -11 -5 -2 -8 -9 -12 -18 -14 -3 -7 28 -6 -4 -28 -13 -24
right_child=2 4 6 9 12 8 17 18 -10 14 19 24 21 -15 -16 -17 20 -19 -20 -21 -22 -23 29 -25 -26 -27 27 -29 -30 -31
leaf_value=-0.011587313922265401 -0.0056360700817640469 -0.0048649681999250469 -0.00018810468348813482 -0.00050431602698974495 -0.0015592202156613447 -0.0084652921460025635 0.0048751744296253764 -0.0086249176675880848 -0.0035297800773405469 0.0025786835613607474 -0.0016143239160539289 0.002748927852936409 0.0010328804877644871 0.0003509561961476246 0.0051100099617076566 0.0025798989992314417 -0.0048902082065500228 0.0062496455911259857 -0.0064521667928826342 0.00090998573656621826 -0.0011102530241017424 0.0035095426435342589 -0.0048499293747897212 -0.0061514797535604767 0.00576900703753511 0.0014713303255848586 0.0037469925861492257 0.00077836138443672105 0.004823736628277793 -0.0020243567596240851
leaf_weight=130 80 155 67 102 118 75 343 181 200 186 220 134 112 46 242 129 38 472 138 74 60 94 38 155 70 35 52 56 93 91
leaf_count=130 80 155 67 102 118 75 343 181 200 186 220 134 112 46 242 129 38 472 138 74 60 94 38 155 70 35 52 56 93 91
internal_value=7.421e-06 -0.00449333 0.00292602 0.000889906 -0.00115145 -0.00711285 0.00471534 -0.00881483 -0.00533566 0.0030313 -0.00209988 0.00306488 0.000872112 -0.00335285 0.00400995 0.00121804 -0.00395128 0.00567119 -0.00768498 -0.000978953 -0.00257595 0.00216301 -0.00395276 -0.00690598 0.00411042 -0.000865957 0.00129045 0.0022077 0.00359896 -0.0028567
internal_weight=3986 1568 2418 1131 689 879 1287 449 430 659 472 472 359 330 428 231 178 815 319 294 98 206 284 230 297 153 175 108 227 129
internal_count=3986 1568 2418 1131 689 879 1287 449 430 659 472 472 359 330 428 231 178 815 319 294 98 206 284 230 297 153 175 108 227 129
is_linear=0
shrinkage=0.05


Tree=15
num_leaves=31
num_cat=0
split_feature=6 5 5 6 6 5 6 6 5 5 5 6 5 6 6 5 5 6 4 6 5 6 1 6 6 4 4 5 5 0
split_gain=11.5883 3.72428 3.5453 1.35327 0.857124 0.855314 0.532942 0.52277 0.350503 0.342493 0.319842 0.317737 0.269918 0.207958 0.201095 0.177181 0.143408 0.128744 0.128252 0.126152 0.106097 0.0914715 0.0896077 0.101742 0.0923911 0.0886931 0.0881973 0.0872884 0.0782802 0.0763101
threshold=37.35134296682785 11.268872714139185 8.324376648243069 70.612261828156022 66.014842843895948 5.9945840361067289 8.7521818157670435 16.265577768192273 14.193353271846744 16.76206127673818 3.2408933376061024 16.265577768192273 5.3061413028136828 90.744902039244948 83.131254251922044 15.187474121516583 15.117513330522746 4.5449584115438268 111.03234104746431 16.265577768192273 18.703722070524734 51.849977637598627 1001.7638944962722 55.106550661938833 60.60740087656621 63.088872985130401 225.60890513924548 3.8396300799500884 7.8602108760940741 19.878528207224139
decision_type=2 2 2 2 2 2 2 2 2 2 2 2 2 2 2 2 2 2 2 2 2 2 2 2 2 2 2 2 2 2
left_child=1 5 3 10 8 11 15 17 21 19 22 27 13 -5 16 -3 -6 29 -12 -8 -10 -4 -2 -24 -25 -23 -27 -1 -20 -7
right_child=2 6 4 12 14 7 9 -9 20 -11 18 -13 -14 -15 -16 -17 -18 -19 28 -21 -22 25 23 24 -26 26 -28 -29 -30 -31
leaf_value=-0.0094442950208641352 -0.0051457224745751814 -0.0050675531054901728 0.00030878025599034327 3.8260185259240656e-05 0.0032442272308090114 -0.0064566548582068971 -0.002520973988690839 -0.0023406007835342075 0.0030540488571407171 0.0018674586626242597 -0.0023121782259425214 -0.0059258906497565494 0.0034148181191656392 0.0029600492560494713 0.0056024858491864581 -0.0015860346500699918 0.0051375720500477636 -0.0049626676675700778 4.083708663863011e-05 -0.0001981753340320817 0.0053046947898110382 0.0044537677584836882 -0.0039104925639029328 0.0013605689016086137 -0.0026392384141217919 0.00036468548452830876 0.0028771567107704018 -0.0073009593971678395 -0.0028616877458541874 -0.010024735853885828
leaf_weight=124 54 68 155 203 245 43 81 222 288 194 112 239 172 87 387 79 169 123 218 210 64 30 84 22 42 80 62 77 26 23
leaf_count=124 54 68 155 203 245 43 81 222 288 194 112 239 172 87 387 79 169 123 218 210 64 30 84 22 42 80 62 77 26 23
internal_value=3.49121e-05 -0.00346676 0.0021121 -0.000155972 0.00367523 -0.00562606 -0.000559207 -0.00398595 0.00236833 0.000240147 -0.00181314 -0.00715808 0.00184554 0.000914797 0.00478308 -0.00319653 0.00401711 -0.00591859 -0.00091142 -0.000844728 0.00346326 0.0011897 -0.00340231 -0.0027662 -0.0012643 0.00198356 0.00146168 -0.00862322 -0.000268448 -0.00770008
internal_weight=3983 1483 2500 1020 1480 851 632 411 679 485 558 440 462 290 801 147 414 189 356 291 352 327 202 148 64 172 142 201 244 66
internal_count=3983 1483 2500 1020 1480 851 632 411 679 485 558 440 462 290 801 147 414 189 356 291 352 327 202 148 64 172 142 201 244 66
is_linear=0
shrinkage=0.05


Tree=16
num_leaves=31
num_cat=0
split_feature=2 6 6 5 5 5 5 6 2 6 2 2 2 2 2 6 2 6 2 5 5 6 5 2 6 2 6 2 6 2
split_gain=19.1489 8.04847 3.50475 3.15079 1.96796 1.33966 1.03311 0.977721 0.903553 0.901959 0.889815 0.667428 0.598513 0.551047 0.53533 0.398695 0.387148 0.353299 0.328435 0.280679 0.278626 0.263623 0.247627 0.246329 0.316179 0.238806 0.232102 0.197183 0.190002 0.184286
threshold=48.384947165207066 45.80168471451929 21.31986996751845 8.7070521011102766 11.132708061163827 11.397415975151764 7.4973367163101114 55.509023753611864 31.371272697109912 79.965953480815628 29.081164070617419 21.991399596255764 74.718330919309636 77.352844394911017 14.679287090211348 87.421943044193881 79.612896256451407 84.313413559372819 71.147794375139071 16.032875165107747 16.95237380034558 26.628707829433328 14.31825359799315 67.737264604562782 42.258135820593289 19.238489860971583 81.918146050661576 13.47744802377834 33.113229966647388 11.856127934401513
decision_type=2 2 2 2 2 2 2 2 2 2 2 2 2 2 2 2 2 2 2 2 2 2 2 2 2 2 2 2 2 2
left_child=1 4 5 10 8 13 7 12 25 11 17 22 -4 -2 21 -12 -7 29 26 -13 -16 -6 -5 24 -8 -1 -9 -11 -10 -3
right_child=2 3 6 9 14 16 23 18 28 27 15 19 -14 -15 20 -17 -18 -19 -20 -21 -22 -23 -24 -25 -26 -27 -28 -29 -30 -31
leaf_value=-0.012340454352290734 -0.0048438083342176516 -0.0086116564067962916 -0.0015353279269785729 -0.0036687168693962571 -0.0092005819108130198 0.0008367146051737874 0.0019699239271993968 0.0013811017809105882 -0.0074271061587606324 0.0018323760661857064 -0.002397033057596463 0.00085151071694795097 0.0030683236250964308 -0.00022535444831622668 -0.0045477076478422493 0.0030634572201718889 0.0054703019824810326 -0.0027591513893437678 0.006117342945966121 0.0046293459201339057 -0.0012117154203474011 -0.0044746164483949547 2.1901441439033743e-05 0.0060050282655182583 0.0052558472653188261 -0.0094714817709631687 0.0057470530851708689 0.00535281212063312 -0.0035505679822186147 -0.0054750336716156726
leaf_weight=161 149 76 148 94 72 113 99 90 138 54 130 133 135 114 162 45 75 81 179 78 102 50 88 644 281 132 46 151 41 122
leaf_count=161 149 76 148 94 72 113 99 90 138 54 130 133 135 114 162 45 75 81 179 78 102 50 88 644 281 132 46 151 41 122
internal_value=3.31665e-05 -0.0035786 0.00336094 -0.000647395 -0.00717256 -0.000537908 0.00444502 0.00279375 -0.00933806 0.00173684 -0.00378786 0.000334371 0.00066076 -0.00284189 -0.0045246 -0.000992907 0.00268522 -0.00554097 0.00471006 0.00224806 -0.0032588 -0.00726371 -0.00188424 0.00540933 0.00439978 -0.0110479 0.00285782 0.00442548 -0.00653918 -0.00667899
internal_weight=3983 1910 2073 1052 858 451 1622 598 472 598 454 393 283 263 386 175 188 279 315 211 264 122 182 1024 380 293 136 205 179 198
internal_count=3983 1910 2073 1052 858 451 1622 598 472 598 454 393 283 263 386 175 188 279 315 211 264 122 182 1024 380 293 136 205 179 198
is_linear=0
shrinkage=0.05


Tree=17
num_leaves=31
num_cat=0
split_feature=2 6 6 5 5 2 5 5 6 2 2 2 6 6 2 2 6 2 2 6 5 6 6 5 6 5 6 6 2 2
split_gain=17.3054 7.5631 2.85109 2.44668 2.33881 1.23112 1.02881 0.847911 0.797935 0.769231 0.662322 0.631659 0.629874 0.461229 0.394234 0.388148 0.383484 0.376453 0.34518 0.28403 0.270938 0.269907 0.263151 0.241708 0.2244 0.221818 0.200635 0.198914 0.186774 0.147783
threshold=51.142016936227613 57.064611051316881 21.31986996751845 13.787113416810502 7.7867167224331384 31.371272697109912 11.397415975151764 7.4973367163101114 48.053790121993835 29.081164070617419 31.371272697109912 24.097058931132036 23.810467761770891 33.113229966647388 77.352844394911017 84.785621946347703 16.265577768192273 71.147794375139071 79.612896256451407 79.965953480815628 3.9047827289499799 84.313413559372819 74.474317700560661 4.1791408303523196 96.181864394398062 17.602442338832166 25.048773858204303 87.805638105767471 10.996454345483849 67.737264604562782
decision_type=2 2 2 2 2 2 2 2 2 2 2 2 2 2 2 2 2 2 2 2 2 2 2 2 2 2 2 2 2 2
left_child=1 3 6 5 9 12 14 8 15 24 16 21 -1 23 -2 -4 -5 19 -8 -10 -14 25 -13 -7 -3 -6 -12 -11 -22 -9
right_child=2 4 7 10 11 13 18 29 17 27 26 22 20 -15 -16 -17 -18 -19 -20 -21 28 -23 -24 -25 -26 -27 -28 -29 -30 -31
leaf_value=-0.011333414962670457 -0.0042351585344539405 -0.0058110776320755113 -0.0010778666786867084 -0.0074612705104593795 -0.0015926687543105799 -0.0091555725111335997 0.00078132723053419824 0.0044009032917617852 0.00065279724407254873 -0.0015062652838937736 -0.001882570115978726 0.0020852359838765835 -0.010317150670487215 -0.0025452423022790374 -0.00021408673073573597 0.0037087320660551394 -0.0028918599443987676 0.0055528920189634508 0.0051967868797170623 0.0052495087755512664 -0.0088755682626595871 0.0026465237491224386 0.0050736217387705382 -0.0053718159860679819 -0.00020667825592681768 0.0032118399370590165 0.0021613450694671819 0.0027171658069710248 -0.00562104626426373 0.0057047768523273068
leaf_weight=192 131 167 144 62 140 61 108 328 95 92 54 130 68 114 114 60 177 218 75 52 65 88 170 137 20 29 71 40 137 644
leaf_count=192 131 167 144 62 140 61 108 328 95 92 54 130 68 114 114 60 177 218 75 52 65 88 170 137 20 29 71 40 137 644
internal_value=3.15082e-05 -0.00322723 0.00336472 -0.00591549 0.000265054 -0.00750538 -0.000245489 0.00436743 0.0028345 -0.00314882 -0.00253478 0.00222022 -0.00914411 -0.0050788 -0.00236413 0.000329956 -0.00407723 0.0042343 0.00259094 0.00227884 -0.00758726 0.000401027 0.00377865 -0.00653752 -0.00521168 -0.000768226 0.000414374 -0.000226438 -0.00666829 0.00526479
internal_weight=3983 2014 1969 1138 876 774 428 1541 569 319 364 557 462 312 245 204 239 365 183 147 270 257 300 198 187 169 125 132 202 972
internal_count=3983 2014 1969 1138 876 774 428 1541 569 319 364 557 462 312 245 204 239 365 183 147 270 257 300 198 187 169 125 132 202 972
is_linear=0
shrinkage=0.05


Tree=18
num_leaves=31
num_cat=0
split_feature=2 6 6 2 2 2 6 6 2 6 6 6 2 2 6 6 2 6 6 6 6 6 2 2 2 2 2 6 2 2
split_gain=15.6245 6.61634 2.85953 1.27417 1.213 0.953476 0.729945 0.662337 0.639348 0.629506 0.600295 0.275658 0.263156 0.184421 0.173796 0.155851 0.154762 0.15025 0.139624 0.138828 0.124934 0.12266 0.122253 0.110146 0.101094 0.0986614 0.0940006 0.091367 0.0894306 0.088116
threshold=48.384947165207066 55.760399188304142 25.048773858204303 25.800832826845319 17.688025997242772 62.070775705030535 23.445543051260003 16.852359961012116 71.927225579549557 82.354409087319638 72.490763203207351 77.545421804918433 79.240384417692226 62.070775705030535 31.778717645289472 66.798571993391718 4.5662902358515955 40.901285274111608 47.378854107371986 7.4846055227393355 15.311732080311264 37.35134296682785 79.612896256451407 9.9824170257881999 35.78030945758244 12.36201287728082 41.291518933692423 6.7310778283415926 26.891267146011923 35.197295451922422
decision_type=2 2 2 2 2 2 2 2 2 2 2 2 2 2 2 2 2 2 2 2 2 2 2 2 2 2 2 2 2 2
left_child=1 3 5 6 11 -2 19 26 10 15 13 25 27 17 -9 28 -8 -4 22 -1 -14 -18 -10 -13 -17 -3 -5 -7 -6 -16
right_child=2 4 8 7 9 12 16 14 18 -11 -12 23 20 -15 29 24 21 -19 -20 -21 -22 -23 -24 -25 -26 -27 -28 -29 -30 -31
leaf_value=-0.011443896190106094 -0.003685367231018906 -0.0049229752173473853 -0.00085328712712825204 -0.0075031467581768395 -0.003213961465427509 -0.0019297591500799173 -0.0086362766021178382 -0.0041002291036951596 0.0023464765313977684 0.0036326255895050745 0.0049833939638346232 -0.0020789855314835319 0.0013255577078939134 0.0030043423380030675 -0.0030229509063639942 0.00012465396611382966 -0.0068217449497721093 0.0018375581506767484 0.0054815050298044378 -0.0088261757342528706 0.0037726447527071864 -0.0047210047465559473 0.004801655170495106 0.00060451522076618866 0.0024116213643887584 -0.0022769444076005708 -0.0049893633890238376 0.0004827758631991677 -0.00037034193652767789 -0.0008540284002633967
leaf_weight=77 137 98 77 107 39 55 49 137 73 206 249 95 126 207 81 127 119 159 598 148 89 167 166 64 78 55 57 137 95 111
leaf_count=77 137 98 77 107 39 55 49 137 73 206 249 95 126 207 81 127 119 159 598 148 89 167 166 64 78 55 57 137 95 111
internal_value=2.99328e-05 -0.00323257 0.00303591 -0.00588741 2.94437e-05 -7.74009e-05 -0.00751933 -0.00403371 0.00414358 0.00145272 0.00301912 -0.00245672 0.00113707 0.00191505 -0.00273978 0.000128055 -0.00603992 0.000959613 0.00507325 -0.00972202 0.00233854 -0.00559509 0.00405175 -0.000998834 0.000994817 -0.00397179 -0.00662945 -0.000208315 -0.00119796 -0.00176904
internal_weight=3983 1910 2073 1053 857 544 560 493 1529 545 692 312 407 443 329 339 335 236 837 225 215 286 239 159 205 153 164 192 134 192
internal_count=3983 1910 2073 1053 857 544 560 493 1529 545 692 312 407 443 329 339 335 236 837 225 215 286 239 159 205 153 164 192 134 192
is_linear=0
shrinkage=0.05


Tree=19
num_leaves=31
num_cat=0
split_feature=2 6 5 6 5 2 5 2 5 6 2 6 2 6 2 6 5 6 2 5 2 2 6 6 2 5 6 5 5 2
split_gain=14.1079 6.17007 2.67608 2.3347 1.65745 0.988981 0.937383 0.763412 0.76122 0.69003 0.655232 0.528844 0.42253 0.341467 0.336722 0.317891 0.31746 0.310674 0.296309 0.251604 0.25083 0.230074 0.220282 0.190394 0.184761 0.180855 0.180171 0.17623 0.153421 0.14792
threshold=51.142016936227613 45.80168471451929 11.561855274059214 21.31986996751845 10.237279766060354 30.182435660928185 8.4600382020407334 22.293732925084708 7.4973367163101114 55.509023753611864 26.891267146011923 73.070833792246603 78.187233849063531 78.608090233122098 80.46285025589269 84.313413559372819 15.325809950476243 14.980668989726189 21.991399596255764 4.4374722997648615 67.385050074337158 71.147794375139071 14.195548867802023 87.421943044193881 9.9824170257881999 4.1791408303523196 15.311732080311264 4.2592075678673362 17.187315677297839 11.856127934401513
decision_type=2 2 2 2 2 2 2 2 2 2 2 2 2 2 2 2 2 2 2 2 2 2 2 2 2 2 2 2 2 2
left_child=1 4 5 6 7 15 20 -1 9 12 16 18 -5 27 -8 19 26 -9 -4 29 -2 23 -12 -11 -13 -19 -6 -7 -24 -3
right_child=3 2 11 8 10 13 14 17 -10 21 22 24 -14 -15 -16 -17 -18 25 -20 -21 -22 -23 28 -25 -26 -27 -28 -29 -30 -31
leaf_value=-0.010687159476693461 -0.0055449772744485346 -0.0096686161853171693 -0.0011932999219725639 -0.0011382341429813073 -0.010143631457900391 -0.0039446327644224585 0.00031989629517818004 -0.0086264006198487342 0.0047956108014985174 0.0013793481258138249 -0.004179661249805052 0.00080619526183786433 0.0029059533147869445 0.0021719609176958626 0.0041292023671006687 -0.0018452547694182307 -0.0037874384225792257 -0.0070495475042844195 0.0022943893265092163 -0.0040002090649894932 -0.0016234897884419112 0.0052619709573782378 -0.0017663964974724039 0.0058862849889743715 0.0046494353176751591 -0.0039003918075221286 -0.0059901996533374621 -0.00033213816403526497 0.0017174522900432398 -0.0055945250505049322
leaf_weight=172 61 37 109 149 39 53 149 108 972 96 59 37 114 98 95 103 131 80 138 176 123 179 89 31 202 106 79 93 49 56
leaf_count=172 61 37 109 149 39 53 149 108 972 96 59 37 114 98 95 103 131 80 138 176 123 179 89 31 202 106 79 93 49 56
internal_value=2.84362e-05 -0.00291388 -0.000396244 0.00303799 -0.00595601 -0.00258479 -0.000228958 -0.0080413 0.00394536 0.00249291 -0.00377721 0.00237772 0.00061476 -0.000111075 0.00180303 -0.00420734 -0.00548185 -0.00649339 0.000755288 -0.00511178 -0.00292355 0.00410714 -0.00162261 0.00247947 0.00405446 -0.00525487 -0.00736294 -0.00164352 -0.000529378 -0.0072154
internal_weight=3983 2014 1102 1969 912 616 428 466 1541 569 446 486 263 244 244 372 249 294 247 269 184 306 197 127 239 186 118 146 138 93
internal_count=3983 2014 1102 1969 912 616 428 466 1541 569 446 486 263 244 244 372 249 294 247 269 184 306 197 127 239 186 118 146 138 93
is_linear=0
shrinkage=0.05


Tree=20
num_leaves=31
num_cat=0
split_feature=6 5 5 6 5 6 6 5 5 5 6 6 5 5 6 6 4 6 6 5 5 1 6 5 6 3 1 6 6 3
split_gain=7.45926 2.82587 2.24148 1.07284 0.810159 0.434946 0.429879 0.415387 0.366917 0.262523 0.260834 0.226947 0.204263 0.130723 0.122621 0.107817 0.102461 0.110275 0.100852 0.0950591 0.0879229 0.0860714 0.102989 0.0831642 0.079748 0.0780522 0.0755965 0.0735413 0.0720018 0.0656302
threshold=39.669647213744291 11.268872714139185 9.2397733155534123 70.16328665158106 3.6739207915828103 13.715037945077931 67.559016971724915 16.76206127673818 3.2408933376061024 4.3608991207801093 16.265577768192273 10.696200002823977 18.037308360425026 14.31825359799315 89.330270697253141 8.7521818157670435 108.13168394101413 54.612072167979441 91.448681661638616 5.903303689835818 15.325809950476243 1016.5858817938375 23.445543051260003 13.328793863780549 83.131254251922044 12.682297192102103 999.03688946918726 33.61946725690143 75.487496990971479 3.6785088108668988
decision_type=2 2 2 2 2 2 2 2 2 2 2 2 2 2 2 2 2 2 2 2 2 2 2 2 2 2 2 2 2 2
left_child=1 4 3 8 10 -6 12 11 29 24 25 20 23 18 -11 -9 -10 -18 -8 27 -3 -21 -23 -4 28 -1 -17 -7 -5 -2
right_child=2 7 6 9 5 19 13 15 16 14 -12 -13 -14 -15 -16 26 17 -19 -20 21 -22 22 -24 -25 -26 -27 -28 -29 -30 -31
leaf_value=-0.0093889192784471168 -0.00084596597746265352 -0.0037781503236265449 0.00095173665187813004 0.00071440195962269276 -0.0052328296666086386 -0.004394409485867919 0.0027353476417578799 -0.00071174341126538398 -0.0017190379226425041 0.0020341604519587431 -0.0052286865803090714 -0.00046426885670856189 0.0040734782292114182 0.0046166055913520352 0.0042505268260593651 -0.00016573910717852415 -0.0010059578745054247 0.0010787136015617325 0.0046693032219385115 -0.0027756680005553884 -0.00048522801281741031 -0.0029410477524544013 -4.2083301237157272e-05 0.0022708763237703862 0.0012908582177797079 -0.0069827636717281379 0.0022373278503396757 -0.0013597587159333321 -0.0019326677163397626 -0.0035465377561173274
leaf_weight=70 26 92 199 54 216 86 245 53 117 194 156 300 116 383 92 40 123 131 93 156 26 47 88 299 139 65 180 26 49 167
leaf_count=70 26 92 199 54 216 86 245 53 117 194 156 300 116 383 92 40 123 131 93 156 26 47 88 299 139 65 180 26 49 167
internal_value=3.43206e-05 -0.00261487 0.00178189 0.000101801 -0.00444536 -0.00342246 0.00315616 -0.000204225 -0.00141457 0.00172156 -0.00662123 -0.00119494 0.00218389 0.00398414 0.00274712 0.0013127 -0.000494741 6.92073e-05 0.00326747 -0.00245213 -0.00305259 -0.00197573 -0.00105135 0.00174375 0.00050953 -0.0082304 0.00180041 -0.00368994 -0.000544884 -0.00318273
internal_weight=4028 1601 2427 1092 910 619 1335 691 564 528 291 418 614 721 286 273 371 254 338 403 118 291 135 498 242 135 220 112 103 193
internal_count=4028 1601 2427 1092 910 619 1335 691 564 528 291 418 614 721 286 273 371 254 338 403 118 291 135 498 242 135 220 112 103 193
is_linear=0
shrinkage=0.05


Tree=21
num_leaves=31
num_cat=0
split_feature=6 5 5 6 5 6 5 5 6 6 6 5 5 5 6 5 6 1 1 4 6 6 6 0 0 5 0 6 6 3
split_gain=6.74161 2.72891 1.89087 0.84517 0.766748 0.458708 0.400814 0.347963 0.303483 0.284644 0.270832 0.235339 0.155308 0.138771 0.122265 0.11308 0.110061 0.105998 0.140709 0.103265 0.0990726 0.0767832 0.0719726 0.0695416 0.0778596 0.0721479 0.101124 0.0649816 0.0637095 0.0977383
threshold=43.597711802991483 11.268872714139185 9.3131492907141098 70.16328665158106 3.9047827289499799 13.715037945077931 15.325809950476243 1.9591722186415974 16.265577768192273 67.559016971724915 12.239015226906204 4.3608991207801093 17.903774653100083 18.703722070524734 2.1855027105177953 15.388152248848572 89.330270697253141 1032.1872639324281 998.69247973000006 108.13168394101413 91.448681661638616 31.24063123265308 83.131254251922044 -6.0627309762725989 -1.218983269862737 8.5501145961769982 22.333405280247792 75.487496990971479 54.281874095515306 9.0781344721303938
decision_type=2 2 2 2 2 2 2 2 2 2 2 2 2 2 2 2 2 2 2 2 2 2 2 2 2 2 2 2 2 2
left_child=1 4 3 7 8 -6 10 -2 -1 12 -3 22 -4 14 -8 20 -13 18 -16 -9 -11 -7 27 -23 -25 26 -26 -5 -21 -30
right_child=2 6 9 11 5 21 13 19 -10 15 -12 16 -14 -15 17 -17 -18 -19 -20 28 -22 23 -24 24 25 -27 -28 -29 29 -31
leaf_value=-0.0076942061803290723 -0.0037350203402402929 -0.0034469219850931359 0.0018524668418630173 0.00067868186482950552 -0.0049563700709092835 -0.0026535649222732835 -0.0033311520144343378 -0.0017426510340022309 -0.0046542913088555501 0.002774018854856908 -0.00038034736779423903 0.0019145113527112958 0.0040707260382256095 0.0025214571640890843 -0.0011265727702131564 0.0045265968576320842 0.0039791891169443259 -0.0014162126249082539 0.0017608039561460649 -0.00092555692363357935 0.0045215587340602988 -0.0040975439589237793 0.0012263153042734714 0.0019474018807522954 -0.003470523319315519 0.00017475829487617983 3.0771801903028972e-05 -0.0018360343595434513 0.0021425080109530917 -0.00036312496036377536
leaf_weight=144 108 104 423 54 210 274 20 121 191 294 234 197 97 109 54 308 96 49 193 108 112 20 139 20 58 48 32 49 65 97
leaf_count=144 108 104 423 54 210 274 20 121 191 294 234 197 97 109 54 308 96 49 193 108 112 20 139 20 58 48 32 49 65 97
internal_value=3.26045e-05 -0.00228945 0.00183455 0.000257387 -0.00401181 -0.00302543 -3.88723e-05 -0.00122277 -0.005961 0.0031561 -0.00132391 0.00163795 0.00226626 0.00098311 0.000452477 0.00380416 0.00259099 0.000708128 0.00112956 -0.000528852 0.0032561 -0.00212831 0.000484054 -0.00131978 -0.00096816 -0.0013907 -0.00222562 -0.000517639 1.51102e-05 0.000642222
internal_weight=4028 1760 2268 1034 997 662 763 499 335 1234 338 535 520 425 316 714 293 296 247 391 406 452 242 178 158 138 90 103 270 162
internal_count=4028 1760 2268 1034 997 662 763 499 335 1234 338 535 520 425 316 714 293 296 247 391 406 452 242 178 158 138 90 103 270 162
is_linear=0
shrinkage=0.05


Tree=22
num_leaves=31
num_cat=0
split_feature=2 6 6 5 2 5 5 5 5 6 2 2 6 2 5 2 6 6 2 5 5 2 2 6 5 5 2 5 5 5
split_gain=13.199 3.83751 2.62085 1.84232 1.71576 1.06601 0.891208 0.637218 0.585705 0.484113 0.431559 0.39457 0.343149 0.340449 0.373263 0.319673 0.295448 0.289752 0.258024 0.245268 0.243737 0.229979 0.21202 0.208921 0.195038 0.151834 0.14116 0.137335 0.127358 0.124522
threshold=39.091888558036921 45.80168471451929 35.599706355844866 8.9556686315461285 63.541595493233565 9.167493167202915 8.4600382020407334 3.2408933376061024 14.114905856950662 75.881856321277525 17.323021339847593 78.59967132525243 12.239015226906204 59.030328942923525 12.142192176162512 20.691761147278296 84.313413559372819 79.039032554061833 26.548201630924748 14.646457581470601 3.9047827289499799 88.661316213314151 11.856127934401513 79.410223972016709 15.388152248848572 2.9176346285058301 84.785621946347703 17.119954133685741 14.784860266618301 4.8419865466273935
decision_type=2 2 2 2 2 2 2 2 2 2 2 2 2 2 2 2 2 2 2 2 2 2 2 2 2 2 2 2 2 2
left_child=1 5 4 16 8 10 21 11 20 15 -1 23 -7 14 17 -5 22 -9 27 26 -2 -6 -3 -4 -11 -12 -8 -14 -17 -18
right_child=2 3 7 9 6 12 19 13 -10 24 25 -13 18 -15 -16 28 29 -19 -20 -21 -22 -23 -24 -25 -26 -27 -28 -29 -30 -31
leaf_value=-0.010734339238655183 -0.0065435216836704059 -0.007022863155932247 -0.0013336658177804104 -0.0022767303702582059 -0.0016375408001203442 -0.0070704795166591913 0.0011123540971930198 5.719323157285948e-05 0.00067925990401168494 0.0012309725149553885 -0.0089977972423199749 0.0041196844762644586 -0.0055371388037697067 0.0045235501143616342 0.0043297549851279028 -0.00053744872122825609 -0.0032493375340224406 0.0038731781713738055 -0.0015797048057608017 0.0051016756250032201 -0.0029637570983283477 0.0016594661883839474 -0.0039316683015468623 0.0027726788888685406 0.0043246063814215384 -0.0059703889407592926 0.0040398882005995675 -0.0026583488295978774 0.0025408644664114237 0.00023007422659753097
leaf_weight=124 64 81 118 145 149 101 100 144 98 121 61 76 145 902 208 63 60 76 97 148 185 82 176 42 88 129 70 58 72 45
leaf_count=124 64 81 118 145 149 101 100 144 98 121 61 76 145 902 208 63 60 76 97 148 185 82 176 42 88 129 70 58 72 45
internal_value=3.09743e-05 -0.00355778 0.00231367 -0.00128903 0.00015697 -0.00625807 0.00189646 0.00354764 -0.00259514 0.000712618 -0.00843982 0.00115329 -0.00454967 0.0039725 0.00281118 -0.000646582 -0.00399291 0.00137544 -0.003701 0.00361345 -0.00388386 -0.000467175 -0.00490594 -0.00025575 0.00253356 -0.00694235 0.00231781 -0.00471463 0.00110432 -0.00175816
internal_weight=4028 1566 2462 851 896 715 549 1566 347 489 314 236 401 1330 428 280 362 220 300 318 249 231 257 160 209 190 170 203 135 105
internal_count=4028 1566 2462 851 896 715 549 1566 347 489 314 236 401 1330 428 280 362 220 300 318 249 231 257 160 209 190 170 203 135 105
is_linear=0
shrinkage=0.05


Tree=23
num_leaves=31
num_cat=0
split_feature=6 5 5 6 5 6 5 6 5 6 5 6 5 6 5 6 6 4 6 5 1 6 3 5 1 5 3 3 1 1
split_gain=5.53526 2.09392 1.65989 0.822821 0.619766 0.338365 0.320204 0.320036 0.282424 0.208044 0.196108 0.17925 0.160653 0.0940873 0.103046 0.0907488 0.0841229 0.0760147 0.0822155 0.0756528 0.0727123 0.0825142 0.0655137 0.063958 0.0797542 0.0621127 0.061953 0.0614 0.0595614 0.059273
threshold=39.669647213744291 11.268872714139185 9.3131492907141098 70.16328665158106 3.6739207915828103 13.715037945077931 16.76206127673818 67.559016971724915 3.2408933376061024 16.265577768192273 4.3608991207801093 16.265577768192273 16.032875165107747 91.448681661638616 14.31825359799315 89.330270697253141 8.7521818157670435 111.03234104746431 54.612072167979441 5.903303689835818 1016.5858817938375 23.445543051260003 12.682297192102103 15.325809950476243 1016.4256081116204 0.61958379234659977 18.486468161567668 18.991787839203166 1002.9225470617188 999.03688946918726
decision_type=2 2 2 2 2 2 2 2 2 2 2 2 2 2 2 2 2 2 2 2 2 2 2 2 2 2 2 2 2 2
left_child=1 4 3 8 9 -6 11 12 -2 22 -5 23 28 14 -9 -12 -8 -10 -19 -7 -21 -22 -1 -3 -25 -11 -27 -23 -4 -18
right_child=2 6 7 10 5 19 16 13 17 25 15 -13 -14 -15 -16 -17 29 18 -20 20 21 27 -24 24 -26 26 -28 -29 -30 -31
leaf_value=-0.0082299927718538276 -0.0027817846910683907 -0.0027962543230604579 0.0023115027137100698 0.00045241974660388795 -0.0045304648143411654 -0.0031821049569641345 -0.0006339590999043551 0.0023346686910857293 -0.0014557537105615629 -0.0065324636176228527 0.001761475898609686 -0.00016874775943888159 0.0028890122616209461 0.0043851958827797284 0.0037465661614468058 0.0036362786633011034 -0.00015592892130371184 -0.00085595560513178424 0.00095080103406632076 -0.002388096154451584 -0.0024946880885375108 0.00086267636859591935 -0.0060255579053997421 0.0017202343110693621 -0.0026915487567228929 -0.0032997646367746505 -0.0057539867311586735 -0.0021874107050032102 0.00085930751187656427 0.001971934439886051
leaf_weight=70 193 134 95 242 216 112 53 240 121 30 197 243 242 194 280 96 40 123 129 156 47 66 65 20 21 90 36 22 275 180
leaf_count=70 193 134 95 242 216 112 53 240 121 30 197 243 242 194 280 96 40 123 129 156 47 66 65 20 21 90 36 22 275 180
internal_value=2.94256e-05 -0.00225267 0.00153484 9.98358e-05 -0.00382837 -0.00293369 -0.000177584 0.00272634 -0.00122908 -0.00573147 0.00150576 -0.00104742 0.00188733 0.0034455 0.00309492 0.00237575 0.00115425 -0.000425671 6.89317e-05 -0.00207785 -0.00165285 -0.000803235 -0.0071686 -0.00226752 -0.000539459 -0.0044878 -0.00400097 0.000100155 0.00123217 0.00158505
internal_weight=4028 1601 2427 1101 910 619 691 1326 566 291 535 418 612 714 520 293 273 373 252 403 291 135 135 175 41 156 126 88 370 220
internal_count=4028 1601 2427 1101 910 619 691 1326 566 291 535 418 612 714 520 293 273 373 252 403 291 135 135 175 41 156 126 88 370 220
is_linear=0
shrinkage=0.05


Tree=24
num_leaves=31
num_cat=0
split_feature=2 6 6 2 5 5 5 2 5 5 6 2 6 2 6 5 5 2 2 6 5 2 5 6 2 5 5 6 5 5
split_gain=11.8837 3.14155 2.19585 1.6249 1.50705 0.785333 0.750726 0.562402 0.683307 0.504954 0.50352 0.433502 0.406526 0.297338 0.271977 0.228964 0.215911 0.211796 0.210911 0.198228 0.189635 0.161734 0.144788 0.143652 0.140546 0.130828 0.111899 0.115123 0.105598 0.105132
threshold=38.295058395642641 42.258135820593289 35.599706355844866 62.070775705030535 8.9556686315461285 12.623065612559367 5.455873801301764 63.541595493233565 10.948086770186313 14.114905856950662 66.014842843895948 14.679287090211348 79.039032554061833 78.59967132525243 84.313413559372819 15.388152248848572 5.0045860306987828 16.221075678463812 20.691761147278296 12.239015226906204 15.014712122646701 87.815190688125242 3.2408933376061024 91.448681661638616 21.991399596255764 4.2592075678673362 3.2408933376061024 57.064611051316881 14.193353271846744 4.8419865466273935
decision_type=2 2 2 2 2 2 2 2 2 2 2 2 2 2 2 2 2 2 2 2 2 2 2 2 2 2 2 2 2 2
left_child=1 5 3 9 14 11 21 8 12 16 18 -1 25 20 17 23 -2 -3 -6 -7 -8 -5 -13 -12 -21 -4 27 -9 -15 -16
right_child=2 4 7 6 10 19 13 26 -10 -11 15 22 -14 28 29 -17 -18 -19 -20 24 -22 -23 -24 -25 -26 -27 -28 -29 -30 -31
leaf_value=-0.0097971724116924543 -0.005724963639466756 -0.0063890130118428104 -0.0019272317515376771 -0.0023627366130444289 -0.0028931676585916503 -0.0062924657770054189 0.00035536072006629358 0.00086465006278754742 0.0038972499400850647 0.00060238314542784214 -0.00039914890076033773 -0.0082825916709707067 0.0033304066748224611 0.0032821771509172898 -0.0031207239470677451 0.0032523641392126742 -0.0026301392927325653 -0.003561320167021602 0.00024599942005670042 -0.004208165732048956 0.0036729541704434349 0.00090680788083362493 -0.005599570350113465 0.0029983782598098584 -0.0013959806781883041 0.00044451700533166259 0.0042938624099470284 0.0038629597384368577 0.005499374240373626 7.6335769263096169e-05
leaf_weight=134 87 114 92 97 126 64 124 51 302 93 129 68 101 129 60 123 160 158 93 109 66 62 193 41 75 158 796 86 92 45
leaf_count=134 87 114 92 97 126 64 124 51 302 93 129 68 101 129 60 123 160 158 93 109 66 62 193 41 75 158 796 86 92 45
internal_value=2.79543e-05 -0.00343857 0.00215564 0.000197788 -0.00151296 -0.00610087 0.00182958 0.003279 0.00215355 -0.00253786 0.00025356 -0.00748545 0.000653275 0.00295821 -0.00391205 0.00160916 -0.00372022 -0.00474646 -0.0015601 -0.00389559 0.00150779 -0.00108782 -0.0062986 0.000420255 -0.00306189 -0.000428287 0.00406669 0.0027468 0.00420517 -0.00175056
internal_weight=4028 1532 2496 910 889 643 570 1586 653 340 512 395 351 411 377 293 247 272 219 248 190 159 261 170 184 250 933 137 221 105
internal_count=4028 1532 2496 910 889 643 570 1586 653 340 512 395 351 411 377 293 247 272 219 248 190 159 261 170 184 250 933 137 221 105
is_linear=0
shrinkage=0.05


Tree=25
num_leaves=31
num_cat=0
split_feature=2 6 6 2 5 5 5 5 2 5 6 6 5 2 6 5 6 2 5 6 2 5 6 2 6 5 2 6 6 5
split_gain=11.514 2.91892 1.98006 1.93094 1.09061 1.0739 0.696244 0.664291 0.393716 0.436063 0.313971 0.310456 0.294679 0.26239 0.203082 0.201323 0.190965 0.181744 0.169407 0.165058 0.164709 0.162097 0.137587 0.13705 0.132892 0.12383 0.120485 0.109796 0.0954178 0.0946831
threshold=35.78030945758244 57.938273718284542 48.519395661095096 63.541595493233565 13.112557348674455 10.237279766060354 13.391294431632554 11.268872714139185 58.471743809914301 10.307466650816947 16.852359961012116 15.977219511408315 6.0415673452452978 90.934793084908975 7.01742591481639 17.976057980399695 78.119621664195435 9.1622159623259662 2.6914853818147848 86.401249905531031 9.9824170257881999 2.9176346285058301 22.041222739802809 17.323021339847593 18.08966038287593 6.3303464545447854 13.065924781495577 10.324626691715968 75.881856321277525 1.1221494791341504
decision_type=2 2 2 2 2 2 2 2 2 2 2 2 2 2 2 2 2 2 2 2 2 2 2 2 2 2 2 2 2 2
left_child=1 5 3 6 12 11 14 13 9 16 17 25 26 22 -2 -12 -4 -7 -16 -6 -14 -13 -5 -23 -8 -1 -3 -9 -22 -10
right_child=2 4 8 7 19 10 24 27 29 -11 15 21 20 -15 18 -17 -18 -19 -20 -21 28 23 -24 -25 -26 -27 -28 -29 -30 -31
leaf_value=-0.010491719930432738 -0.0056804203183855864 -0.0057621684921741693 -0.00062967260020016513 -0.0010118434656132516 0.0011367588906707156 -0.0094213689278279042 -0.0010148576655440399 0.0020937068917107984 0.0020364256065646658 0.0036372555247874481 -0.003514920985126509 -0.0082599162147380424 -0.0032945498167328648 0.0032052264083176855 -0.0050757990921668425 -0.00035877154186891858 0.0023145460990564698 -0.0047899845554680706 -0.00192906672603072 0.0042946318877766952 -0.0017665869704703051 -0.006972886678646319 0.0011385950520525513 -0.0044367963312859568 0.0018948975872692909 -0.0074097798155112714 -0.0030147945174490505 0.0043957386262870081 0.00083965291642802372 0.0041127802128285438
leaf_weight=80 60 64 133 139 151 28 61 65 59 243 240 80 67 91 52 64 94 87 241 57 62 100 160 114 110 55 106 255 81 791
leaf_count=80 60 64 133 139 151 28 61 65 59 243 240 80 67 91 52 64 94 87 241 57 62 100 160 114 110 55 106 255 81 791
internal_value=-3.35523e-05 -0.00361558 0.00198046 0.000540575 -0.000908425 -0.00549271 -0.00176172 0.00223973 0.00332654 0.00216526 -0.00369229 -0.00725117 -0.00250157 0.000854371 -0.00303023 -0.00285047 0.000589519 -0.00591763 -0.00248753 0.00200214 -0.00124882 -0.00633972 0.000138893 -0.00562189 0.000856915 -0.00923611 -0.0040491 0.00392814 -0.000290325 0.00396866
internal_weight=3990 1436 2554 1234 588 848 524 710 1320 470 419 429 380 390 353 304 227 115 293 208 210 294 299 214 171 135 170 320 143 850
internal_count=3990 1436 2554 1234 588 848 524 710 1320 470 419 429 380 390 353 304 227 115 293 208 210 294 299 214 171 135 170 320 143 850
is_linear=0
shrinkage=0.05


Tree=26
num_leaves=31
num_cat=0
split_feature=2 6 6 5 2 2 5 5 6 5 6 6 2 5 5 5 6 2 5 2 5 2 2 6 5 6 2 2 5 5
split_gain=10.3913 2.63813 1.80558 1.01261 0.959159 0.92728 0.925508 0.79448 0.59617 0.3655 0.297026 0.294183 0.267628 0.24948 0.216217 0.175248 0.160678 0.153386 0.159266 0.144333 0.13611 0.135011 0.134982 0.133053 0.131913 0.128668 0.119058 0.113424 0.108433 0.0957393
threshold=35.78030945758244 59.424218068477977 21.594723553244325 10.237279766060354 65.11217329567738 62.424634571213609 7.6705824010124291 11.691903654082276 70.993276791800227 13.328793863780549 12.239015226906204 26.194892052714724 9.9824170257881999 7.1832204596027607 17.903774653100083 16.032875165107747 49.554098308546351 77.929571305689919 7.7867167224331384 13.065924781495577 2.6914853818147848 28.10437545375504 56.080208799715315 58.23485890634592 5.3828993590855072 88.592958933893058 9.1622159623259662 16.570073539774167 3.5753428561091662 6.458185732456375
decision_type=2 2 2 2 2 2 2 2 2 2 2 2 2 2 2 2 2 2 2 2 2 2 2 2 2 2 2 2 2 2
left_child=1 3 5 11 7 13 19 8 22 24 26 21 -8 -2 27 25 -9 18 23 -3 -13 29 -4 -6 -7 -14 -5 -12 -10 -1
right_child=2 6 4 10 17 9 12 16 28 -11 14 20 15 -15 -16 -17 -18 -19 -20 -21 -22 -23 -24 -25 -26 -27 -28 -29 -30 -31
leaf_value=-0.0099901023030441304 -0.0051568865061219615 -0.0051815637151441099 -0.0019668712766248773 -0.0091671183482622317 0.00013967564707854764 -0.0017065161952703465 -0.0016096197248447828 0.0016293980375849061 0.00036945688119046217 0.0034106376995755869 -0.0045034955527250044 -0.0076994422166684617 -0.00019846471581751337 -0.0017616800574667625 -0.00045972633706224339 0.0032536957073413457 0.0037921069469682026 0.0040465588380703358 0.0035794303601097755 -0.0024386788579151752 -0.0049587037386531439 -0.0059188703035420558 0.00018075845170772352 0.0030610917918812977 0.00081882209811218274 0.0029296471261080694 -0.0049550119462618307 -0.0024536678768493862 0.0030512135336090585 -0.0074411070371260407
leaf_weight=93 89 76 211 23 80 82 90 128 52 110 133 61 130 138 77 96 261 675 263 130 176 47 112 76 140 44 62 137 137 61
leaf_count=93 89 76 211 23 80 82 90 128 52 110 133 61 130 138 77 96 261 675 263 130 176 47 112 76 140 44 62 137 137 61
internal_value=-3.18747e-05 -0.0034348 0.00188144 -0.00516338 0.00258516 -0.000630061 -0.000777799 0.0013771 8.29358e-05 0.00105383 -0.00344577 -0.00685747 0.000751647 -0.00309284 -0.00279688 0.00153874 0.00308047 0.0035801 0.00282866 -0.00345062 -0.00566413 -0.00826455 -0.00122218 0.00156293 -0.000113961 0.000592552 -0.00609476 -0.0034634 0.00231338 -0.00898044
internal_weight=3990 1436 2554 870 1995 559 566 901 512 332 432 438 360 227 347 270 389 1094 419 206 237 201 323 156 222 174 85 270 189 154
internal_count=3990 1436 2554 870 1995 559 566 901 512 332 432 438 360 227 347 270 389 1094 419 206 237 201 323 156 222 174 85 270 189 154
is_linear=0
shrinkage=0.05


Tree=27
num_leaves=31
num_cat=0
split_feature=2 5 2 5 5 2 5 5 2 5 2 2 2 5 2 5 5 5 2 5 2 5 2 5 2 3 5 1 3 3
split_gain=9.37819 1.76378 1.55724 0.991993 0.412748 0.40762 0.313921 0.303219 0.264828 0.244329 0.159588 0.138587 0.138246 0.121194 0.116684 0.0978153 0.0863907 0.0855753 0.0804547 0.0780345 0.069003 0.06848 0.0684363 0.062365 0.0564568 0.0556319 0.0505366 0.0498867 0.0476624 0.0464815
threshold=35.78030945758244 11.196835036645789 63.541595493233565 12.475086817490896 3.4143088459484421 10.342864623989636 5.3828993590855072 4.3608991207801093 17.323021339847593 19.40610667207913 85.064467890466943 87.815190688125242 29.947614087687334 13.391294431632554 11.856127934401513 18.624844996781722 7.6705824010124291 16.95237380034558 59.030328942923525 14.784860266618301 50.019234004236118 0.76477858319573666 54.924181510716302 15.248035845031824 4.041180103264236 9.6656391122027525 9.3961036390565429 1034.7614770549487 20.038233944084691 17.689465055300779
decision_type=2 2 2 2 2 2 2 2 2 2 2 2 2 2 2 2 2 2 2 2 2 2 2 2 2 2 2 2 2 2
left_child=1 4 3 6 14 19 22 11 16 12 13 -4 17 -9 -1 20 24 27 -8 -3 -5 -16 -2 -14 -6 -21 -10 -7 -23 -24
right_child=2 5 7 15 8 9 18 10 26 -11 -12 -13 23 -15 21 -17 -18 -19 -20 25 -22 28 29 -25 -26 -27 -28 -29 -30 -31
leaf_value=-0.0082281961229940265 -0.0026607324607963458 -0.0049653157583927207 0.00065432903807442452 0.0011227855800648174 -0.008114921990116793 -0.002173878625837157 -0.00023235371603498001 0.0022038626755675416 -0.0033697917724640064 0.0033122788232159677 0.0039331807911178757 0.0029322833876300712 -0.00046428903647489391 0.0035420276938379473 -0.0077495008707046511 0.0038070363274346169 -0.0043626529784199413 -0.00026755808884266498 0.0018191612857793059 -0.001259871672344871 0.0025350667461193081 -0.004715932963881642 -0.0017557482906027122 0.0020991646925129161 -0.0055855120239777121 -0.0036838685964799621 -0.0017350918077863754 0.00018886528123402969 -0.0070375874156838871 0.00075569554195411637
leaf_weight=75 193 59 197 164 28 210 326 423 223 37 464 101 49 282 36 80 148 117 56 41 183 93 58 46 104 56 60 25 29 27
leaf_count=75 193 59 197 164 28 210 326 423 223 37 464 101 49 282 36 80 148 117 56 41 183 93 58 46 104 56 60 25 29 27
internal_value=-3.0281e-05 -0.00326306 0.00178737 0.000353074 -0.00483432 -0.00130881 -0.000861856 0.00285013 -0.00410187 -0.00059242 0.00321307 0.00142639 -0.000915628 0.00273913 -0.00660416 0.00223095 -0.00519208 -0.00137244 6.83919e-05 -0.00353144 0.00186759 -0.00583325 -0.00214011 0.000776962 -0.00612205 -0.00265929 -0.00302321 -0.00192252 -0.0052678 -0.000957996
internal_weight=3990 1436 2554 1087 796 640 660 1467 563 484 1169 298 447 705 233 427 280 352 382 156 347 158 278 95 132 97 283 235 122 85
internal_count=3990 1436 2554 1087 796 640 660 1467 563 484 1169 298 447 705 233 427 280 352 382 156 347 158 278 95 132 97 283 235 122 85
is_linear=0
shrinkage=0.05


Tree=28
num_leaves=31
num_cat=0
split_feature=2 6 6 5 5 5 2 5 6 2 2 2 2 2 5 6 6 6 6 5 2 5 6 6 6 5 5 6 5 6
split_gain=8.46397 3.01621 1.26081 0.940776 0.896237 0.527041 0.507827 0.492 0.510496 0.346751 0.317667 0.311635 0.238486 0.224356 0.210939 0.206073 0.200809 0.182267 0.148323 0.118527 0.115608 0.114306 0.103834 0.102593 0.0971626 0.0953538 0.0939622 0.0902906 0.0878978 0.0838497
threshold=43.497576991347792 57.938273718284542 21.594723553244325 10.237279766060354 13.112557348674455 8.9556686315461285 75.980234076365846 11.475555578882865 56.183029517743996 12.664442148382166 19.238489860971583 16.570073539774167 63.179589462080877 62.424634571213609 6.0415673452452978 29.444109892704258 29.956736114105542 34.148839331168155 86.401249905531031 18.777890852844759 29.947614087687334 15.690928743675221 79.039032554061833 84.313413559372819 94.210992603911635 2.2255873549842593 16.88212195502059 31.24063123265308 3.4143088459484421 41.205927957745843
decision_type=2 2 2 2 2 2 2 2 2 2 2 2 2 2 2 2 2 2 2 2 2 2 2 2 2 2 2 2 2 2
left_child=1 3 5 10 9 13 7 8 25 24 16 15 -7 -2 -11 -5 -1 28 20 27 -6 -14 -10 -16 -3 -4 -17 -13 -12 -9
right_child=2 4 6 11 18 12 -8 29 22 14 17 19 21 -15 23 26 -18 -19 -20 -21 -22 -23 -24 -25 -26 -27 -28 -29 -30 -31
leaf_value=-0.0088316692782719752 -0.0042379263080898431 -0.0041209879127070623 -0.0028787830460628144 -0.005975199550506659 0.00052361250186129667 -0.00098495674018007537 0.003616086195971379 0.0019198423455513661 0.0014449734249628028 -0.001979818694016016 -0.0071513963082586148 -0.0030624936580441412 0.0012823431011352584 -0.00088618000769253148 -0.00034477771334552799 -0.0038488193239216979 -0.0058364859845934682 -0.0030998951883323138 0.0041134953986827847 0.00067409866960810088 0.0031456687684672385 0.0038523657593717529 0.0032963515824713206 0.0021287048961828228 -0.00063105486721421291 -0.00027890138096567667 -0.00063736913697913923 -0.0011939528700121767 -0.0049176785481162373 0.003539730778241441
leaf_weight=109 77 118 42 100 119 83 749 105 161 146 68 143 116 142 112 69 115 103 73 41 65 69 143 67 24 220 34 118 125 334
leaf_count=109 77 118 42 100 119 83 749 105 161 146 68 143 116 142 112 69 115 103 73 41 65 69 143 67 24 220 34 118 125 334
internal_value=-2.87669e-05 -0.0026355 0.00200567 -0.00438057 -0.000164922 -0.00024506 0.00263059 0.00189612 0.000921823 -0.00146995 -0.00587335 -0.00284345 0.00124184 -0.00206465 -0.00056937 -0.00435842 -0.00729396 -0.00479829 0.00220647 -0.00182512 0.00144988 0.00224089 0.00231585 0.000581051 -0.00353114 -0.000695676 -0.00278873 -0.00221771 -0.00570469 0.00315229
internal_weight=3990 1749 2241 1025 724 487 1754 1005 566 467 520 505 268 219 325 203 224 296 257 302 184 185 304 179 142 262 103 261 193 439
internal_count=3990 1749 2241 1025 724 487 1754 1005 566 467 520 505 268 219 325 203 224 296 257 302 184 185 304 179 142 262 103 261 193 439
is_linear=0
shrinkage=0.05


Tree=29
num_leaves=31
num_cat=0
split_feature=2 6 6 2 5 5 2 6 5 5 6 5 6 5 2 2 5 2 5 6 2 6 5 2 6 2 5 2 5 2
split_gain=7.69412 2.13074 1.48597 0.860741 0.750953 0.703076 0.568526 0.46865 0.401771 0.340264 0.29149 0.273126 0.253616 0.204081 0.160037 0.158802 0.14492 0.137849 0.181248 0.15099 0.128575 0.126838 0.118513 0.1111 0.107514 0.107343 0.0992633 0.0916796 0.0915909 0.090092
threshold=35.78030945758244 59.424218068477977 28.333846818318815 63.541595493233565 11.196835036645789 7.6705824010124291 58.471743809914301 66.497201213549374 13.175782488050755 14.058770169208115 15.977219511408315 14.90920043390876 36.071038991672609 14.31825359799315 13.065924781495577 22.644058687235702 4.7197017640303089 77.929571305689919 8.1601739930334549 58.23485890634592 88.251804690585814 89.84624268885554 4.1791408303523196 11.856127934401513 3.6022857452761907 13.065924781495577 2.9176346285058301 11.856127934401513 6.9577138884769045 27.376108764221406
decision_type=2 2 2 2 2 2 2 2 2 2 2 2 2 2 2 2 2 2 2 2 2 2 2 2 2 2 2 2 2 2
left_child=1 4 3 9 10 25 7 11 20 22 23 28 14 21 -6 26 -9 18 19 -8 -5 27 -2 -1 -24 -3 -12 -7 -4 -15
right_child=2 5 6 8 12 13 17 16 -10 -11 15 -13 -14 29 -16 -17 -18 -19 -20 -21 -22 -23 24 -25 -26 -27 -28 -29 -30 -31
leaf_value=-0.0099702040640971615 -0.0050257482041201713 -0.0043899820662581515 -0.0020513606906701043 -0.00072512240656365397 -0.0056630746836567091 -0.0028769688395423937 -6.7907726458672966e-06 0.00042244016902611385 0.003291161763974022 0.00043159919458598465 -0.0077021215058300854 0.0021920219006190834 -0.0012000446948756387 0.0013463180245642955 -0.0029354411838357921 -0.0035608055942435942 0.0031273104070040554 0.0035593623322651767 0.0032077243293443802 0.0025795317139141608 0.0015353078796701103 0.0018684140707859221 -0.0056921107856475793 -0.0068529040761570502 -0.0020015761885614465 -0.0020245431634024359 -0.0052149095958818432 -0.00020013525671813459 -8.021054870413701e-05 0.0039744904040834748
leaf_weight=39 67 76 114 179 81 46 105 62 149 86 53 91 144 112 160 121 246 612 340 122 97 51 23 107 139 130 165 105 122 46
leaf_count=39 67 76 114 179 81 46 105 62 149 86 53 91 144 112 160 121 246 612 340 122 97 51 23 107 139 130 165 105 122 46
internal_value=-2.73286e-05 -0.0029555 0.00161905 -0.000269235 -0.00450898 -0.000567634 0.00238935 0.00118322 0.00119885 -0.00224998 -0.00581779 -0.000135067 -0.00286022 0.000765413 -0.0038522 -0.00501336 0.00258282 0.00303897 0.00247728 0.00138322 6.93042e-05 -0.000287454 -0.00325704 -0.00768561 -0.00252554 -0.00289723 -0.0058196 -0.00101559 -0.00103238 0.00211148
internal_weight=3990 1436 2554 740 870 566 1814 635 425 315 485 327 385 360 241 339 308 1179 567 227 276 202 229 146 162 206 218 151 236 158
internal_count=3990 1436 2554 740 870 566 1814 635 425 315 485 327 385 360 241 339 308 1179 567 227 276 202 229 146 162 206 218 151 236 158
is_linear=0
shrinkage=0.05


Tree=30
num_leaves=31
num_cat=0
split_feature=2 6 5 6 5 5 2 2 5 6 6 2 6 2 6 2 2 5 6 2 2 5 5 2 5 5 6 6 5 5
split_gain=6.6365 2.57004 0.980182 0.942476 0.749724 0.495078 0.480465 0.321664 0.341234 0.296694 0.277409 0.274361 0.243204 0.222196 0.220055 0.218206 0.171466 0.171104 0.168454 0.151461 0.113608 0.10831 0.0974724 0.0974533 0.097368 0.0970685 0.11002 0.0933895 0.0884347 0.078071
threshold=48.384947165207066 63.315709523954787 13.986240330078198 21.797142330634159 8.9556686315461285 7.103383166524659 18.822798298402404 70.747591189374944 11.475555578882865 72.061034288041085 18.08966038287593 75.50807604826926 29.956736114105542 17.688025997242772 32.289717253171439 27.677133482540508 77.352844394911017 7.1832204596027607 91.448681661638616 31.002289692714076 14.462859657182404 17.822959035090811 9.0959044106342883 4.5662902358515955 7.1832204596027607 3.2408933376061024 72.747426905291221 87.421943044193881 2.6088121323520768 5.3061413028136828
decision_type=2 2 2 2 2 2 2 2 2 2 2 2 2 2 2 2 2 2 2 2 2 2 2 2 2 2 2 2 2 2
left_child=1 2 6 5 13 16 12 8 9 28 20 -7 22 -3 17 23 -2 -8 19 21 -4 -6 -1 -12 -14 26 -9 -15 -5 -16
right_child=3 4 10 7 18 11 14 25 -10 -11 15 -13 24 27 29 -17 -18 -19 -20 -21 -22 -23 -24 -25 -26 -27 -28 -29 -30 -31
leaf_value=-0.0084293639367466339 -0.0035486532036771942 -0.0033836731111493963 -0.0061224595207022506 -0.0020346342300763356 -0.00042705522131291219 -0.00016660744958143267 -0.0056270937751085595 0.00093450552912087165 0.0029800637193595093 0.0028055628245760265 -0.0041517131792550739 0.0029979618413621682 -0.0059998804329057477 -0.0014492765988641757 -0.0035021600038796837 0.0011577446112696465 -0.00042174955269729257 -0.0031575887474550486 0.0033325839022820057 0.0024454445820360966 -0.0025419106367432203 0.0026985067045590021 -0.0058444895331437388 -0.0011412227115039874 -0.0036408247477826383 0.0033455814131631355 0.0039186969941352881 0.00093803842812507574 0.00028194798283466375 -0.0016028608539668115
leaf_weight=93 97 114 32 50 150 153 146 94 303 124 33 124 79 108 89 107 80 135 110 118 72 34 60 145 98 775 46 66 234 138
leaf_count=93 97 114 32 50 150 153 146 94 303 124 33 124 79 108 89 107 80 135 110 118 72 34 60 145 98 775 46 66 234 138
internal_value=-1.4186e-05 -0.00212826 -0.00350746 0.00194438 0.000289268 -6.98304e-05 -0.0044703 0.00250678 0.00170899 0.000765034 -0.00143327 0.00125002 -0.00595573 -0.00166788 -0.00350535 -0.000626685 -0.00213536 -0.00444068 0.00165737 0.0010472 -0.00364362 0.000150494 -0.00741569 -0.00169935 -0.00469374 0.0031267 0.00191503 -0.000543743 -0.000125901 -0.00234752
internal_weight=4007 1927 1227 2080 700 454 838 1626 711 408 389 277 330 288 508 285 177 281 412 302 104 184 153 178 177 915 140 174 284 227
internal_count=4007 1927 1227 2080 700 454 838 1626 711 408 389 277 330 288 508 285 177 281 412 302 104 184 153 178 177 915 140 174 284 227
is_linear=0
shrinkage=0.05


Tree=31
num_leaves=31
num_cat=0
split_feature=2 6 5 6 5 5 2 2 2 5 6 2 6 2 2 6 6 2 5 5 5 2 6 5 6 6 6 6 5 5
split_gain=5.98944 2.31946 0.885811 0.850584 0.680625 0.446808 0.429953 0.302446 0.290302 0.307964 0.267766 0.247611 0.212128 0.211166 0.196111 0.194585 0.194138 0.157944 0.14696 0.130314 0.112495 0.0909155 0.0887557 0.0876043 0.0992929 0.082906 0.0827975 0.0801712 0.0882642 0.0798124
threshold=48.384947165207066 63.315709523954787 11.758816706811466 21.797142330634159 7.7867167224331384 7.103383166524659 18.822798298402404 28.555768283367474 70.747591189374944 11.475555578882865 72.061034288041085 75.50807604826926 40.027392910384471 17.688025997242772 26.548201630924748 33.113229966647388 29.956736114105542 88.251804690585814 18.839328613633956 3.4143088459484421 15.690928743675221 5.2794681679854358 18.08966038287593 3.2408933376061024 72.747426905291221 89.84624268885554 90.744902039244948 7.4846055227393355 15.388152248848572 2.6088121323520768
decision_type=2 2 2 2 2 2 2 2 2 2 2 2 2 2 2 2 2 2 2 2 2 2 2 2 2 2 2 2 2 2
left_child=1 2 6 5 13 17 16 12 9 10 29 -7 21 -3 20 19 -1 -2 22 -8 25 -4 -9 24 -10 -6 -15 -23 -29 -5
right_child=3 4 7 8 14 11 15 18 23 -11 -12 -13 -14 26 -16 -17 -18 -19 -20 -21 -22 27 -24 -25 -26 -27 -28 28 -30 -31
leaf_value=-0.007445170559452003 -0.0029396836234386581 -0.0036901319711346576 -0.005895408481898669 -0.0019329025128390642 -0.0011034309181823946 -0.00015827707118458217 -0.0063436224287601586 -0.0024794499430124866 0.00088778025198560969 0.0028310605303481185 0.0026652846775945247 0.0028480637452429941 -0.0010998963221642885 -0.0014080678200516894 0.0025037038670951907 -0.0023208515304792192 -0.0047744373120622192 0.00041995476543282471 0.002926909911911935 -0.0037404062069878829 0.0019480943481175927 -0.0055600383206559668 5.0500516058841291e-05 0.0031783023349384052 0.0037227621706298793 0.0014244117409638738 0.0012048711616357436 -0.0042165575793694223 -0.0015936826678476285 0.00026785059653931006
leaf_weight=129 129 95 38 50 110 153 66 52 94 303 124 124 130 109 218 193 144 48 32 177 80 29 104 775 46 46 42 54 79 234
leaf_count=129 129 95 38 50 110 153 66 52 94 303 124 124 130 109 218 193 144 48 32 177 80 29 104 775 46 46 42 54 79 234
internal_value=-1.34767e-05 -0.00202185 -0.00333208 0.00184717 0.000274805 -6.63389e-05 -0.0044804 -0.00176036 0.00238144 0.00162354 0.000726782 0.00118752 -0.00267227 -0.00184324 0.00142247 -0.00350609 -0.00603643 -0.0020286 -0.000159671 -0.00444745 0.0004237 -0.00369431 -0.000792816 0.00297036 0.00181927 -0.000358041 -0.00068129 -0.003178 -0.00265861 -0.000119606
internal_weight=4007 1927 1227 2080 700 454 709 518 1626 711 408 277 330 246 454 436 273 177 188 243 236 200 156 915 140 156 151 162 133 284
internal_count=4007 1927 1227 2080 700 454 709 518 1626 711 408 277 330 246 454 436 273 177 188 243 236 200 156 915 140 156 151 162 133 284
is_linear=0
shrinkage=0.05


Tree=32
num_leaves=31
num_cat=0
split_feature=2 6 6 2 5 5 2 5 5 5 6 6 6 5 2 5 5 2 2 5 6 5 2 2 2 5 6 6 5 6
split_gain=5.43153 1.59637 1.24916 0.699799 0.582291 0.501489 0.471279 0.447836 0.338393 0.332122 0.289928 0.240661 0.209282 0.161387 0.143011 0.135147 0.128075 0.111077 0.0957923 0.0945576 0.0913176 0.0906047 0.0901019 0.0833633 0.0807121 0.0787535 0.0778563 0.0769768 0.0762719 0.0673732
threshold=34.865302277194495 54.281874095515306 27.519056925666511 67.385050074337158 6.0415673452452978 6.9577138884769045 64.350365273427954 11.691903654082276 6.7612782478133777 7.1832204596027607 70.993276791800227 92.199589454280016 16.852359961012116 14.31825359799315 14.679287090211348 14.784860266618301 14.784860266618301 87.117612451823518 14.462859657182404 2.137872356880826 63.752734741588739 2.2790495435118969 4.5662902358515955 11.451967402618969 17.688025997242772 6.458185732456375 34.148839331168155 59.098950367096322 17.045989275151452 4.0796835506759566
decision_type=2 2 2 2 2 2 2 2 2 2 2 2 2 2 2 2 2 2 2 2 2 2 2 2 2 2 2 2 2 2
left_child=1 5 3 9 24 14 7 10 -5 -2 25 13 18 23 -1 -14 29 -10 -7 27 28 -12 -17 -6 -3 -4 -16 -8 -9 -11
right_child=2 4 6 8 11 12 19 20 17 16 21 -13 15 -15 26 22 -18 -19 -20 -21 -22 -23 -24 -25 -26 -27 -28 -29 -30 -31
leaf_value=-0.0074833698813682016 -0.0038390993793719578 -0.0040534067563544572 -0.0016032641983697055 -0.00083143948433029007 -0.0024826007131893788 -0.0061809366032321124 -6.8718579816905902e-05 0.00073930917909213658 0.0014700541009429575 -0.0042157497772925788 -0.0005795645946636796 0.0027626346720578034 -0.0033315282258425012 0.001015490575656785 -0.0058422117235208369 -0.0045234353712294249 0.00076965860860709234 0.0037352196999817415 -0.0037037012925138697 0.0029024863727476488 0.0032444420802960096 0.0022529626298657532 -0.00092569396178648162 -0.00042466667607204603 -0.00191534158714794 4.6983348755617702e-05 -0.0034599640863706115 0.0025634206595284807 0.0030357917420493828 -0.0012096493648790724
leaf_weight=92 141 97 157 136 73 64 51 96 146 22 35 81 216 152 94 20 86 86 100 932 189 146 134 151 81 134 54 61 58 122
leaf_count=92 141 97 157 136 73 64 51 96 146 22 35 81 216 152 94 20 86 86 100 932 189 146 134 151 81 134 54 61 58 122
internal_value=-1.28029e-05 -0.00251249 0.00134288 -0.000396029 -0.000654409 -0.00403688 0.00203414 0.0011331 0.00114886 -0.00192843 0.000133964 0.000290533 -0.00318366 -0.000242021 -0.00593532 -0.00252465 -0.0007571 0.00230973 -0.00467043 0.00273753 0.00250802 0.00170524 -0.00139293 -0.00109533 -0.00308047 -0.000843356 -0.00497301 0.00136486 0.00160422 -0.00166891
internal_weight=4007 1409 2598 739 635 774 1859 815 368 371 472 457 534 376 240 370 230 232 164 1044 343 181 154 224 178 291 148 112 154 144
internal_count=4007 1409 2598 739 635 774 1859 815 368 371 472 457 534 376 240 370 230 232 164 1044 343 181 154 224 178 291 148 112 154 144
is_linear=0
shrinkage=0.05


Tree=33
num_leaves=31
num_cat=0
split_feature=2 6 5 6 5 5 2 2 2 6 2 6 6 6 5 5 5 2 6 5 2 6 2 5 6 2 5 2 5 2
split_gain=4.91885 1.92255 0.809895 0.709308 0.711574 0.520028 0.417746 0.41239 0.273164 0.235614 0.190211 0.175153 0.170613 0.152757 0.144323 0.130804 0.126243 0.109394 0.10803 0.10611 0.105167 0.100068 0.106473 0.0868931 0.0800906 0.0777475 0.0637193 0.0584901 0.0576236 0.0549138
threshold=48.384947165207066 66.798571993391718 8.1601739930334549 43.597711802991483 13.328793863780549 10.832072689663773 27.376108764221406 81.358220242917653 16.570073539774167 18.369070959425979 27.677133482540508 34.148839331168155 17.310240247455116 12.239015226906204 16.621389668365389 7.103383166524659 2.137872356880826 75.50807604826926 43.138569116906119 14.784860266618301 85.605707875894623 91.832742648741672 32.523255721959877 6.393214421414199 6.7310778283415926 4.5662902358515955 17.822959035090811 7.715385446578316 2.9176346285058301 63.883349803361561
decision_type=2 2 2 2 2 2 2 2 2 2 2 2 2 2 2 2 2 2 2 2 2 2 2 2 2 2 2 2 2 2
left_child=1 2 8 4 7 10 9 15 18 27 -3 28 -8 -9 -14 24 20 -6 -1 -11 -5 22 26 -15 -2 -21 -7 -4 -10 -17
right_child=3 5 6 16 17 21 12 13 11 19 -12 -13 14 23 -16 29 -18 -19 -20 25 -22 -23 -24 -25 -26 -27 -28 -29 -30 -31
leaf_value=-0.0072083705570548775 -0.0042677990286999071 -0.0019433457645047167 -0.0064542884805372782 0.00014939377077562892 0.0017468664911087298 6.6936616216401539e-05 -0.0024640006762267387 -0.00075616060430388251 -0.0060222894488833854 -0.0030257812469790223 0.00049281731028242356 -0.0025042872699620007 -0.00065387385129281209 0.0011825997425365217 0.0020446134824633703 -0.0012960945533132511 0.0026631548966536121 0.0037043420357007642 -0.0045597921598643535 -0.0036031938904451293 0.0035076911365913769 0.003351925888093544 0.0030908432946870883 0.003558672079037626 -0.0016807015490649783 -0.00074402164997136979 0.0025594086179890757 -0.0040527752255002268 -0.0041372278326423841 0.00040414924004434001
leaf_weight=99 36 193 35 94 149 115 84 57 60 180 137 164 164 84 71 83 1050 137 63 29 31 89 62 71 177 132 33 92 125 111
leaf_count=99 36 193 35 94 149 115 84 57 60 180 137 164 164 84 71 83 1050 137 63 29 31 89 62 71 177 132 33 92 125 111
