tree
version=v4
num_class=1
num_tree_per_iteration=1
label_index=0
max_feature_idx=6
objective=regression
feature_names=temperature pressure humidity wind_speed wind_direction precipitation cloud_cover
feature_infos=[-9.9766565125432507:34.989440161145474] [990.01572098220436:1039.9988510208848] [0.0013168556207476811:99.994725745453366] [0.00048098791446959943:24.988974562163399] [0.061623224818112554:359.99369583920605] [0.00094419658442923549:19.999141825601811] [0.014259604881772248:99.977778979623736]
tree_sizes=2646 2755 2751 2734 2746 2766 2748 2762 2755 2759 2768 2769 2772 2754 2752 2759 2774 2783 2749 2756 2745 2746 2762 2773 2767 2745 2797 2756 2763 2757 2749 2776 2760 2780 2774 2794 2766 2769 2776 2766 2748 2759 2788 2756 2761 2770 2736 2760 2754 2757 2757 2753 2775 2765 2796 2780 2769 2782 2764 2764 2783 2781 2792 2785 2770 2777 2786 2775 2762 2785 2777 2789 2766 2767 2746 2782 2786 2788 2734 2763 2746 2740 2750 2777 2776 2761 2771 2793 2781 2774 2746 2764 2791 2773 2755 2749 2772 2752 2764 2754 2767 2777 2764 2780 2786 2762 2778 2751 2784 2763 2772 2749 2751 2784 2778 2757 2771 2781 2736 2773 2771 2768 2755 2795 2754 2747 2763 2757 2770 2758 2760 2769 2779 2759 2775 2780 2790 2803 2780 2782 2778 2768 2790 2773 2763 2774 2770 2772 2763 2745 2765 2758 2769 2778 2766 2783 2768 2769 2780 2773 2769 2758 2777 2784 2765 2769 2766 2747 2754 2781 2753 2761 2765 2767 2752 2756 2746 2762 2749 2761 2763 2781 2762 2775 2793 2762 2779 2759 2771 2809 2769 2754 2756 2755 2747 2769 2764 2770 2758 2756 2755 2743 2763 2776 2779 2761 2751 2760 2770 2769 2772 2775 2760 2785 2750 2750 2754 2758 2772 2753 2771 2754 2764 2766 2768 2753 2745 2766 2756 2754 2755 2764 2780 2757 2771 2773 2770 2777 2766 2781 2765 2772 2771 2768 2743 2757 2762 2773 2756 2794 2777 2762 2774 2764 2753 2767 2767 2752 2792 2777 2798 2801 2784 2795 2812 2764 2755 2776 2753 2747 2776 2778 2777 2774 2763 2748 2766 2768 2790 2758 2752 2765 2734 2786 2764 2771 2760 2781 2752 2770 2790 2779 2752 2755 2748 2779 2781 2768 2769 2749 2775 2753 2766 2768 2779 2756 2758 2753 2758 2788 2753 2754 2765 2774 2765 2793 2787 2786 2761 2786 2758 2769 2788 2752 2774 2782 2776 2784 2766 2780 2758 2770 2759 2775 2777 2792 2776 2754 2778 2772 2756 2753 2750 2749 2758 2785 2770 2781 2785 2772 2765 2760 2777 2767 2754 2807 2786 2750 2770 2768 2755 2751 2751 2742 2757 2776 2774 2777 2805 2749 2756 2763 2769 2747 2757 2776 2770 2763 2776 2769 2785 2784 2776 2793 2789 2768 2772 2763 2777 2785 2759 2766 2756 2789 2787 2769 2787 2764 2783 2756 2770 2762 2761 2789 2769 2770 2803 2775 2800 2768 2770 2800 2760 2783 2776 2780 2781 2771 2769 2761 2766 2762 2765 2774 2753 2780 2782 2789 2752 2789 2756 2754 2783 2776 2755 2773 2761 2780 2760 2765 2788 2765 2762 2770 2775 2793 2797 2782 2778 2792 2770 2763 2798 2760 2771 2742 2760 2759 2759 2760 2778 2780 2775 2781 2811 2785 2779 2761 2796 2766 2788 2780 2777 2778 2786 2783 2787 2782 2794 2779 2776 2781 2803 2771 2777 2773 2782 2784 2782 2784 2736 2752 2768 2777 2787 2802 2775 2793 2791 2779

Tree=0
num_leaves=31
num_cat=0
split_feature=2 1 3 5 1 4 5 1 3 2 3 2 6 6 5 2 2 2 6 5 6 1 1 6 6 4 5 3 3 2
split_gain=48.3108 35.6778 41.5915 88.8523 45.0855 37.855 29.4615 34.0605 29.3809 42.1384 28.8947 27.8492 27.7322 35.4418 34.3257 27.2924 27.2344 25.7558 25.3833 27.5923 32.5126 33.229 36.1863 41.179 32.06 29.9261 25.4111 46.9939 50.1055 33.2023
threshold=99.364757839355661 1025.2521519210748 16.406955466695724 5.9945840361067289 1027.0679115906294 134.25628834874752 0.31382405957033349 1004.3615056352252 19.879864180980775 27.677133482540508 17.336145073409892 35.197295451922422 35.001710908438874 30.802368064563233 9.3131492907141098 7.715385446578316 90.934793084908975 63.179589462080877 88.946704005857853 3.9047827289499799 84.771893733256647 1028.2516993628735 1031.0194043033687 23.113673237744973 68.430443232475554 28.750082980943279 12.142192176162512 7.533162116602476 4.8389891427440705 68.640588469525355
decision_type=2 2 2 2 2 2 2 2 2 2 2 2 2 2 2 2 2 2 2 2 2 2 2 2 2 2 2 2 2 2
left_child=1 6 4 8 5 -3 7 -1 -4 -10 -5 -7 13 15 -15 -8 -14 -11 19 24 21 -21 23 -23 -6 -24 29 28 -28 -27
right_child=-2 2 3 10 18 11 12 -9 9 17 -12 -13 16 14 -16 -17 -18 -19 -20 20 -22 22 25 -25 -26 26 27 -29 -30 -31
leaf_value=0.68610117105754032 0.84273318937862174 0.78606234203967662 0.71085844055337244 0.73536236749139028 0.8325321047512303 0.80268526032877863 0.74480353436040259 0.7753188292429809 0.70148181513573749 0.81764124832827334 0.79405002490964249 0.87142542686890889 0.770092231183513 0.84744922268382339 0.78589015934223805 0.78151270262356032 0.79448973995582473 0.7456389042320769 0.75791732953664814 0.73686169580646843 0.84520077339445099 0.75879426406110217 0.82912014558139369 0.83181586392645357 0.76556510474830186 0.74482248198306233 0.79820340252874267 0.81620525618193218 0.71449098704821234 0.79774022818052903
leaf_weight=20 29 43 56 23 70 23 54 23 22 27 238 41 1633 39 54 812 123 23 66 36 22 26 27 75 24 107 39 76 33 41
leaf_count=20 29 43 56 23 70 23 54 23 22 27 238 41 1633 39 54 812 123 23 66 36 22 26 27 75 24 107 39 76 33 41
internal_value=0.778437 0.777959 0.785408 0.772144 0.792296 0.822345 0.774885 0.733822 0.738021 0.759147 0.788878 0.846722 0.775536 0.782374 0.811705 0.779224 0.771801 0.78452 0.787288 0.790654 0.785821 0.782981 0.786897 0.813018 0.815434 0.778729 0.774132 0.788782 0.759835 0.759482
internal_weight=3925 3896 1138 389 749 107 2758 43 128 72 261 64 2715 959 93 866 1756 50 642 576 482 460 424 101 94 323 296 148 72 148
internal_count=3925 3896 1138 389 749 107 2758 43 128 72 261 64 2715 959 93 866 1756 50 642 576 482 460 424 101 94 323 296 148 72 148
is_linear=0
shrinkage=1


Tree=1
num_leaves=31
num_cat=0
split_feature=0 0 0 0 0 0 2 1 1 2 3 0 1 4 4 2 0 3 3 2 1 3 2 3 3 2 1 5 3 1
split_gain=5295.64 757.944 621.985 121.188 76.6839 51.3751 48.7042 46.1036 34.5063 33.529 41.3941 35.9208 33.7489 30.7115 28.1536 27.6442 25.3949 26.0395 33.8817 38.5135 26.7441 24.8236 24.9984 24.7888 24.2625 33.7531 23.473 22.8424 22.6994 22.5687
threshold=13.814691819091502 2.7655830217589243 24.411307573334547 -2.7646705362014607 8.8637009123849531 30.466750258336639 89.657311752353905 1033.0048484808158 1003.063863815874 27.677133482540508 22.039240054173423 18.450919545764133 1017.4530462705177 34.649716908632378 347.47152243472704 23.006718238749045 -6.0627309762725989 16.645630797828414 15.133867703258714 13.47744802377834 1015.4344891681038 20.729609484942575 69.777598818695722 21.046276292666267 7.5889108383133221 13.47744802377834 993.36494796000386 5.3828993590855072 18.882552502359506 1016.9999844722314
decision_type=2 2 2 2 2 2 2 2 2 2 2 2 2 2 2 2 2 2 2 2 2 2 2 2 2 2 2 2 2 2
left_child=1 3 9 16 8 15 7 -7 -3 10 28 12 -11 -5 29 24 21 18 19 -18 -19 -1 -23 -15 -4 -26 -17 -25 -2 -6
right_child=2 4 5 13 14 6 -8 -9 -10 11 -12 -13 -14 23 -16 26 17 20 -20 -21 -22 22 -24 27 25 -27 -28 -29 -30 -31
leaf_value=0.098177672399761995 -0.046660299051901083 0.013192093156737417 -0.13919582952033072 0.098236252257670728 -0.0073724777157547303 -0.1188970340262152 -0.05073334642996391 -0.065175325601392067 0.041919775497871861 -0.029556301812880451 -0.099875545277095898 -0.037688143974726744 0.0058061705406514874 0.063563576896965346 0.059478697196944902 -0.11950908397356499 0.14365794084690237 0.086879138626410807 0.15676488570868971 0.079184948931236759 0.036324361012257798 0.16079411063875471 0.093691090150209877 0.078651954677133332 -0.063791177812598507 -0.12930094301118517 -0.072874568970801953 0.018437525804435452 0.0014368651434779169 0.015664815291683509
leaf_weight=274 198 146 34 53 243 303 36 46 368 148 34 348 124 372 23 29 27 59 20 163 47 35 23 21 51 32 388 63 28 189
leaf_count=274 198 146 34 53 243 303 36 46 368 148 34 348 124 372 23 29 27 59 20 163 47 35 23 21 51 32 388 63 28 189
internal_value=-0.000276771 0.0531481 -0.0634125 0.0804694 0.020526 -0.0921817 -0.106105 -0.111816 0.0337598 -0.0333683 -0.0484395 -0.0270481 -0.0134352 0.0622111 0.00557615 -0.0821437 0.0948113 0.0846656 0.0948629 0.0883469 0.0644633 0.104468 0.134184 0.0580239 -0.103621 -0.089048 -0.0761177 0.0334911 -0.0407014 0.00270634
internal_weight=3925 2126 1799 1157 969 919 385 349 514 880 260 620 272 509 455 534 648 316 210 190 106 332 58 456 117 83 417 84 226 432
internal_count=3925 2126 1799 1157 969 919 385 349 514 880 260 620 272 509 455 534 648 316 210 190 106 332 58 456 117 83 417 84 226 432
is_linear=0
shrinkage=0.05


Tree=2
num_leaves=31
num_cat=0
split_feature=0 0 0 0 0 0 1 6 1 0 6 6 1 4 4 0 4 4 4 1 0 3 3 6 3 3 1 1 3 6
split_gain=4779.31 684.045 561.341 109.372 69.2073 46.366 41.8937 33.4691 33.0691 29.0276 39.0847 39.4881 32.2149 28.0859 27.7172 25.5934 25.4086 24.5873 24.5293 23.3636 22.9189 23.5006 30.5782 24.9266 27.1675 33.5899 24.1366 23.1391 22.3719 22.3469
threshold=13.814691819091502 2.7655830217589243 24.411307573334547 -2.7646705362014607 8.8637009123849531 30.466750258336639 1033.0048484808158 9.472276621568394 1002.9225470617188 18.450919545764133 34.148839331168155 78.119621664195435 997.24480139346053 144.92748541242827 34.649716908632378 21.959273191280371 347.47152243472704 297.91368301581878 326.42668704276667 999.58395514081496 -6.0627309762725989 16.645630797828414 15.133867703258714 16.852359961012116 6.3260191254800002 8.735005936863935 1015.4344891681038 995.83555630887054 21.046276292666267 44.424659936042907
decision_type=2 2 2 2 2 2 2 2 2 2 2 2 2 2 2 2 2 2 2 2 2 2 2 2 2 2 2 2 2 2
left_child=1 3 9 20 7 17 -7 -3 29 -2 12 15 -11 -14 -5 -12 -6 -4 -19 -13 27 22 23 -22 -25 -26 -23 -1 -16 -9
right_child=2 4 5 14 16 6 -8 8 -10 10 11 19 13 -15 28 -17 -18 18 -20 -21 21 26 -24 24 25 -27 -28 -29 -30 -31
leaf_value=0.13490905383601787 -0.021331366381963902 -0.0072324182153964524 -0.0831230751486947 0.093324438788277925 0.0025710207338475073 -0.1071713715897345 -0.05810689225047827 -0.011464350882917643 0.044475421975394495 -0.072619548124762678 -0.049000018126353989 0.021059847259450527 0.013590649653586648 -0.029854664710220153 0.060385397780993777 -0.085195451165422986 0.056504762237486628 -0.031878926877218945 -0.082002897143525932 -0.037388918955769873 0.048294203098003682 0.082535182821990571 0.14892664030194283 0.12075662040816887 0.034131157812812639 0.097542263710056434 0.034508141435365729 0.09435904249963542 0.031816575933425205 0.031250140959797779
leaf_weight=40 382 49 436 53 432 335 50 50 336 26 123 21 62 93 372 81 23 52 46 92 39 59 20 56 31 64 47 292 84 79
leaf_count=40 382 49 436 53 432 335 50 50 336 26 123 21 62 93 372 81 23 52 46 92 39 59 20 56 31 64 47 292 84 79
internal_value=-0.000262933 0.0504907 -0.0602419 0.076446 0.0194997 -0.0875726 -0.100799 0.0320718 0.0362135 -0.0316999 -0.0396533 -0.0502377 -0.0211159 -0.0124765 0.0591005 -0.0633717 0.00529734 -0.0780365 -0.0554065 -0.0265268 0.0900707 0.0804323 0.0901198 0.0839296 0.0931334 0.0768502 0.0612402 0.0992446 0.0551227 0.0146941
internal_weight=3925 2126 1799 1157 969 919 385 514 465 880 498 317 181 155 509 204 455 534 98 113 648 316 210 190 151 95 106 332 456 129
internal_count=3925 2126 1799 1157 969 919 385 514 465 880 498 317 181 155 509 204 455 534 98 113 648 316 210 190 151 95 106 332 456 129
is_linear=0
shrinkage=0.05


Tree=3
num_leaves=31
num_cat=0
split_feature=0 0 0 0 0 0 2 6 2 6 4 4 2 5 3 3 2 0 4 2 4 5 3 2 3 2 3 2 2 5
split_gain=4315.84 672.937 452.51 98.7085 73.642 41.8453 44.0325 27.7887 27.5531 32.6441 27.1547 25.0147 24.9872 22.6014 22.0243 21.8486 30.6598 20.6843 23.0315 41.7763 25.9674 25.3251 39.7595 23.7762 22.1261 22.586 20.9012 25.4757 20.4287 20.2025
threshold=14.615090355152416 2.7655830217589243 24.411307573334547 -2.7646705362014607 9.4380136545851077 30.466750258336639 89.657311752353905 9.1668932459022141 23.006718238749045 80.854445799907623 347.47152243472704 34.649716908632378 23.006718238749045 0.6803244039290347 13.659743954858167 7.5889108383133221 13.47744802377834 -6.0627309762725989 196.98968626652044 13.47744802377834 142.01296973202298 8.6277057487126303 13.398717265469701 29.081164070617419 20.729609484942575 69.777598818695722 19.202450797721816 84.200148278497224 47.90254581011245 18.27091199973751
decision_type=2 2 2 2 2 2 2 2 2 2 2 2 2 2 2 2 2 2 2 2 2 2 2 2 2 2 2 2 2 2
left_child=1 3 8 17 7 12 -7 -3 9 -2 -6 14 15 -10 -5 -4 -17 24 19 -19 23 -20 -23 -21 26 -26 27 28 -1 -13
right_child=2 4 5 11 10 6 -8 -9 13 -11 -12 29 -14 -15 -16 16 -18 18 21 20 -22 22 -24 -25 25 -27 -28 -29 -30 -31
leaf_value=0.098444861480305956 -0.037928954200668739 -0.0071074733471808331 -0.12831255118636525 0.061505466711617288 -0.00027825398688547043 -0.10119020418947121 -0.04311069127288647 0.032669713513979924 -0.072409804194019392 -0.087902856846453589 0.055433596929778228 0.055447758858291701 -0.068405635467321757 -0.024774311809803135 0.12691891230642796 -0.056653011685200774 -0.11908884039148689 0.15163312878297724 0.085901052789810667 0.01690629366785288 0.11287826214258263 0.079192792996764183 0.010374497474972592 0.077497713254655112 0.14763095174516952 0.083847821690142155 0.0427238147219886 0.13346578334317064 0.066994397216919993 0.016419545871516072
leaf_weight=134 161 48 34 31 446 349 36 515 26 41 23 420 417 589 22 51 32 23 63 20 41 41 43 85 35 23 23 33 84 36
leaf_count=134 161 48 34 31 446 349 36 515 26 41 23 420 417 589 22 51 32 23 63 20 41 41 43 85 35 23 23 33 84 36
internal_value=-0.000249786 0.0464414 -0.0591248 0.0726237 0.0170878 -0.083194 -0.0957594 0.0292784 -0.0320506 -0.0480722 0.00245388 0.0561455 -0.0741347 -0.0267882 0.0886582 -0.0945536 -0.0807247 0.0855672 0.0764107 0.089 0.0791332 0.0619372 0.0439644 0.0659565 0.0942824 0.122338 0.0883436 0.092524 0.0863263 0.0523666
internal_weight=3925 2189 1736 1157 1032 919 385 563 817 202 469 509 534 615 53 117 83 648 316 169 146 147 84 105 332 58 274 251 218 456
internal_count=3925 2189 1736 1157 1032 919 385 563 817 202 469 509 534 615 53 117 83 648 316 169 146 147 84 105 332 58 274 251 218 456
is_linear=0
shrinkage=0.05


Tree=4
num_leaves=31
num_cat=0
split_feature=0 0 0 0 0 0 1 2 3 1 1 6 1 2 6 6 6 0 0 3 5 5 5 0 1 3 3 2 1 2
split_gain=3895.04 607.325 408.39 89.0844 66.9749 39.3969 32.4037 31.6603 31.1492 29.4397 28.0973 26.2097 25.2 24.8667 29.4613 23.0809 34.6597 22.1508 35.129 27.961 44.6013 22.0598 20.3977 18.6676 20.4998 19.7388 27.6214 32.3184 21.6075 20.1221
threshold=14.615090355152416 2.7655830217589243 24.411307573334547 -2.7646705362014607 8.8637009123849531 33.897499317228984 1030.9065606735228 82.750024962299307 10.208499316494109 1026.1108250827808 1003.063863815874 9.472276621568394 1036.8035996916344 23.006718238749045 80.854445799907623 44.424659936042907 25.908614017297854 30.466750258336639 31.704523557595891 13.398717265469701 14.408450900216812 10.000143947798422 0.6803244039290347 -6.0627309762725989 995.83555630887054 16.645630797828414 15.133867703258714 13.47744802377834 1015.4344891681038 48.758608086866126
decision_type=2 2 2 2 2 2 2 2 2 2 2 2 2 2 2 2 2 2 2 2 2 2 2 2 2 2 2 2 2 2
left_child=1 3 13 23 10 7 8 12 -7 -6 15 -12 17 14 -2 16 -3 -4 -19 -20 -21 -11 -15 24 -1 26 27 -25 29 -27
right_child=2 4 5 -5 9 6 -8 -9 -10 21 11 -13 -14 22 -16 -17 -18 18 19 20 -22 -23 -24 25 -26 28 -28 -29 -30 -31
leaf_value=0.12313713912153618 -0.036032506940099678 0.016202814147875801 -0.075524015412946427 0.053338203731419301 -0.0034608149002820208 -0.16391196441033792 -0.051269785128533842 -0.053351164464017047 -0.099455945394089765 0.0013644410173098247 -0.0054388469413799399 0.040641136467038562 -0.043615779938797158 -0.068789313561641252 -0.083507715102012575 0.028269648469156691 -0.059452917926440335 -0.12057848196875837 -0.056422261671343843 -0.12685203232802453 -0.0385048275673762 0.042286661128220084 -0.023535596208523562 0.1262527080045806 0.08496975950890362 0.045450468399915206 0.13735988309606911 0.067192359227491436 0.029708315812526864 0.10385859454671542
leaf_weight=40 161 41 415 509 385 29 20 136 53 60 34 334 45 26 41 81 24 84 67 50 20 73 589 27 292 29 20 163 47 30
leaf_count=40 161 41 415 509 385 29 20 136 53 60 34 334 45 26 41 81 24 84 67 50 20 73 589 27 292 29 20 163 47 30
internal_value=-0.000237297 0.0441193 -0.0561685 0.0689925 0.0162334 -0.0790343 -0.108333 -0.0753764 -0.122251 0.00354513 0.0290204 0.0363837 -0.079775 -0.030448 -0.0456686 0.0104609 -0.0117316 -0.0823334 -0.0951203 -0.0795109 -0.10161 0.0238255 -0.0254488 0.0812888 0.0895682 0.0725902 0.0814685 0.0755851 0.0550011 0.0751495
internal_weight=3925 2189 1736 1157 1032 919 102 817 82 518 514 368 681 817 202 146 65 636 221 137 70 133 615 648 332 316 210 190 106 59
internal_count=3925 2189 1736 1157 1032 919 102 817 82 518 514 368 681 817 202 146 65 636 221 137 70 133 615 648 332 316 210 190 106 59
is_linear=0
shrinkage=0.05


Tree=5
num_leaves=31
num_cat=0
split_feature=0 0 0 0 2 0 0 6 0 4 2 4 1 6 0 6 0 0 6 0 6 4 4 1 4 2 6 1 4 2
split_gain=3614.65 474.816 377.003 62.4001 40.0776 38.7956 34.0322 29.4935 26.4766 28.7863 25.8865 24.566 23.3753 22.8406 35.9727 36.2262 32.9949 68.8249 32.9818 22.509 22.3859 22.3717 31.3731 24.784 21.891 27.7601 31.4309 21.6021 21.0977 43.1224
threshold=13.590122273302558 2.7655830217589243 24.411307573334547 -4.7218768342602644 27.376108764221406 8.8637009123849531 33.242453053487289 43.978586998022976 4.9484560958925652 303.59868727516056 23.376196926966902 32.586489751131246 994.82292766939236 23.810467761770891 19.878528207224139 30.408882312725552 16.075675592103615 20.660799271735993 81.918146050661576 -4.3961701953724122 97.035297116214153 30.370021942304795 13.757242722238287 992.10925230102941 19.591185857935972 95.213386049048992 25.048773858204303 1007.9215734483665 297.91368301581878 78.187233849063531
decision_type=2 2 2 2 2 2 2 2 2 2 2 2 2 2 2 2 2 2 2 2 2 2 2 2 2 2 2 2 2 2
left_child=1 3 10 4 -1 7 20 8 -3 27 11 -2 -9 16 15 -15 -12 -18 -16 -5 28 22 -21 -23 -6 26 -26 -10 -4 -30
right_child=2 5 6 19 24 -7 -8 12 9 -11 13 -13 -14 14 18 -17 17 -19 -20 21 -22 23 -24 -25 25 -27 -28 -29 29 -31
leaf_value=0.10451782953352309 0.0094534545578062543 0.034332767404311411 -0.074261459509185182 0.016322132584173234 0.11888522350269815 0.0083196201098515929 -0.095763782182615914 -0.010551500591364775 -0.017133834743105005 -0.054598892405629165 0.035637270148311348 -0.048789897884598192 0.04303137852180311 -0.075356473132967949 -0.054323718976944262 -0.012592762634744282 -0.052194179274846576 0.016715721313802289 -0.007031660160406474 0.052710562505360159 -0.019349419655786321 0.0096638432531445124 0.12824923865221166 0.058672267178818266 0.03627890083442132 0.12120696843966194 0.073893792326692673 0.027453525636581263 -0.064518764948855362 0.015467725973576308
leaf_weight=130 20 104 630 32 23 437 141 22 44 20 35 191 272 25 171 286 74 71 47 28 22 27 27 579 75 23 214 71 107 20
leaf_count=130 20 104 630 32 23 437 141 22 44 20 35 191 272 25 171 286 74 71 47 28 22 27 27 579 75 23 214 71 107 20
internal_value=0.000793386 0.0451686 -0.0505275 0.0667847 0.080954 0.0193629 -0.0731601 0.0284172 0.0153721 0.000765435 -0.0278949 -0.0432692 0.0390218 -0.0233195 -0.0285544 -0.0176381 -0.00793471 -0.0184521 -0.0441277 0.0572772 -0.0690688 0.0592599 0.0897932 0.0564887 0.0718099 0.0683396 0.0641321 0.010394 -0.0705137 -0.0519225
internal_weight=3968 2128 1840 1158 465 970 920 533 239 135 920 211 294 709 529 311 180 145 218 693 779 661 55 606 335 312 289 115 757 127
internal_count=3968 2128 1840 1158 465 970 920 533 239 135 920 211 294 709 529 311 180 145 218 693 779 661 55 606 335 312 289 115 757 127
is_linear=0
shrinkage=0.05


Tree=6
num_leaves=31
num_cat=0
split_feature=0 0 0 0 2 0 1 0 0 6 0 3 0 3 6 4 4 1 6 4 1 3 4 2 6 1 0 2 1 1
split_gain=3263.97 387.752 376.831 56.3161 36.17 31.5054 33.3286 30.714 29.1196 27.73 27.4715 20.7746 20.3144 20.2494 20.2033 20.1904 28.3142 22.3675 20.0078 20.548 26.985 28.7323 19.7566 25.0534 28.3664 19.9961 19.5412 19.2747 19.0027 18.8031
threshold=12.928286894778482 2.7655830217589243 24.411307573334547 -4.7218768342602644 27.376108764221406 16.075675592103615 1004.9731317118536 33.242453053487289 6.4376712399545157 24.259991344736946 6.8159539645113822 5.6879542598625639 -4.3961701953724122 9.8787375402787045 97.035297116214153 30.370021942304795 13.757242722238287 992.10925230102941 94.988459258028044 297.91368301581878 1015.0503892364933 10.421157000192203 19.591185857935972 95.213386049048992 25.048773858204303 1034.9618907627789 -3.8558134714562584 63.541595493233565 1000.9316464661418 1012.8950800914891
decision_type=2 2 2 2 2 2 2 2 2 2 2 2 2 2 2 2 2 2 2 2 2 2 2 2 2 2 2 2 2 2
left_child=1 3 5 4 11 6 28 14 -3 -8 -10 -1 -5 29 18 16 -14 -17 19 -4 21 -21 -6 24 -24 -26 27 -19 -2 -12
right_child=2 8 7 12 22 -7 9 -9 10 -11 13 -13 15 -15 -16 17 -18 26 -20 20 -22 -23 23 -25 25 -27 -28 -29 -30 -31
leaf_value=0.13744119445660286 -0.021509162012649619 0.031795033167564095 -0.069367410302298468 0.015506026172079147 0.11294096462104633 -0.03039786978336155 0.034304543564339048 -0.090975592747753409 -0.030496743803515153 -0.010106403776288233 -0.0093374743568698758 0.088819593669819272 0.05007503463753632 0.023850434170518686 -0.018381948802958837 0.0091806504875421528 0.12183677601041619 0.058619454073218204 -0.11633277215063571 -0.11159818159043788 -0.023388894097726855 -0.041823321115225555 0.034464956222102043 0.11514661754076572 0.075631164090315769 0.027195284391442937 0.053040155780691246 0.12390858784317971 -0.077171286713817844 0.019547634884044877
leaf_weight=28 46 325 615 32 23 718 46 141 34 149 119 102 28 323 22 27 27 26 20 25 61 36 75 23 190 24 533 20 23 107
leaf_count=28 46 325 615 32 23 718 46 141 34 149 119 102 28 323 22 27 27 26 20 25 61 36 75 23 190 24 533 20 23 107
internal_value=0.000753717 0.0442645 -0.0465088 0.0634455 0.0769063 -0.0249673 -0.0101978 -0.0695021 0.0198024 0.000370025 0.013117 0.0992919 0.0544133 0.0158181 -0.0656153 0.0562969 0.0853035 0.0536643 -0.066988 -0.0656489 -0.0469042 -0.0704196 0.0682194 0.0649226 0.0609255 0.0701991 0.0557387 0.087006 -0.0400632 0.00433822
internal_weight=3968 2066 1902 1158 465 982 264 920 908 195 583 130 693 549 779 661 55 606 757 737 122 61 335 312 289 214 579 46 69 226
internal_count=3968 2066 1902 1158 465 982 264 920 908 195 583 130 693 549 779 661 55 606 757 737 122 61 335 312 289 214 579 46 69 226
is_linear=0
shrinkage=0.05


Tree=7
num_leaves=31
num_cat=0
split_feature=0 0 0 0 0 2 0 6 5 5 2 2 6 5 0 6 5 1 1 6 1 0 1 1 6 3 1 0 6 3
split_gain=2946.41 386.133 307.13 50.8252 32.8982 32.6435 26.7323 26.7007 25.8016 24.9131 26.3148 22.9182 29.3384 22.8936 22.7924 22.2642 21.4058 23.2354 21.3056 21.2225 37.7861 25.5832 21.404 25.4832 27.1324 27.1037 20.994 20.6456 20.216 19.8686
threshold=13.590122273302558 2.7655830217589243 24.611851140610444 -4.7218768342602644 8.8637009123849531 27.376108764221406 33.242453053487289 43.978586998022976 18.449881473799888 19.544931531720902 23.376196926966902 63.541595493233565 50.644705570974871 3.4624369740406027 4.9484560958925652 78.608090233122098 17.602442338832166 992.10925230102941 1002.0045031630447 12.687934171104366 1020.0072647427957 22.557291255554524 1034.3270631277812 1006.350220666122 43.978586998022976 15.67829809544239 994.82292766939236 17.111908872780031 71.666997808610901 21.841121865275191
decision_type=2 2 2 2 2 2 2 2 2 2 2 2 2 2 2 2 2 2 2 2 2 2 2 2 2 2 2 2 2 2
left_child=1 3 9 5 7 -1 -4 14 16 10 29 15 -13 -7 -3 19 17 -5 -16 20 -12 22 23 -21 -25 -26 -9 -17 -19 -2
right_child=2 4 6 8 -6 13 -8 26 -10 -11 11 12 -14 -15 18 27 -18 28 -20 21 -22 -23 -24 24 25 -27 -28 -29 -30 -31
leaf_value=0.094327340788709441 -0.036360736291142289 0.031026377517264336 -0.062726988628481611 0.0074923951109802283 0.0073392790232868176 0.094625210931041731 -0.086426813880552164 -0.011044006638059562 0.019465846102684738 0.020888320369912047 -0.027108493500522208 -0.018064891274182381 -0.048052876101390113 0.059078498564584331 -0.033693094871539091 -0.030516735024072907 0.10304057385603137 0.049226271732575849 0.011633182676509023 -0.037478239067151385 0.062874901606701325 -0.059143582897934512 -0.055626980203669518 -0.024287103131717568 0.052356385369077198 -0.01676225417658039 0.039736283858827152 0.026945481457988973 0.070024163319341706 -0.08093922605601557
leaf_weight=130 181 104 762 27 437 54 141 22 57 28 28 176 152 281 35 22 22 426 100 59 20 47 32 49 37 23 272 54 161 29
leaf_count=130 181 104 762 27 437 54 141 22 57 28 28 176 152 281 35 22 22 426 100 59 20 47 32 49 37 23 272 54 161 29
internal_value=0.000716031 0.04078 -0.0456188 0.0602732 0.0175086 0.073061 -0.0664276 0.0258463 0.0516927 -0.025565 -0.0269959 -0.022333 -0.0319618 0.0648084 0.0134343 -0.0138202 0.0545809 0.0528446 -0.000118074 -0.0200372 0.0103846 -0.0259492 -0.0181485 -0.0110097 0.00331731 0.0258609 0.0359364 0.0103117 0.0549306 -0.0425168
internal_weight=3968 2128 1840 1158 970 465 903 533 693 937 909 699 328 335 239 371 636 614 135 295 48 247 200 168 109 60 294 76 587 210
internal_count=3968 2128 1840 1158 970 465 903 533 693 937 909 699 328 335 239 371 636 614 135 295 48 247 200 168 109 60 294 76 587 210
is_linear=0
shrinkage=0.05


Tree=8
num_leaves=31
num_cat=0
split_feature=0 0 0 0 5 2 5 0 2 4 0 2 5 4 2 0 0 6 5 4 5 5 2 2 4 2 5 5 3 2
split_gain=2660.34 315.338 306.674 45.8698 29.5182 30.4435 31.9938 28.3181 31.3552 24.3441 24.1259 24.0962 28.5233 24.0625 25.0906 23.9621 25.3265 23.7773 23.3916 28.702 23.2088 28.8139 28.538 22.6825 33.0471 23.5736 19.1352 18.8408 18.146 18.5921
threshold=12.928286894778482 2.7655830217589243 24.611851140610444 -4.7218768342602644 3.4624369740406027 14.462859657182404 13.584092729131326 16.075675592103615 85.605707875894623 304.58691588873313 33.242453053487289 8.1680212266084649 13.477061130339917 299.75120584279017 78.187233849063531 6.4376712399545157 6.8159539645113822 32.797855447357868 18.27091199973751 130.71983603663634 15.465541050250993 5.8471554273088424 44.501598847612222 61.667991364419876 220.9990058290976 31.852367609313266 7.6705824010124291 10.832072689663773 9.8787375402787045 84.508560927560197
decision_type=2 2 2 2 2 2 2 2 2 2 2 2 2 2 2 2 2 2 2 2 2 2 2 2 2 2 2 2 2 2
left_child=1 3 7 4 -1 6 -6 8 23 11 13 27 -13 -4 17 -3 -17 -15 -5 -20 21 -11 -23 25 -25 26 -2 -9 29 -18
right_child=2 15 10 18 5 -7 -8 9 -10 20 -12 12 -14 14 -16 16 28 -19 19 -21 -22 22 -24 24 -26 -27 -28 -29 -30 -31
leaf_value=0.098365485132042629 -0.056006012413029875 0.028781002627828945 -0.063469934878739878 0.051936222296899648 0.140358791410923 0.058585117376597919 0.060366573587059984 -0.03007717687222693 0.033826719612084534 -0.071943710267327585 -0.082105472926314635 -0.029475747450667712 -0.0062308520225342369 -0.019383866991847756 0.0091028325640681116 -0.030038825597833187 0.008956748387285959 -0.069370493650833351 0.060188693434000018 -0.0099564102717808328 -0.097738184815361395 -0.049814001051709057 0.032709913291037084 -0.0056231403350830086 -0.074836126316393567 0.014192894444717333 -0.0054950338341295726 -0.092411043359474698 0.022034834960263639 -0.034572050846847044
leaf_weight=74 30 325 640 633 25 341 25 27 37 35 141 388 200 39 22 34 198 61 25 35 21 22 20 35 34 78 50 22 323 28
leaf_count=74 30 325 640 633 25 341 25 27 37 35 141 388 200 39 22 34 198 61 25 35 21 22 20 35 34 78 50 22 323 28
internal_value=0.000680229 0.0399621 -0.0419888 0.0572596 0.069408 0.0639275 0.100363 -0.0229006 -0.0088543 -0.0279458 -0.0631062 -0.0243766 -0.0215693 -0.0595906 -0.0392402 0.0179022 0.0118377 -0.0498757 0.049108 0.0192707 -0.0511453 -0.0384382 -0.0105169 -0.0158111 -0.0397281 -0.00536637 -0.0244367 -0.0580638 0.0144311 0.0035638
internal_weight=3968 2066 1902 1158 465 391 50 999 264 735 903 637 588 762 122 908 583 100 693 60 98 77 42 227 69 158 80 49 549 226
internal_count=3968 2066 1902 1158 465 391 50 999 264 735 903 637 588 762 122 908 583 100 693 60 98 77 42 227 69 158 80 49 549 226
is_linear=0
shrinkage=0.05


Tree=9
num_leaves=31
num_cat=0
split_feature=0 0 0 0 5 4 2 1 1 5 2 0 4 2 2 4 1 3 3 4 5 4 5 0 5 1 0 5 5 3
split_gain=2401.05 315.353 249.884 48.9392 30.648 32.7305 27.8267 23.1645 22.9857 22.1215 21.8767 21.7736 21.7164 22.6443 20.3768 19.816 29.3554 22.9864 32.7969 24.772 26.9681 19.504 18.777 18.5195 18.2992 18.1791 17.0436 16.9813 42.4924 16.8757
threshold=13.590122273302558 3.6525619266648381 24.611851140610444 -4.7218768342602644 18.449881473799888 130.71983603663634 27.376108764221406 994.82292766939236 992.10925230102941 19.544931531720902 23.376196926966902 33.242453053487289 299.75120584279017 78.187233849063531 63.541595493233565 314.77723670435597 1008.7780763176913 17.02657847342881 20.575516379302702 176.34633208081695 10.776966866550575 65.633600708662712 7.1832204596027607 8.8637009123849531 3.4624369740406027 1029.4185881450462 20.819975587095733 15.014712122646701 11.132708061163827 1.146706388717367
decision_type=2 2 2 2 2 2 2 2 2 2 2 2 2 2 2 2 2 2 2 2 2 2 2 2 2 2 2 2 2 2
left_child=1 3 9 6 8 -6 22 -3 -5 10 21 12 29 -14 15 17 -17 19 -19 27 -21 -2 -1 -9 -8 -13 -20 28 -12 -4
right_child=2 7 11 4 5 -7 24 23 -10 -11 14 25 13 -15 -16 16 -18 18 26 20 -22 -23 -24 -25 -26 -27 -28 -29 -30 -31
leaf_value=0.11040919705022437 -0.0061740789170327938 -0.011401629066209736 -0.10550195220857859 0.0057025959466894469 0.055282654240727425 -0.014846732167572511 0.084975675765976866 0.02390281084854147 0.050430713476664904 0.020680691335084184 -0.0048943468012323937 -0.08812050667338979 -0.047381924253248144 0.0086476911332945099 -0.02926874437182006 0.0034100989997386936 -0.076511847476164505 -0.059850887530906643 -0.022643375651138584 -0.0031790359797887503 0.051527427613916925 -0.045755009106252083 0.07103362991247418 0.0087499715240760383 0.053195317667574217 -0.04615099377491895 0.031909436190670187 0.019366577037820413 -0.084165449933656919 -0.058838195963049192
leaf_weight=48 38 81 20 30 28 41 54 421 675 28 73 107 100 22 328 20 27 44 41 50 41 172 82 387 281 34 22 31 22 620
leaf_count=48 38 81 20 30 28 41 54 421 675 28 73 107 100 22 328 20 27 44 41 50 41 172 82 387 281 34 22 31 22 620
internal_value=0.000646218 0.0368129 -0.0411813 0.053117 0.0454147 0.0136116 0.0659376 0.0140898 0.0485274 -0.0230927 -0.0244411 -0.0599509 -0.0566111 -0.0372782 -0.0201895 -0.0121626 -0.0425025 -0.00776142 -0.0267272 0.00159037 0.0214689 -0.0385927 0.0855723 0.0166452 0.0583181 -0.0780002 -0.00359319 -0.0127664 -0.0232519 -0.0602964
internal_weight=3968 2128 1840 1239 774 69 465 889 705 937 909 903 762 122 699 371 47 324 107 217 91 210 130 808 335 141 63 126 95 640
internal_count=3968 2128 1840 1239 774 69 465 889 705 937 909 903 762 122 699 371 47 324 107 217 91 210 130 808 335 141 63 126 95 640
is_linear=0
shrinkage=0.05


Tree=10
num_leaves=31
num_cat=0
split_feature=0 0 0 0 0 0 0 5 0 4 4 1 6 4 6 6 2 2 0 1 4 4 0 2 5 1 4 6 2 2
split_gain=2165.35 258.234 206.675 63.7758 35.6274 30.4766 47.7517 29.3781 30.1395 31.283 29.0009 40.9956 29.4393 27.4171 26.5408 26.5049 26.4281 39.9378 33.7096 26.337 34.4587 25.8874 27.1857 25.2395 24.2144 24.128 24.093 23.3285 22.7564 25.1295
threshold=13.814691819091502 -0.89488036816010907 23.983022381644769 8.8637009123849531 30.256986153198415 7.7798870169711423 6.4376712399545157 7.4973367163101114 -7.7866353172532312 195.73178452641491 65.633600708662712 995.09146103430646 75.227506509887249 146.26555053861799 42.258135820593289 29.053526466511268 85.605707875894623 92.537761105389805 19.686917963032034 1010.6961590642236 47.628108698163423 94.722358683791967 8.3854117554174472 73.227584188250475 14.845016708728105 1004.9731317118536 159.68463511535984 71.293822618486914 29.544506232219415 71.586449632781765
decision_type=2 2 2 2 2 2 2 2 2 2 2 2 2 2 2 2 2 2 2 2 2 2 2 2 2 2 2 2 2 2
left_child=1 7 16 5 10 6 -3 14 27 -10 -4 -12 15 -14 -1 26 -2 -18 -19 -5 -21 -7 -23 25 -8 -17 -13 28 -9 -30
right_child=2 3 4 19 -6 21 24 8 9 -11 11 12 13 -15 -16 23 17 18 -20 20 -22 22 -24 -25 -26 -27 -28 -29 29 -31
leaf_value=0.085924311774590659 -0.026075449833477118 0.03004736252048822 -0.06928387190020012 -0.0077492573588997839 -0.067720635389336023 0.010939121113803525 0.0072004131373317772 0.12043495425688369 0.054473015427557309 0.026695555905268217 -0.091410335543026272 0.0035569800438768257 -0.066189962811768061 -0.00081919141309220859 0.055605668027350709 -0.021247657695785169 0.024480523331009824 -0.00091606816276907927 -0.075673664554953585 0.065632673196734923 0.0092611245737417563 0.099440091782929119 0.039610821333451146 -0.027997093158774078 -0.048632016718387606 -0.081670738378735758 -0.043020483347327387 0.033765935333389223 0.039055084953134929 0.10008381189958704
leaf_weight=126 744 660 124 210 390 26 87 28 232 180 38 41 20 81 169 20 69 38 25 31 216 37 39 48 25 95 86 33 37 31
leaf_count=126 744 660 124 210 390 26 87 28 232 180 38 41 20 81 169 20 69 38 25 31 216 37 39 48 25 95 86 33 37 31
internal_value=0.000319583 0.0340835 -0.0399038 0.0204043 -0.0561479 0.0283186 0.0249247 0.0558623 0.0489409 0.0423372 -0.0479863 -0.0418303 -0.0370118 -0.0137639 0.0685553 -0.0451085 -0.0224174 -0.00179921 -0.0305818 0.00526843 0.0163361 0.0540051 0.0687382 -0.0584511 -0.00526218 -0.0711624 -0.0279837 0.0700317 0.0824981 0.066877
internal_weight=3986 2167 1819 1331 943 874 772 836 541 412 553 429 391 101 295 290 876 132 63 457 247 102 76 163 112 115 127 129 96 68
internal_count=3986 2167 1819 1331 943 874 772 836 541 412 553 429 391 101 295 290 876 132 63 457 247 102 76 163 112 115 127 129 96 68
is_linear=0
shrinkage=0.05


Tree=11
num_leaves=31
num_cat=0
split_feature=2 1 5 3 1 3 5 3 1 3 5 5 1 3 1 6 4 5 6 4 1 3 6 6 2 4 1 5 5 5
split_gain=35.9718 25.4622 39.4699 33.3682 29.8828 25.2397 29.8643 30.6842 25.0555 25.9807 24.6161 45.4888 25.1232 24.2784 21.2293 28.755 28.0661 20.5905 20.0937 19.2776 23.764 19.0193 17.0291 24.1499 23.0368 16.4373 41.6597 41.2188 16.4135 30.002
threshold=99.364757839355661 1013.6585024592384 0.61958379234659977 16.835840189434766 997.38673137565729 20.472617815200607 4.1012513564119599 21.046276292666267 1018.5222075362379 0.41775784520078219 10.237279766060354 14.845016708728105 1007.1695887643308 17.11801364628116 1036.1667340161414 69.511520616881882 160.90519649872439 8.3885697213407013 45.328161454282693 24.793953033725135 1024.8822069930882 15.615443431879987 14.980668989726189 63.752734741588739 24.436795410948694 114.34453384374918 1024.1748105375386 6.9577138884769045 16.621389668365389 17.903774653100083
decision_type=2 2 2 2 2 2 2 2 2 2 2 2 2 2 2 2 2 2 2 2 2 2 2 2 2 2 2 2 2 2
left_child=1 2 4 8 -1 28 18 -8 21 -10 17 12 -12 -5 19 16 -16 -9 -7 20 -15 22 -3 -24 -25 26 27 -21 -4 -30
right_child=-2 3 5 13 -6 6 7 10 9 -11 11 -13 -14 14 15 -17 -18 -19 -20 25 -22 -23 23 24 -26 -27 -28 -29 29 -31
leaf_value=-0.080723161879798472 0.057820230988026772 0.048243911853298932 -0.008150461150677149 -0.057017977163195614 -0.01011146419651566 0.012221690902003536 0.048070358801068684 -0.0060749706404749308 0.045650609935584827 0.0036125733830268607 0.050314710301256949 -0.020764220765103467 -0.011878117961301046 -0.012425501999400911 0.073101347596545171 -0.021694018470589074 0.0084977602052822478 -0.054223974092918285 0.072675039752253465 0.062523938892852696 0.062794761714481173 0.066820543564178728 -0.0040669269043774837 0.075832420756871063 0.016402005337248927 -0.0048211790022744316 -0.049853453343113266 -0.024761625428340938 0.028917006311110327 -0.0081369257176951548
leaf_weight=29 27 39 1233 22 31 27 33 64 38 1121 62 69 22 21 29 32 40 34 28 21 21 22 105 22 63 389 75 38 90 139
leaf_count=29 27 39 1233 22 31 27 33 64 38 1121 62 69 22 21 29 32 40 34 28 21 21 22 105 22 63 389 75 38 90 139
internal_value=0.000303604 -8.86543e-05 -0.00434615 0.0036879 -0.0442405 -0.00301708 0.0092751 0.00274426 0.00809262 0.00499087 -0.00321494 0.00931675 0.0340261 -0.00533923 -0.00363212 0.0174816 0.03565 -0.0227797 0.0429979 -0.00740643 0.0251846 0.022415 0.018149 0.0119716 0.031784 -0.0100237 -0.0251265 0.00630612 -0.00586732 0.00642575
internal_weight=3986 3959 1861 2098 60 1801 339 284 1410 1159 251 153 84 688 666 101 69 98 55 565 42 251 229 190 85 523 134 59 1462 229
internal_count=3986 3959 1861 2098 60 1801 339 284 1410 1159 251 153 84 688 666 101 69 98 55 565 42 251 229 190 85 523 134 59 1462 229
is_linear=0
shrinkage=0.05


Tree=12
num_leaves=31
num_cat=0
split_feature=0 0 0 5 0 0 3 0 3 0 0 0 4 1 3 6 1 6 4 4 5 4 0 6 1 3 3 3 6 4
split_gain=1945.96 234.782 185.592 46.031 42.5788 31.769 42.8377 32.8004 32.2371 30.8014 41.5286 26.5292 25.9714 36.5118 34.1146 26.6095 25.3923 37.3398 24.5911 24.5748 24.1684 23.5711 24.734 23.5032 22.9249 30.8487 29.8142 37.8857 28.1647 27.4965
threshold=13.814691819091502 2.7655830217589243 23.983022381644769 7.4973367163101114 -7.7866353172532312 30.256986153198415 15.869686711526887 34.565977737951989 17.336145073409892 8.8637009123849531 7.7798870169711423 6.4376712399545157 65.633600708662712 995.09146103430646 18.486468161567668 75.227506509887249 1011.4308045890469 15.977219511408315 40.620526341389144 146.26555053861799 19.340884267905697 94.722358683791967 8.3854117554174472 29.053526466511268 1010.6961590642236 14.196741081521777 13.278612259515173 16.9391782230731 39.669647213744291 68.769801469106383
decision_type=2 2 2 2 2 2 2 2 2 2 2 2 2 2 2 2 2 2 2 2 2 2 2 2 2 2 2 2 2 2
left_child=1 3 20 16 -5 12 7 -7 -8 10 11 -3 14 -14 18 23 17 -1 -4 -17 -2 -12 -23 -15 26 29 28 -28 -11 -26
right_child=2 9 5 4 -6 6 8 -9 -10 24 21 -13 13 15 -16 19 -18 -19 -20 -21 -22 22 -24 -25 25 -27 27 -29 -30 -31
leaf_value=0.10288097083568573 -0.023016416825852509 0.02307295848075272 -0.065906561946406247 0.066435993394937165 0.034914568450657026 -0.044811475845182552 -0.14307766393536614 -0.10142863514865269 -0.076048050109463625 -0.051624722996216323 0.010213831043802203 -0.0051116601547359364 -0.086493715545848796 -0.026727916534227417 -0.025468689263672441 -0.062688096016645434 0.071720497366790745 0.036749617342696821 -0.12464907246828079 -0.00079845170042029147 0.018275457896241867 0.094651267919186002 0.03758350643209922 -0.05541832470934998 0.076311745018594793 -0.0044545745823151356 0.065541561349080166 -0.0061958463892104135 -0.0027728263275431739 0.020001031872816384
leaf_weight=25 839 328 62 129 632 217 21 29 123 51 26 112 38 127 37 20 236 146 25 81 37 37 39 163 27 110 26 63 70 110
leaf_count=25 839 328 62 129 632 217 21 29 123 51 26 112 38 127 37 20 236 146 25 81 37 37 39 163 27 110 26 63 70 110
internal_value=0.000288424 0.0322962 -0.0378429 0.0475169 0.0402579 -0.0532361 -0.0641643 -0.0514859 -0.0858232 0.0145006 0.0225624 0.0158987 -0.0455291 -0.0397036 -0.0656837 -0.0351562 0.0610897 0.0464179 -0.0827866 -0.0130538 -0.0212724 0.051308 0.0653665 -0.0428539 0.00493941 0.0152653 -0.00720579 0.0147611 -0.0233633 0.0310988
internal_weight=3986 2167 1819 1168 761 943 390 246 144 999 542 440 553 429 124 391 407 171 87 101 876 102 76 290 457 247 210 89 121 137
internal_count=3986 2167 1819 1168 761 943 390 246 144 999 542 440 553 429 124 391 407 171 87 101 876 102 76 290 457 247 210 89 121 137
is_linear=0
shrinkage=0.05


Tree=13
num_leaves=31
num_cat=0
split_feature=0 0 0 0 0 5 0 0 2 2 1 5 2 4 1 0 4 5 0 5 5 5 4 0 6 2 2 0 4 2
split_gain=1756.57 204.541 178.316 45.8079 28.6715 27.6884 25.3471 38.4229 23.9324 42.2863 24.0089 23.3358 25.8066 35.5857 29.9212 23.9133 28.1107 23.0197 28.0429 22.5132 28.9264 21.8839 21.2729 22.3224 21.1472 20.5149 22.6386 20.2295 20.1215 20.7725
threshold=13.432467734690901 -0.89488036816010907 23.983022381644769 8.8637009123849531 30.256986153198415 19.340884267905697 7.7798870169711423 6.4376712399545157 23.006718238749045 4.9225664280859567 1036.3969998467448 7.4973367163101114 42.580914658493889 111.03234104746431 1010.6961590642236 -7.7866353172532312 195.73178452641491 17.258189666036142 -2.441376343523467 0.31382405957033349 0.8481968725318868 14.845016708728105 94.722358683791967 8.3854117554174472 71.293822618486914 29.544506232219415 71.586449632781765 6.8159539645113822 21.192448470453119 23.006718238749045
decision_type=2 2 2 2 2 2 2 2 2 2 2 2 2 2 2 2 2 2 2 2 2 2 2 2 2 2 2 2 2 2
left_child=1 11 5 6 8 19 7 -3 9 -4 -10 12 13 -1 -15 24 -17 18 -18 -2 -21 27 -8 -24 25 -13 -27 -9 -22 -30
right_child=2 3 4 -5 -6 -7 22 21 10 -11 -12 15 -14 14 -16 16 17 -19 -20 20 28 -23 23 -25 -26 26 -28 -29 29 -31
leaf_value=0.11895431988418868 -0.072559836400406696 0.026817168093169159 -0.013091583008645102 0.0052731600502119499 -0.06095604799186382 0.021126733506098391 0.0097031395774907804 -0.028949903351841152 -0.04078607621447107 -0.079820149515391056 0.0071027175390294614 0.11100353077054025 0.049648832702289591 0.020152305676762402 0.083761603604344759 0.049949571958357669 0.022855669470717672 -0.012776145594460622 0.083045273922059848 0.032832075107842688 0.010007606335776917 -0.046086029991507536 0.089918705216936179 0.035704331338787691 0.028585468210054168 0.033744580620849458 0.091669747401629725 0.02316529102623463 -0.037952912969194591 -0.018999088612563202
leaf_weight=39 21 660 32 423 390 40 26 27 401 92 28 28 176 29 51 232 122 35 23 25 47 25 37 39 33 37 31 60 192 585
leaf_count=39 21 660 32 423 390 40 26 27 401 92 28 28 176 29 51 232 122 35 23 25 47 25 37 39 33 37 31 60 192 585
internal_value=0.000274002 0.0312108 -0.0353376 0.0187801 -0.0505743 -0.0195483 0.0253172 0.0222221 -0.0432527 -0.0625999 -0.0376605 0.0504964 0.0618091 0.0797939 0.0607032 0.0443277 0.0384456 0.0236182 0.032403 -0.0214184 -0.0201534 -0.00485608 0.0487426 0.0620982 0.0631142 0.0749834 0.0601516 0.00699161 -0.021761 -0.0236827
internal_weight=3986 2133 1853 1297 943 910 874 772 553 124 429 836 295 119 80 541 412 180 145 870 849 112 102 76 129 96 68 87 824 777
internal_count=3986 2133 1853 1297 943 910 874 772 553 124 429 836 295 119 80 541 412 180 145 870 849 112 102 76 129 96 68 87 824 777
is_linear=0
shrinkage=0.05


Tree=14
num_leaves=31
num_cat=0
split_feature=0 0 0 5 0 0 3 0 3 0 0 4 1 3 2 2 0 4 3 2 1 1 4 3 3 3 2 4 4 3
split_gain=1586.19 192.847 150.884 38.8763 34.8307 25.876 38.661 29.6023 29.0939 24.4617 34.2129 23.4529 32.6808 30.4949 22.4101 36.2692 30.082 22.181 21.911 21.8114 21.7295 20.6717 28.8121 26.9399 34.3028 21.7843 20.9892 19.563 19.1988 23.245
threshold=13.814691819091502 2.7655830217589243 23.983022381644769 7.4973367163101114 -7.7866353172532312 30.256986153198415 15.869686711526887 34.565977737951989 17.336145073409892 8.8637009123849531 7.7798870169711423 65.633600708662712 995.09146103430646 18.486468161567668 85.605707875894623 92.537761105389805 19.686917963032034 40.620526341389144 1.7677950942849618 75.980234076365846 1011.4308045890469 1010.6961590642236 47.628108698163423 13.278612259515173 16.9391782230731 14.196741081521777 62.070775705030535 34.649716908632378 94.722358683791967 7.2381941657943765
decision_type=2 2 2 2 2 2 2 2 2 2 2 2 2 2 2 2 2 2 2 2 2 2 2 2 2 2 2 2 2 2
left_child=1 3 14 20 -5 11 7 19 -8 10 18 13 -13 17 -2 -16 -17 -4 -3 -7 27 23 -23 26 -25 -24 -11 -1 -12 -30
right_child=2 9 5 4 -6 6 8 -9 -10 21 28 12 -14 -15 15 16 -18 -19 -20 -21 -22 22 25 24 -26 -27 -28 -29 29 -31
leaf_value=0.087052521606286376 -0.022593728256798652 0.055414282393952213 -0.06038105175529998 0.059958484287323192 0.031448954791497417 -0.048196875079797058 -0.13287597795327505 -0.093309402157520427 -0.06919784536206626 -0.0071984720088488462 0.0092179828072683177 -0.079821563229626538 -0.031251933770147067 -0.02222072688510289 0.024804746097736603 0.00035635607966564989 -0.070264260426163669 -0.1161708505153656 0.011147846922323835 -0.010552686959505082 0.065260427553301401 0.05939170942686859 0.022047628937289121 0.062177305797544817 -0.0060837080820448815 -0.0099076296189499168 -0.050942826869764507 0.0355260462500155 0.0170171772737218 0.077209299901184053
leaf_weight=21 744 30 62 129 632 167 21 29 123 79 26 38 391 37 69 38 25 25 410 50 236 31 120 26 63 96 42 150 23 53
leaf_count=21 744 30 62 129 632 167 21 29 123 79 26 38 391 37 69 38 25 25 410 50 236 31 120 26 63 96 42 150 23 53
internal_value=0.000260302 0.0291582 -0.0341662 0.0429528 0.0362817 -0.0480456 -0.0579082 -0.0458638 -0.0784842 0.01303 0.0202144 -0.04109 -0.0355541 -0.0602424 -0.0192252 -0.00023892 -0.0276677 -0.0764126 0.014166 -0.0395231 0.0554262 0.00450937 0.0143147 -0.00702353 0.0138577 0.00784529 -0.0223825 0.0418539 0.0463054 0.0589933
internal_weight=3986 2167 1819 1168 761 943 390 246 144 999 542 553 429 124 876 132 63 87 440 217 407 457 247 210 89 216 121 171 102 76
internal_count=3986 2167 1819 1168 761 943 390 246 144 999 542 553 429 124 876 132 63 87 440 217 407 457 247 210 89 216 121 171 102 76
is_linear=0
shrinkage=0.05


Tree=15
num_leaves=31
num_cat=0
split_feature=0 0 0 0 5 0 5 0 1 1 4 6 0 5 6 6 6 4 3 1 1 5 0 4 6 5 6 1 3 4
split_gain=1493.26 240.046 71.8763 47.6648 35.109 26.7393 26.2293 25.6679 24.9727 24.4712 24.3676 23.9635 22.0284 21.1852 20.7597 24.9157 18.9701 18.6013 23.1972 24.0814 22.5842 26.4717 19.2471 28.7093 26.3328 21.1796 17.8563 17.166 17.1615 16.6283
threshold=9.4380136545851077 24.411307573334547 -2.7646705362014607 18.450919545764133 19.094362864584919 -3.1982285595187263 0.54197019624249954 -3.5643412789070466 992.10925230102941 1011.8845064430142 203.79817946648714 63.752734741588739 33.242453053487289 14.69852685118831 35.599706355844866 8.7521818157670435 34.148839331168155 246.48899193914104 6.3260191254800002 1020.6768263283574 1011.2821120973696 13.391294431632554 -4.3961701953724122 229.91819815948438 41.481816081437977 3.4624369740406027 67.559016971724915 999.89991260544355 20.388699173475413 266.95724089821562
decision_type=2 2 2 2 2 2 2 2 2 2 2 2 2 2 2 2 2 2 2 2 2 2 2 2 2 2 2 2 2 2
left_child=2 3 5 -2 8 7 -3 17 -5 10 16 12 -8 -14 15 -11 -10 22 -19 20 21 -20 23 25 -24 -1 -13 -12 -18 -28
right_child=1 6 -4 4 -6 -7 11 -9 9 14 27 26 13 -15 -16 -17 28 18 19 -21 -22 -23 24 -25 -26 -27 29 -29 -30 -31
leaf_value=0.071782555349235388 -0.0060045683115088153 -0.10090870450843464 0.026279299099112592 0.023533844947814943 0.034719215527824733 0.083478918168297486 -0.047825886494872211 -0.00075463348068296912 -0.028297538752002378 -0.039970028445576178 -0.047836966363384442 -0.001386778261512518 -0.059350568614900116 -0.1141341637596488 -0.03233414049013629 0.012495996096145569 -0.086402393852250056 0.065902064020999448 0.046383255646408848 -0.0020971163676154836 0.080509293019771583 -0.018855487620053086 0.11683672275349427 0.10012553715705873 0.046336950858434041 0.038355764147261891 -0.046047549294869303 0.0010664271680932297 -0.034659224012019957 -0.019643778951815617
leaf_weight=58 795 22 1092 22 23 47 475 30 35 33 34 35 60 25 168 72 59 44 48 54 25 23 26 25 27 259 226 38 22 81
leaf_count=58 795 22 1092 22 23 47 475 30 35 33 34 35 60 25 168 72 59 44 48 54 25 23 26 25 27 259 226 38 22 81
internal_value=-0.000267183 -0.0274802 0.0341748 -0.0136398 -0.0256358 0.0471206 -0.0469676 0.0443599 -0.0285099 -0.0309935 -0.0448755 -0.045652 -0.0520209 -0.0754634 -0.0214338 -0.00399333 -0.0590574 0.0466578 0.0339789 0.0246147 0.0396401 0.0252496 0.0528849 0.04854 0.0809217 0.0444717 -0.0352235 -0.0220268 -0.0723487 -0.0390811
internal_weight=3983 2225 1758 1301 506 666 924 619 483 461 188 902 560 85 273 105 116 589 194 150 96 71 395 342 53 317 342 72 81 307
internal_count=3983 2225 1758 1301 506 666 924 619 483 461 188 902 560 85 273 105 116 589 194 150 96 71 395 342 53 317 342 72 81 307
is_linear=0
shrinkage=0.05


Tree=16
num_leaves=31
num_cat=0
split_feature=0 0 0 0 5 0 2 5 1 1 6 4 4 6 6 1 0 0 2 2 2 2 5 0 2 1 6 2 1 2
split_gain=1347.67 216.641 64.8684 43.0175 31.6859 24.1322 24.381 23.672 22.5379 22.8234 29.5506 28.3728 28.0368 22.6925 21.6271 20.7292 20.0417 19.8806 25.4295 39.1359 33.1302 21.2486 19.1197 17.7699 26.1813 17.5228 25.7503 22.3584 20.0566 24.6306
threshold=9.4380136545851077 24.411307573334547 -2.7646705362014607 18.450919545764133 19.094362864584919 -3.1982285595187263 95.975149273986077 0.54197019624249954 992.10925230102941 996.01810258689318 35.599706355844866 169.65367846263499 30.370021942304795 70.612261828156022 63.752734741588739 1019.7580281988575 -3.5643412789070466 33.242453053487289 23.376196926966902 15.312503563664833 57.318098668010329 61.101659053595775 14.69852685118831 21.227847816390845 78.59967132525243 1025.0972919256681 79.746956778399081 88.661316213314151 1005.6896630928562 51.533545533365434
decision_type=2 2 2 2 2 2 2 2 2 2 2 2 2 2 2 2 2 2 2 2 2 2 2 2 2 2 2 2 2 2
left_child=2 3 5 -2 8 6 16 -3 -5 -10 23 12 -12 -13 17 -14 -1 18 19 -9 -20 -22 -19 24 -11 27 -27 28 -16 -30
right_child=1 7 -4 4 -6 -7 -8 14 9 10 11 13 15 -15 25 -17 -18 22 20 -21 21 -23 -24 -25 -26 26 -28 -29 29 -31
leaf_value=0.042307021175369768 -0.005704339830349083 -0.095863268846137967 0.024965334024023175 0.022357152537866076 0.03298325428496237 0.079304973040013882 0.093834259394894953 -0.04465876874092916 -0.066039871275186166 -0.045843886313777345 -0.0034277605857072481 -0.037976711429655557 -0.085034269094467166 0.0022956479524002702 -0.028258407463902957 -0.040000632192513493 -0.00030685857275565125 -0.056383039886131886 -0.021211441864235035 -0.10669894396828919 -0.10086293909698725 -0.046694683175319468 -0.10842745515704155 0.00733803559049237 0.02165466039441526 0.0090180188326128563 -0.041477339930832385 0.0030049052376013539 -0.040229626213840679 -0.085389218730135608
leaf_weight=568 795 22 1092 22 23 47 22 73 39 51 23 82 56 61 91 47 29 60 152 39 20 191 25 82 20 51 50 26 72 52
leaf_count=568 795 22 1092 22 23 47 22 73 39 51 23 82 56 61 91 47 29 60 152 39 20 191 25 82 20 51 50 26 72 52
internal_value=-0.000253824 -0.0261062 0.0324661 -0.0129578 -0.0243541 0.0447645 0.0421419 -0.0446193 -0.0270844 -0.0294439 -0.0260618 -0.0360403 -0.0533396 -0.0207976 -0.0433694 -0.0644849 0.040237 -0.0494198 -0.0454346 -0.066262 -0.0390085 -0.0518291 -0.0716902 -0.00851782 -0.0268302 -0.0334623 -0.0159797 -0.040789 -0.0460851 -0.0591675
internal_weight=3983 2225 1758 1301 506 666 619 924 483 461 422 269 126 143 902 103 597 560 475 112 363 211 85 153 71 342 101 241 215 124
internal_count=3983 2225 1758 1301 506 666 619 924 483 461 422 269 126 143 902 103 597 560 475 112 363 211 85 153 71 342 101 241 215 124
is_linear=0
shrinkage=0.05


Tree=17
num_leaves=31
num_cat=0
split_feature=0 0 0 0 5 0 2 5 3 6 3 5 4 0 2 2 2 0 5 6 4 4 5 5 6 3 4 6 5 2
split_gain=1216.27 195.519 58.5437 38.8233 28.5965 21.7793 22.0039 21.3639 20.489 21.8614 32.9671 19.4753 19.5445 18.3404 25.3832 27.4476 26.4253 18.0876 17.6517 17.2821 16.2344 16.3664 18.6636 31.7258 21.2437 18.8028 15.6257 30.5833 18.0285 20.2462
threshold=9.4380136545851077 24.411307573334547 -2.7646705362014607 18.450919545764133 19.094362864584919 -3.1982285595187263 95.975149273986077 0.54197019624249954 0.72748527095137383 63.752734741588739 3.5855083892285555 16.179367888451324 228.43449362959305 33.242453053487289 25.800832826845319 57.318098668010329 15.312503563664833 -3.5643412789070466 14.69852685118831 79.410223972016709 21.192448470453119 39.426746307920745 18.550578424146078 19.476608812407871 96.181864394398062 3.0206976196860071 339.04753768449285 52.929377206862206 0.76477858319573666 81.358220242917653
decision_type=2 2 2 2 2 2 2 2 2 2 2 2 2 2 2 2 2 2 2 2 2 2 2 2 2 2 2 2 2 2
left_child=2 3 5 20 11 6 17 -3 -9 13 19 -5 -13 14 16 -16 -10 -1 -15 -11 -2 -22 24 -24 25 -23 28 -28 -27 -30
right_child=1 7 -4 4 -6 -7 -8 8 9 10 -12 12 -14 18 15 -17 -18 -19 -20 -21 21 22 23 -25 -26 26 27 -29 29 -31
leaf_value=0.040191670347900381 0.022767569079102639 -0.091070106650956661 0.023717067362621237 -0.021912961341032398 0.031334091026497923 0.075339723781662746 0.089142544618384403 -0.091244298666715629 -0.042425830225932271 0.03848597463220358 -0.036347525324006737 -0.031631092224270109 -0.091198338923000166 -0.052746496632181367 -0.017791653245615265 -0.046854625731323138 -0.089333549090752418 -0.00029151521478619041 -0.10300608402490617 -0.022166429703002394 -0.037941525213238673 0.022171833670232444 -0.07043500611824649 0.0079066967708058666 -0.047442814636115847 0.033712696943145534 0.069312366247177126 -0.018127982392907145 -0.013640637316517441 0.01347230683748487
leaf_weight=568 48 22 1092 422 23 47 22 20 73 24 289 40 21 58 135 204 51 29 25 23 41 75 28 24 26 26 20 20 404 83
leaf_count=568 48 22 1092 422 23 47 22 20 73 24 289 40 21 58 135 204 51 29 25 23 41 75 28 24 26 26 20 20 404 83
internal_value=-0.000241133 -0.0248009 0.0308428 -0.0123099 -0.0231364 0.0425263 0.0400348 -0.0423883 -0.0412009 -0.0400662 -0.0300315 -0.0257302 -0.0521378 -0.0462413 -0.0423614 -0.0352809 -0.0617185 0.0382252 -0.0678849 0.00880501 -0.00541912 -0.00723032 -0.0054468 -0.0342773 -0.00315447 -0.00132088 -0.00450705 0.0255922 -0.00685397 -0.00901975
internal_weight=3983 2225 1758 1301 506 666 619 924 902 882 336 483 61 546 463 339 124 597 83 47 795 747 706 52 654 628 553 40 513 487
internal_count=3983 2225 1758 1301 506 666 619 924 902 882 336 483 61 546 463 339 124 597 83 47 795 747 706 52 654 628 553 40 513 487
is_linear=0
shrinkage=0.05


Tree=18
num_leaves=31
num_cat=0
split_feature=0 0 0 0 4 0 0 4 4 2 6 4 2 6 6 3 6 4 1 3 0 2 3 0 2 0 2 1 2 2
split_gain=1097.68 176.456 52.8357 35.038 21.5062 30.1136 22.5777 23.3716 22.3943 21.6921 21.1214 19.8877 19.3047 18.3716 24.9352 18.2854 20.0194 18.3635 17.8037 17.6148 18.4646 27.2916 26.7185 24.2449 20.8017 17.9521 25.2981 21.5811 21.5219 16.7783
threshold=9.4380136545851077 24.411307573334547 -2.7646705362014607 18.450919545764133 200.3934228691252 -4.2293050368867044 -7.9732227653176144 256.72641163227655 144.92748541242827 80.46285025589269 34.615473433942817 281.82411070977855 69.475493156340093 67.110327528999733 40.433687536853249 6.3260191254800002 23.445543051260003 298.79946425821237 1036.5839532058292 0.72748527095137383 28.534369275177806 86.309921748889593 6.864792448673799 29.025694634927468 73.89651609600898 30.466750258336639 56.080208799715315 1019.3037771000135 51.142016936227613 68.640588469525355
decision_type=2 2 2 2 2 2 2 2 2 2 2 2 2 2 2 2 2 2 2 2 2 2 2 2 2 2 2 2 2 2
left_child=2 3 4 -2 5 13 7 -6 -7 12 -9 -11 15 14 -1 -8 -17 -18 -5 -3 -21 22 24 -24 -22 27 -27 28 -25 -28
right_child=1 19 -4 18 6 8 9 10 -10 11 -12 -13 -14 -15 -16 16 17 -19 -20 20 21 -23 23 25 -26 26 29 -29 -30 -31
leaf_value=0.035697052482515576 -0.005148166584732515 -0.086682084947824478 0.022531214108693395 -0.019709591100125861 0.085909902257844811 0.055832020151005551 0.060189647108316424 -0.0045398264961398161 0.11367625873277172 0.084990033507347115 0.057140668915318597 0.019925842765951531 -0.021603269498154987 0.022113885617879935 0.071445182755123834 -0.025522397702129992 0.0072597357185764447 0.056049619552989809 -0.060730717550697068 -0.030314243148627136 -0.019387321246580949 -0.01692789256107062 -0.10274275332832566 -0.042928339670533722 -0.074175029247999194 -0.045138594589497844 -0.10099774149500512 -0.062344330786304039 0.026245397532528098 -0.061137274951871601
leaf_weight=125 795 20 1092 478 32 44 25 23 27 23 35 24 32 86 80 26 54 30 28 353 99 75 26 23 21 142 44 33 22 66
leaf_count=125 795 20 1092 478 32 44 25 23 27 23 35 24 32 86 80 26 54 30 28 353 99 75 26 23 21 142 44 33 22 66
internal_value=-0.000229076 -0.0235608 0.0293006 -0.0116944 0.0404 0.0486337 0.0305953 0.0516069 0.0778291 0.0217587 0.0326812 0.0517658 0.0133136 0.0415104 0.0496475 0.0215902 0.0128176 0.0246847 -0.0219795 -0.0402689 -0.039242 -0.0449617 -0.0493788 -0.0562564 -0.0289752 -0.0525938 -0.0590819 -0.0316323 -0.00911007 -0.0770815
internal_weight=3983 2225 1758 1301 666 362 304 90 71 214 58 47 167 291 205 135 110 84 506 924 904 551 476 356 120 330 252 78 45 110
internal_count=3983 2225 1758 1301 666 362 304 90 71 214 58 47 167 291 205 135 110 84 506 924 904 551 476 356 120 330 252 78 45 110
is_linear=0
shrinkage=0.05


Tree=19
num_leaves=31
num_cat=0
split_feature=0 0 0 0 5 4 0 4 4 3 4 3 5 6 0 6 3 2 4 2 5 6 6 6 4 6 0 6 0 0
split_gain=990.659 159.251 47.6842 31.6218 25.7841 19.4093 27.1775 20.6129 22.9743 23.4234 20.2109 19.2506 18.9266 18.5664 23.5217 25.8019 22.983 22.097 19.5283 17.9291 17.4836 17.4809 17.3656 17.2805 21.6242 16.8686 16.1815 22.4655 20.9859 22.1633
threshold=9.4380136545851077 24.411307573334547 -2.7646705362014607 18.450919545764133 19.094362864584919 200.3934228691252 -4.2293050368867044 226.88509739192412 246.48899193914104 6.3260191254800002 144.92748541242827 21.046276292666267 0.54197019624249954 35.599706355844866 21.227847816390845 24.259991344736946 20.729609484942575 26.199663363793999 191.18953266177724 86.012951360449691 4.0074372715321136 63.752734741588739 39.003526093246052 78.119621664195435 148.2239516971662 72.061034288041085 28.148825042486628 59.828400271217255 29.254311150921623 28.534369275177806
decision_type=2 2 2 2 2 2 2 2 2 2 2 2 2 2 2 2 2 2 2 2 2 2 2 2 2 2 2 2 2 2
left_child=2 3 5 -2 13 6 20 -7 -9 22 -8 19 -3 14 15 18 23 -18 -5 -11 -1 26 -10 25 -25 -15 -14 28 29 -28
right_child=1 12 -4 4 -6 7 10 8 9 11 -12 -13 21 16 -16 -17 17 -19 -20 -21 -22 -23 -24 24 -26 -27 27 -29 -30 -31
leaf_value=0.063999172351483655 -0.0048907583311459885 -0.084076205844228924 0.021404653346486665 -0.023362009824320143 0.030842043119280235 -0.003011054017169531 0.053040418337861252 0.067751620926482736 0.021095623606815935 0.0012814107626952509 0.10799244624547472 0.049459029581302251 -0.031174390513682738 -0.038292808703187374 0.0072829493986708779 0.0070340220009287207 -0.043923382523159193 0.01548525101194779 -0.085541109935097073 0.052819351777434354 0.033320220090876547 -0.028230895920539525 0.080854714842092612 -0.046425209211884068 0.010064360442467862 -0.076724844612181195 -0.042968055461683585 -0.08960312034994844 -0.039175351810538106 -0.10433769900617856
leaf_weight=58 795 22 1092 28 23 43 44 43 20 108 27 39 200 138 91 30 24 45 23 20 233 342 31 32 36 36 31 31 270 28
leaf_count=58 795 22 1092 28 23 43 44 43 20 108 27 39 200 138 91 30 24 45 23 20 233 342 31 32 36 36 31 31 270 28
internal_value=-0.000217622 -0.0223828 0.0278356 -0.0111097 -0.0208806 0.03838 0.046202 0.0290656 0.0343502 0.0277619 0.0739377 0.0187047 -0.0382554 -0.0233435 -0.0101617 -0.02976 -0.0306338 -0.00517862 -0.0514036 0.00933421 0.0394349 -0.0371379 0.0574198 -0.0378917 -0.016519 -0.0462443 -0.0425775 -0.0489125 -0.0450785 -0.0720926
internal_weight=3983 2225 1758 1301 506 666 362 304 261 218 71 167 924 483 172 81 311 69 51 128 291 902 51 242 68 174 560 360 329 59
internal_count=3983 2225 1758 1301 506 666 362 304 261 218 71 167 924 483 172 81 311 69 51 128 291 902 51 242 68 174 560 360 329 59
is_linear=0
shrinkage=0.05


Tree=20
num_leaves=31
num_cat=0
split_feature=0 0 0 5 1 3 4 3 4 1 1 3 4 4 5 3 6 6 5 0 5 1 5 4 3 3 5 4 5 5
split_gain=868.798 167.975 78.9379 33.6847 52.0386 23.6291 23.4597 26.9956 27.3688 23.3325 39.7471 23.0066 21.987 17.8477 19.0059 18.1471 18.8337 17.1866 21.637 16.2797 28.6773 27.814 25.6482 21.7393 39.2676 27.5137 15.6885 17.7972 20.4188 15.0561
threshold=15.818434343456898 3.6525619266648381 27.335269682238874 14.550825589538926 991.32669621072023 20.575516379302702 340.37658045340544 19.804428967938531 132.4889330202316 1027.5973465727147 1036.3969998467448 19.879864180980775 41.940081936643054 58.352524368046794 10.832072689663773 13.57953088910598 53.588371581306781 23.445543051260003 10.368085587135123 -2.7646705362014607 15.534558808815023 1018.5222075362379 16.524789824139212 181.45221785427023 12.811678667546094 14.196741081521777 4.9455480672082075 148.2239516971662 13.889356911344908 1.8337128669932548
decision_type=2 2 2 2 2 2 2 2 2 2 2 2 2 2 2 2 2 2 2 2 2 2 2 2 2 2 2 2 2 2
left_child=1 3 5 4 -1 11 7 8 9 13 -11 -2 -9 15 -15 16 -6 -14 -19 20 -5 23 -22 24 -21 -25 -10 -28 -29 -4
right_child=2 -3 29 19 6 -7 -8 12 26 10 -12 -13 17 14 -16 -17 -18 18 -20 21 22 -23 -24 25 -26 -27 27 28 -30 -31
leaf_value=-0.043172289915382862 -0.021228525481332364 0.0046364360331598636 -0.067306009028106933 -0.015767607589562735 -0.0099882110727555831 -0.0030176785545515234 0.0014574611741231709 0.098111944007022056 0.057879951483577156 0.073808224927237695 -0.0064073410371075501 -0.065142739564180374 0.020262194570858736 -0.012551155196837124 0.036811343136315164 0.062781704705336991 0.049736038121310153 0.041890184046781583 0.08645477603293128 0.0024631015025079251 0.073970374464988706 -0.013359300425298601 0.026306829599961015 0.032729427899633137 0.099265407567674477 -0.039663252802122212 0.08105445791568075 0.028854214692754405 0.080349735099644895 -0.039285445666503382
leaf_weight=20 787 1092 52 30 33 183 41 28 131 47 23 31 37 78 26 29 22 69 45 20 37 83 119 35 22 21 21 231 21 614
leaf_count=20 787 1092 52 30 33 183 41 28 131 47 23 31 37 78 26 29 22 69 45 20 37 83 119 35 22 21 21 231 21 614
internal_value=-0.000498842 0.0190133 -0.0281342 0.0313848 0.036581 -0.0192593 0.0383895 0.04019 0.0355318 0.02281 0.0474517 -0.0228928 0.0574174 0.0136349 -0.000210531 0.0307768 0.0139015 0.0498714 0.0594815 0.0186138 0.0290021 0.00793857 0.0376116 0.0259766 0.0531691 0.00558217 0.0436562 0.0368308 0.0331455 -0.0414732
internal_weight=4028 2361 1667 1269 902 1001 882 841 662 258 70 818 179 188 104 84 55 151 114 367 186 181 156 98 42 56 404 273 252 666
internal_count=4028 2361 1667 1269 902 1001 882 841 662 258 70 818 179 188 104 84 55 151 114 367 186 181 156 98 42 56 404 273 252 666
is_linear=0
shrinkage=0.05


Tree=21
num_leaves=31
num_cat=0
split_feature=0 0 0 5 1 3 3 4 3 4 1 1 4 6 0 6 4 4 1 1 6 4 4 4 5 4 5 3 6 1
split_gain=784.09 151.597 71.2415 30.4005 46.9648 21.3253 21.2592 21.1724 24.3636 24.7003 21.0576 35.8717 19.8432 17.4297 24.9463 19.304 40.4698 38.6826 18.215 18.8184 17.8165 21.364 24.0536 19.8554 17.3402 16.1076 17.1528 16.3778 16.9974 16.0876
threshold=15.818434343456898 3.6525619266648381 27.335269682238874 14.550825589538926 991.32669621072023 20.575516379302702 16.9391782230731 340.37658045340544 19.804428967938531 132.4889330202316 1027.5973465727147 1036.3969998467448 41.940081936643054 19.432692822229104 19.878528207224139 9.871834585463036 272.30606097740139 86.472638729191928 1010.5387671578244 1032.3807491307418 78.119621664195435 143.75116911652768 61.549779378335536 120.08354955813589 15.465541050250993 58.352524368046794 10.832072689663773 13.57953088910598 53.588371581306781 1020.1117444019995
decision_type=2 2 2 2 2 2 2 2 2 2 2 2 2 2 2 2 2 2 2 2 2 2 2 2 2 2 2 2 2 2
left_child=1 3 5 4 -1 6 13 8 9 10 25 -12 -10 15 18 16 17 -2 -15 -20 21 22 -16 -22 -8 27 -27 28 -6 -14
right_child=2 -3 -4 -5 7 -7 24 -9 12 -11 11 -13 29 14 20 -17 -18 -19 19 -21 23 -23 -24 -25 -26 26 -28 -29 -30 -31
leaf_value=-0.041013676654547457 -0.047660597875004727 0.004404614156475287 -0.039399575500711645 0.017683121375866456 -0.009488801003405543 -0.0028667945994949734 -0.046780785056011333 0.0013845878971240871 0.093206346780061733 0.04147334442967273 0.07011781409382821 -0.0060869744614414547 0.061186696735570548 0.010113206121461167 -0.04308256986075823 0.018298046793493016 -0.070007932587311819 0.038649234404403938 -0.035049987428930479 0.007950508653333313 -0.045588699638329705 -0.05006285493170292 0.0081588899240244272 0.0047996008225406209 -0.0049716173160460689 -0.011923597074854068 0.034970775884217944 0.059642618843193711 0.047249236296523701 0.028089365165399772
leaf_weight=20 21 1092 666 367 33 183 124 41 28 404 47 23 88 81 49 63 26 34 77 38 29 142 43 60 31 78 26 29 22 63
leaf_count=20 21 1092 666 367 33 183 124 41 28 404 47 23 88 81 49 63 26 34 77 38 29 142 43 60 31 78 26 29 22 63
internal_value=-0.0004739 0.0180626 -0.0267275 0.0298156 0.034752 -0.0182963 -0.0217481 0.03647 0.0381805 0.0337552 0.0216695 0.0450791 0.0545466 -0.0178507 -0.022121 -0.00245992 -0.018605 0.00569457 -0.00804878 -0.0208411 -0.0306602 -0.0379023 -0.0191328 -0.0116191 -0.038419 0.0129531 -0.000200004 0.029238 0.0132064 0.0473779
internal_weight=4028 2361 1667 1269 902 1001 818 882 841 662 258 70 179 663 519 144 81 55 196 115 323 234 92 89 155 188 104 84 55 151
internal_count=4028 2361 1667 1269 902 1001 818 882 841 662 258 70 179 663 519 144 81 55 196 115 323 234 92 89 155 188 104 84 55 151
is_linear=0
shrinkage=0.05


Tree=22
num_leaves=31
num_cat=0
split_feature=0 0 0 2 5 1 3 2 3 2 0 1 0 6 2 5 3 2 0 2 1 1 0 5 5 1 5 2 6 2
split_gain=707.641 136.816 64.2954 29.5612 29.5643 41.011 20.6886 20.3646 40.2149 25.4841 38.4859 21.0586 20.6378 20.1432 22.9761 24.7727 19.057 17.4594 19.1693 16.1739 15.8312 21.36 15.282 26.9466 25.5126 22.2143 20.8543 15.0859 24.7679 29.5305
threshold=15.818434343456898 3.6525619266648381 27.335269682238874 95.975149273986077 14.550825589538926 991.32669621072023 20.729609484942575 42.83981388147145 20.729609484942575 63.541595493233565 17.669625337062406 1031.2611070187133 23.657563949764004 50.644705570974871 88.661316213314151 3.4143088459484421 1.146706388717367 78.59967132525243 -7.0084644400348131 1.5865017747704215 1007.9215734483665 1030.2298045648797 -2.7646705362014607 15.534558808815023 16.524789824139212 1018.5222075362379 17.976057980399695 13.974607634680117 25.048773858204303 6.0641976612187793
decision_type=2 2 2 2 2 2 2 2 2 2 2 2 2 2 2 2 2 2 2 2 2 2 2 2 2 2 2 2 2 2
left_child=1 3 7 4 5 -1 16 -2 9 10 -9 -12 -10 20 15 -15 -7 18 -8 -3 -11 -22 23 -6 -25 26 -24 28 -18 -30
right_child=2 19 -4 -5 22 6 17 8 12 13 11 -13 -14 14 -16 -17 27 -19 -20 -21 21 -23 25 24 -26 -27 -28 -29 29 -31
leaf_value=-0.03896299213636667 -0.025209575955292402 -0.040365651440806692 -0.037429596572058965 0.068591138117269357 -0.020081357125725067 0.071033716139694059 0.092502393076817194 0.055455205298960211 0.0050144175704764692 0.012817063086052858 -0.0017663570899855007 -0.049026196449995042 0.058199474044765033 -0.0025386275351047521 -0.0053632038991366119 -0.064677002375376311 0.0011349320051852953 0.011057915476461252 0.046824652541960991 0.0050155408581616292 -0.0394254463800216 0.0087689273497637589 0.037523788264802391 0.069387700031133925 0.02155188641189474 -0.015034347471355656 -0.012702733422479323 0.025257670672208535 0.023958001234408083 0.090581727018341052
leaf_weight=20 454 20 666 44 28 27 30 25 76 41 110 30 24 20 35 81 22 24 98 1072 71 34 62 37 113 81 31 584 29 39
leaf_count=20 454 20 666 44 28 27 30 25 76 41 110 30 24 20 35 81 22 24 98 1072 71 34 62 37 113 81 31 584 29 39
internal_value=-0.000450205 0.0171595 -0.0253911 0.0283248 0.0268785 0.0318108 0.0334702 -0.0173815 -0.0108843 -0.0172966 -0.00168912 -0.0118935 0.0177788 -0.0264287 -0.0402744 -0.0523724 0.0298443 0.0501926 0.0575304 0.00418438 -0.0135313 -0.0238196 0.0146458 0.0249462 0.0333514 0.00410867 0.0207816 0.0281942 0.0472493 0.0621687
internal_weight=4028 2361 1667 1269 1225 873 853 1001 547 447 165 140 100 282 136 101 701 152 128 1092 146 105 352 178 150 174 93 674 90 68
internal_count=4028 2361 1667 1269 1225 873 853 1001 547 447 165 140 100 282 136 101 701 152 128 1092 146 105 352 178 150 174 93 674 90 68
is_linear=0
shrinkage=0.05


Tree=23
num_leaves=31
num_cat=0
split_feature=0 0 0 5 1 6 0 6 3 4 1 1 0 4 6 3 3 5 6 4 4 3 3 1 6 1 4 4 1 4
split_gain=640.609 98.034 75.5103 24.7731 38.2543 19.6292 26.1517 34.7981 24.9438 24.0981 20.7765 20.4556 19.8406 19.0111 23.474 22.2162 24.0436 23.6973 18.1792 25.8702 18.0321 22.6453 20.0787 20.0598 28.5807 26.5006 17.9786 29.2671 17.8536 23.6154
threshold=13.814691819091502 3.6525619266648381 27.335269682238874 14.550825589538926 991.32669621072023 38.204953036222172 19.878528207224139 48.519395661095096 20.575516379302702 211.99321209853144 1012.6945274285553 1032.1872639324281 14.820360173404543 340.37658045340544 4.5449584115438268 19.804428967938531 18.882552502359506 13.889356911344908 78.119621664195435 120.08354955813589 132.4889330202316 16.9391782230731 17.95299430166191 1009.6642663000333 20.111379321414152 1034.1945036429959 101.02072218327966 61.549779378335536 997.98466774513656 216.61370658631967
decision_type=2 2 2 2 2 2 2 2 2 2 2 2 2 2 2 2 2 2 2 2 2 2 2 2 2 2 2 2 2 2
left_child=1 3 5 4 -1 28 11 -8 18 10 -10 12 -7 14 -6 16 17 20 26 -20 21 -16 23 24 -22 -25 27 -9 -2 -30
right_child=2 -3 -4 -5 13 6 7 8 9 -11 -12 -13 -14 -15 15 -17 -18 -19 19 -21 22 -23 -24 25 -26 -27 -28 -29 29 -31
leaf_value=-0.03701484225690365 -0.029767829997707967 0.0054175090148514994 -0.035558116956521842 0.015956430795554286 -0.0033448476117486376 -0.046325701454567707 -0.065651519351673349 -0.044811974144117403 0.019782038480043413 0.04989024748404821 -0.052288322336971761 0.01709202712401748 -0.0093608189809391909 -0.00033122607302374959 0.027043157806381203 0.05224608581922302 -0.014145627027998368 0.078180177561168018 -0.049895510949533095 0.0031220544454347542 0.072138370463455267 -0.019619794487953188 0.087621883293613798 0.053641876120339431 0.0094100339611311659 0.0040427451720461251 -0.050520725409805248 0.030695514576066108 0.0077445300866631752 -0.017648743118469916
leaf_weight=20 69 912 666 367 39 43 54 33 20 21 20 60 233 41 195 173 27 29 33 76 22 30 20 170 104 32 113 21 235 150
leaf_count=20 69 912 666 367 39 43 54 33 20 21 20 60 233 41 195 173 27 29 33 76 22 30 20 170 104 32 113 21 235 150
internal_value=-0.000427695 0.0179219 -0.0220956 0.0269086 0.0313647 -0.0145036 -0.0195976 -0.0283885 -0.0224176 0.00651753 -0.0162531 -0.00936772 -0.0151198 0.0329153 0.0345361 0.0363782 0.0320139 0.0340842 -0.0288127 -0.0129291 0.0318524 0.0208214 0.0389845 0.0360188 0.0203626 0.0457846 -0.0391798 -0.015448 -0.00634654 -0.00214895
internal_weight=4028 2181 1847 1269 902 1181 727 391 337 61 40 336 276 882 841 802 629 602 276 109 573 225 348 328 126 202 167 54 454 385
internal_count=4028 2181 1847 1269 902 1181 727 391 337 61 40 336 276 882 841 802 629 602 276 109 573 225 348 328 126 202 167 54 454 385
is_linear=0
shrinkage=0.05


Tree=24
num_leaves=31
num_cat=0
split_feature=0 0 0 5 2 2 3 2 0 0 6 2 3 6 2 5 6 6 5 3 0 3 3 3 6 6 6 6 2 4
split_gain=579.821 110.466 51.7239 21.349 22.2969 18.1898 34.3477 23.1023 34.0779 18.7445 17.7184 17.6533 24.733 17.2943 20.8967 22.3856 17.1241 17.0154 16.0685 14.6111 14.4902 15.9627 39.9245 21.2438 15.2494 27.6323 24.0561 21.0197 16.394 15.0901
threshold=15.818434343456898 3.8553296393442156 27.335269682238874 14.550825589538926 95.213386049048992 42.83981388147145 20.729609484942575 63.541595493233565 17.85579802101125 23.657563949764004 71.666997808610901 10.59332227251898 1.146706388717367 50.644705570974871 88.661316213314151 3.4143088459484421 36.071038991672609 59.098950367096322 8.7765402067750138 23.289139184357953 34.565977737951989 15.133867703258714 13.927954578018243 17.02657847342881 72.747426905291221 90.744902039244948 23.113673237744973 27.102085671362122 51.533545533365434 49.440176883784538
decision_type=2 2 2 2 2 2 2 2 2 2 2 2 2 2 2 2 2 2 2 2 2 2 2 2 2 2 2 2 2 2
left_child=1 3 5 11 -5 -2 7 8 -7 19 16 17 -13 -9 15 -15 -10 -1 -18 -8 21 22 24 -23 26 28 -4 -28 -26 -25
right_child=2 -3 20 4 -6 6 9 13 10 -11 -12 12 -14 14 -16 -17 18 -19 -20 -21 -22 23 -24 29 25 -27 27 -29 -30 -31
leaf_value=0.071852717900385513 -0.023196881941349418 0.0037349782210035192 -0.010602395171816978 0.012381723093268064 0.066662281360477207 0.050647471617816742 0.018660133380304884 -0.012328461410911526 0.0010552087591754065 0.055353621952235699 0.018288770582722991 0.07350157782036279 0.025692639058136447 -0.0012739598378539085 -0.00381439499024834 -0.060342732071301634 -0.014944955417565232 0.027263398543000222 -0.069076780408907398 -0.029680215025489981 -0.061852670469602883 -0.070589736061170694 0.033426592292057147 -0.0038309593246701884 0.035696377274062899 -0.047337886920342076 -0.093624679424933022 -0.040147337440375977 -0.014987525125989358 -0.040216576670751569
leaf_weight=46 454 1078 63 350 20 27 54 146 45 24 38 28 799 20 35 81 29 40 26 22 43 50 27 34 27 39 21 147 39 176
leaf_count=46 454 1078 63 350 20 27 54 146 45 24 38 28 799 20 35 81 29 40 26 22 43 50 27 34 27 39 21 147 39 176
internal_value=-0.00040631 0.0155338 -0.0229826 0.0254474 0.0153158 -0.0157986 -0.00965812 -0.0155843 -0.000724004 0.0168317 -0.0107749 0.0295534 0.0273113 -0.0242791 -0.0371084 -0.0486459 -0.0218192 0.0511135 -0.0405345 0.00466687 -0.0337802 -0.0318426 -0.0250691 -0.0412994 -0.0297697 -0.0139704 -0.0369512 -0.046832 0.0057468 -0.0343256
internal_weight=4028 2361 1667 1283 370 1001 547 447 165 100 138 913 827 282 136 101 100 86 55 76 666 623 363 260 336 105 231 168 66 210
internal_count=4028 2361 1667 1283 370 1001 547 447 165 100 138 913 827 282 136 101 100 86 55 76 666 623 363 260 336 105 231 168 66 210
is_linear=0
shrinkage=0.05


Tree=25
num_leaves=31
num_cat=0
split_feature=0 0 0 1 5 4 2 4 5 5 2 5 4 1 0 2 1 5 5 4 0 1 2 0 4 4 4 1 1 5
split_gain=576.192 113.048 58.2314 25.3959 35.9146 21.956 21.3111 20.5633 31.0685 31.1748 20.3924 19.4078 31.7315 20.6653 16.7699 16.4675 18.7986 16.6689 23.1964 35.1084 24.4467 22.0262 18.9342 15.9591 18.4599 18.7437 16.7929 31.0553 71.3783 34.426
threshold=14.615090355152416 -1.0553415596986795 24.611851140610444 1026.1108250827808 18.703722070524734 344.54193725096195 4.5662902358515955 299.75120584279017 6.1966497120996831 3.1147863251800394 6.814907099483742 12.949174039937509 328.16939675407042 1017.5627757341693 34.565977737951989 12.36201287728082 1032.1872639324281 3.1147863251800394 13.723257199456331 157.90363057043052 2.7655830217589243 1030.9065606735228 78.974900715679311 -7.7866353172532312 232.54697363868553 39.426746307920745 195.73178452641491 1020.0072647427957 1015.4344891681038 14.408450900216812
decision_type=2 2 2 2 2 2 2 2 2 2 2 2 2 2 2 2 2 2 2 2 2 2 2 2 2 2 2 2 2 2
left_child=1 5 -2 6 15 23 -3 14 9 -9 -8 13 -13 -10 -4 16 -5 -17 20 -20 21 -19 -22 24 25 -1 -25 28 29 -28
right_child=2 3 7 4 -6 -7 10 8 11 -11 -12 12 -14 -15 -16 17 -18 18 19 -21 22 -23 -24 26 -26 -27 27 -29 -30 -31
leaf_value=0.070088505114500349 -0.011769909523621176 -0.031590288399288867 -0.031503287199399592 0.077150639861991457 0.080515105082936911 -0.014098655621521176 0.051616210800906032 -0.025638382518664005 -0.089178615808486947 0.057394287262398459 0.0049667582115858954 0.027278826488503095 -0.048044371522135206 -0.019835383910685778 -0.065584217345244014 -0.01917852000088284 0.01101349446745146 0.014929371550679207 -0.03915912398137153 0.025563919091258536 0.0041145651901177572 0.082231483320074697 0.051563807701071107 0.036692496026510278 0.065503231252233188 0.021295169251683503 0.036363629879843859 -0.00068819886247549109 0.11561907110330852 -0.021489398341832888
leaf_weight=26 867 39 720 22 23 25 24 20 21 26 981 29 27 22 38 38 21 20 40 44 95 31 27 352 75 81 90 107 23 36
leaf_count=26 867 39 720 22 23 25 24 20 21 26 981 29 27 22 38 38 21 20 40 44 95 31 27 352 75 81 90 107 23 36
internal_value=0.000253948 0.0172199 -0.0210253 0.00862643 0.0200581 0.0320343 0.00467352 -0.0299118 -0.0126604 0.0212931 0.00608077 -0.0284368 -0.00903772 -0.0537007 -0.0332118 0.0159442 0.0448511 0.0117306 0.0163008 -0.00525658 0.026768 0.0558385 0.0146156 0.0334942 0.0464833 0.0331515 0.029606 0.0198621 0.0346198 0.0198342
internal_weight=3990 2220 1770 1405 361 815 1044 903 145 46 1005 99 56 43 758 338 43 295 257 84 173 51 122 790 182 107 608 256 149 126
internal_count=3990 2220 1770 1405 361 815 1044 903 145 46 1005 99 56 43 758 338 43 295 257 84 173 51 122 790 182 107 608 256 149 126
is_linear=0
shrinkage=0.05


Tree=26
num_leaves=31
num_cat=0
split_feature=4 3 3 1 3 1 4 1 1 3 2 3 1 3 3 3 2 5 4 6 5 2 2 3 4 5 4 6 1 6
split_gain=25.7925 29.0015 24.1254 23.7356 27.9015 16.1226 25.5665 15.3627 36.2891 31.7436 34.4734 31.5349 31.9561 25.1017 55.7709 23.0579 21.4798 22.4697 22.0958 24.7037 21.2788 21.7262 20.4829 19.9661 21.4125 19.9132 19.4534 49.2234 19.4367 22.1681
threshold=28.750082980943279 14.418447671256162 24.762723032880736 997.38673137565729 23.220700592553328 1001.12864312037 11.97173281396312 1013.6585024592384 1011.6849694039182 11.754789101748711 22.293732925084708 16.9391782230731 1016.4256081116204 14.829456413582301 14.029997791347446 21.046276292666267 43.142635312334384 8.324376648243069 199.12714801988722 40.027392910384471 0.61958379234659977 10.59332227251898 4.5662902358515955 8.1391591236981267 103.43575808923097 15.690928743675221 211.99321209853144 34.615473433942817 1036.1667340161414 41.481816081437977
decision_type=2 2 2 2 2 2 2 2 2 2 2 2 2 2 2 2 2 2 2 2 2 2 2 2 2 2 2 2 2 2
left_child=1 5 7 -3 -5 -1 -7 8 9 10 23 12 -9 14 25 -13 -12 18 -18 -20 -15 22 -22 24 -2 -11 -19 -28 -17 -30
right_child=2 3 -4 4 -6 6 -8 11 -10 13 16 15 -14 20 -16 28 17 26 19 -21 21 -23 -24 -25 -26 -27 27 -29 29 -31
leaf_value=0.024512584362288609 0.027851976137608293 -0.012997277412149642 -0.041726175292084618 0.050659384605474769 -0.0074815981519910013 -0.03342568193980635 0.009625487404325641 0.030566396788344719 -0.029129153116137015 -0.0047471573267263917 0.012278749666025712 -0.016024807870567131 0.0042656125319945745 -0.049556779755013332 0.066527983367595134 -0.0019877616561736157 -0.013088445464769999 -0.0062398992088292873 0.057055359147489076 0.00034005272609647367 0.0013605080065176344 -0.0014814953718666252 0.05750286253169179 -0.057640735946673287 -0.02984876882784614 0.042354044526083663 -0.079501577382034172 -0.010492900380073753 0.069563812559301205 -0.003169439248740673
leaf_weight=51 20 27 36 100 26 59 83 128 133 113 148 325 1182 21 49 236 90 124 32 48 33 581 32 48 82 28 40 73 22 20
leaf_count=51 20 27 36 100 26 59 83 128 133 113 148 325 1182 21 49 236 90 124 32 48 33 581 32 48 82 28 40 73 22 20
internal_value=0.000241251 0.0132874 -0.000997487 0.0295457 0.038662 0.000398663 -0.00826197 -0.000591103 -0.00405722 -0.00192242 -0.00978116 0.00248003 0.00683546 0.00454248 0.0205756 -0.00698202 -0.00403316 -0.00996476 0.00390667 0.0230262 -2.46669e-05 0.00158551 0.0289998 -0.0310488 -0.0185349 0.00460627 -0.0199147 -0.0349208 0.00358958 0.0349289
internal_weight=3990 346 3644 153 126 193 142 3608 1695 1562 705 1913 1310 857 190 603 555 407 170 80 667 646 65 150 102 141 237 113 278 42
internal_count=3990 346 3644 153 126 193 142 3608 1695 1562 705 1913 1310 857 190 603 555 407 170 80 667 646 65 150 102 141 237 113 278 42
is_linear=0
shrinkage=0.05


Tree=27
num_leaves=31
num_cat=0
split_feature=0 0 0 1 4 1 4 5 5 1 5 5 5 5 0 3 1 2 3 0 1 2 0 1 0 1 2 0 3 4
split_gain=517.079 101.001 52.7918 22.8847 19.9399 19.8861 18.6708 27.9015 28.0722 17.9963 30.9745 16.0051 45.3027 19.317 18.6468 18.4777 16.195 17.7859 15.6799 22.222 17.5818 17.5472 21.5821 15.5587 24.9569 19.8833 24.3561 14.2372 17.4502 15.1181
threshold=14.615090355152416 -1.0553415596986795 24.611851140610444 1001.2751911155659 344.54193725096195 999.28581540139669 299.75120584279017 6.1966497120996831 3.1147863251800394 1025.0972919256681 12.949174039937509 13.787113416810502 15.248035845031824 12.475086817490896 30.256986153198415 20.038233944084691 1012.034373322274 61.381787802928166 15.869686711526887 34.262845465052244 1013.6585024592384 39.828306955426442 31.983053414812474 1011.4308045890469 31.082539659387518 1015.0503892364933 21.27660925012832 -7.7866353172532312 17.95299430166191 195.73178452641491
decision_type=2 2 2 2 2 2 2 2 2 2 2 2 2 2 2 2 2 2 2 2 2 2 2 2 2 2 2 2 2 2
left_child=1 4 -2 5 27 -3 11 8 -8 10 -9 13 14 15 -13 18 17 -17 19 21 -20 22 -4 24 -14 -25 -27 28 -1 -29
right_child=2 3 6 -5 -6 -7 7 9 -10 -11 -12 12 23 -15 -16 16 -18 -19 20 -21 -22 -23 -24 25 -26 26 -28 29 -30 -31
leaf_value=0.034697465996827874 -0.011116469443846611 0.0026052796561933816 -0.020091613442895728 0.011805126568503773 -0.013659753806889059 -0.028680180011395995 -0.024310328508727254 -0.08199740509901729 0.054482255725619891 0.0025729632662499654 -0.012294764192523185 -0.052001766172739175 -0.034878145955988892 0.0055511299130875016 -0.11080527710063118 0.041573461911563456 -0.029442055812493591 -0.022269605116453026 -0.080521271750330928 -0.072242834694959498 -0.033712736731196978 -0.033907659151880758 0.037516302047740847 -0.087289343476295467 0.025679067653362399 -0.076232736402501666 -0.018170695152286798 0.034746764091092203 0.069831932083858794 0.018777692154162653
leaf_weight=134 867 281 72 1062 25 62 20 28 26 34 37 26 46 43 28 24 48 20 35 27 47 177 21 20 27 24 73 352 48 256
leaf_count=134 867 281 72 1062 25 62 20 28 26 34 37 26 46 43 28 24 48 20 35 27 47 177 21 20 27 24 73 352 48 256
internal_value=0.000229188 0.0163013 -0.019929 0.00817862 0.0303041 -0.00304982 -0.0283902 -0.0119519 0.0202246 -0.0269026 -0.0423205 -0.0315348 -0.0420799 -0.0265289 -0.0824925 -0.0294577 -0.00935704 0.0125539 -0.034337 -0.0289932 -0.053692 -0.0246682 -0.00708337 -0.0305942 -0.0124803 -0.041896 -0.0325366 0.0316954 0.0439637 0.0280229
internal_weight=3990 2220 1770 1405 815 343 903 145 46 99 65 758 244 514 54 471 92 44 379 297 82 270 93 190 73 117 97 790 182 608
internal_count=3990 2220 1770 1405 815 343 903 145 46 99 65 758 244 514 54 471 92 44 379 297 82 270 93 190 73 117 97 790 182 608
is_linear=0
shrinkage=0.05


Tree=28
num_leaves=31
num_cat=0
split_feature=0 0 0 1 5 2 2 0 5 3 2 0 0 1 2 3 5 5 1 2 6 2 0 0 5 3 3 5 5 5
split_gain=466.663 91.1536 47.6446 21.7107 32.1917 18.8373 17.9783 16.6431 15.9377 22.8666 15.9192 27.6952 17.6481 23.2046 25.6481 25.7342 22.6066 19.9497 40.2655 18.7314 17.4602 16.0966 16.0958 15.6815 15.2942 19.2083 20.986 15.4428 14.9292 32.3607
threshold=14.615090355152416 -1.0553415596986795 24.611851140610444 1026.1108250827808 18.703722070524734 4.5662902358515955 6.814907099483742 34.565977737951989 18.35034046339749 13.061614506063085 86.309921748889593 29.254311150921623 30.466750258336639 1027.2457147012885 41.291518933692423 12.682297192102103 10.691301451205378 5.903303689835818 1004.7676697810217 43.98451758900692 53.864442494118684 80.054927115777829 29.886598489776457 31.082539659387518 16.95237380034558 23.397619349558948 22.541784044655909 9.2397733155534123 1.9591722186415974 3.3195801332027943
decision_type=2 2 2 2 2 2 2 2 2 2 2 2 2 2 2 2 2 2 2 2 2 2 2 2 2 2 2 2 2 2
left_child=1 -1 -2 5 -5 -3 -7 10 24 -10 12 -12 17 14 15 -14 -17 18 19 -4 -15 22 -19 -16 25 26 -8 -27 -20 -30
right_child=2 3 7 4 -6 6 8 -9 9 -11 11 -13 13 20 23 16 -18 21 28 -21 -22 -23 -24 -25 -26 27 -28 -29 29 -31
leaf_value=0.028788904429047708 -0.010560646117168062 -0.029979343139208282 -0.0031672620540484789 0.014444568292403143 0.075577275454998025 0.048193229207148157 0.0049584070694043119 -0.05696322102290155 -0.042500621461797332 0.0099913657529325031 -0.034755573481321335 0.016023529019078303 0.0017271424522218499 -0.039944097033391399 -0.098746253554487518 -0.085007556527853023 -0.017069998869672417 -0.029236593769442765 -0.058758412425716722 0.061752479895949369 0.011385755593309531 -0.068958171165507773 0.011266467126983183 -0.051727777438467008 0.028947097478785377 -0.054148664201299351 0.050654293997929645 -0.0010912178433500231 0.03526229325115033 -0.037923372157489546
leaf_weight=815 867 39 20 338 23 24 747 44 42 41 50 58 46 30 21 24 25 268 24 25 37 23 27 114 69 24 26 32 23 44
leaf_count=815 867 39 20 338 23 24 747 44 42 41 50 58 46 30 21 24 25 268 24 25 37 23 27 114 69 24 26 32 23 44
internal_value=0.000217729 0.0154862 -0.0189326 0.00776969 0.0183394 0.00411482 0.00543787 -0.0269707 0.00439187 -0.0165708 -0.0254344 -0.00748531 -0.0280156 -0.0374922 -0.0450353 -0.0251314 -0.0503455 -0.0218163 -0.0057892 0.0328993 -0.0115978 -0.0286706 -0.0255295 -0.0590418 0.0063294 0.00444687 0.0064954 -0.0238301 -0.0249209 -0.0127999
internal_weight=3990 2220 1770 1405 361 1044 1005 903 981 83 859 108 751 297 230 95 49 454 136 45 67 318 295 135 898 829 773 56 91 67
internal_count=3990 2220 1770 1405 361 1044 1005 903 981 83 859 108 751 297 230 95 49 454 136 45 67 318 295 135 898 829 773 56 91 67
is_linear=0
shrinkage=0.05


Tree=29
num_leaves=31
num_cat=0
split_feature=0 0 0 4 4 5 5 5 4 5 5 5 3 0 6 0 0 5 3 6 2 0 6 6 2 2 2 2 2 5
split_gain=421.164 82.2662 42.9993 17.9957 16.3232 24.4149 25.3911 15.651 28.3822 14.3487 40.7958 17.6461 16.608 16.2706 14.976 13.549 22.0292 13.5182 13.0816 23.2658 21.1635 19.1864 18.1814 22.6931 21.4503 14.4548 12.5552 17.3436 12.5241 21.8099
threshold=14.615090355152416 -1.0553415596986795 24.611851140610444 344.54193725096195 299.75120584279017 6.1966497120996831 3.1147863251800394 12.949174039937509 328.16939675407042 13.787113416810502 15.248035845031824 12.475086817490896 20.038233944084691 30.256986153198415 11.453383286373677 33.685885019193897 31.082539659387518 19.014788155486734 15.869686711526887 26.194892052714724 46.245716396542832 34.262845465052244 14.711181654748087 65.411417273983133 40.721915777392773 72.447799957526541 61.381787802928166 42.83981388147145 14.462859657182404 5.455873801301764
decision_type=2 2 2 2 2 2 2 2 2 2 2 2 2 2 2 2 2 2 2 2 2 2 2 2 2 2 2 2 2 2
left_child=1 3 28 17 9 6 -6 -7 -9 11 13 12 18 -11 -12 16 -16 -1 21 -20 -21 22 -4 -24 -25 -26 27 -14 29 -2
right_child=2 -3 4 -5 5 7 -8 8 -10 10 14 -13 26 -15 15 -17 -18 -19 19 20 -22 -23 23 24 25 -27 -28 -29 -30 -31
leaf_value=0.030120994918156448 0.0076571774845187734 0.0073812017733897372 0.009229404006439906 -0.014416210542432965 -0.022507803905755283 -0.04692469425066266 0.052427724082596029 0.027529736595421003 -0.043707395124214669 -0.04841491266225393 -0.068573596384376295 0.0068385939005502442 -0.014891254030226266 -0.10334413386881353 -0.028728364220905037 -0.059444244984876028 0.015429880487193404 -0.00083499084654692064 -0.094318310171365743 -0.062271838226625999 -0.0033620760341485341 -0.066553959864433174 -0.040544301085174088 0.020300059130807457 -0.04792536924992289 0.0053601123392581947 -0.029097767620801164 0.043586759872379754 -0.0075545685952193107 -0.03801861092280806
leaf_weight=753 37 1405 39 25 20 43 26 29 27 26 20 43 32 28 110 22 38 37 21 31 30 27 138 38 35 20 39 21 741 89
leaf_count=753 37 1405 39 25 20 43 26 29 27 26 20 43 32 28 110 22 38 37 21 31 30 27 138 38 35 20 39 21 741 89
internal_value=0.000206842 0.0147119 -0.0179859 0.0273495 -0.0256222 -0.010252 0.0198471 -0.0242374 -0.00681674 -0.0285624 -0.0385469 -0.0238226 -0.0266219 -0.0768967 -0.0276475 -0.0228327 -0.0173904 0.0286712 -0.0312477 -0.0489265 -0.0332998 -0.0263667 -0.022348 -0.0276792 -0.00858907 -0.0285488 -0.00756534 0.00827928 -0.0100326 -0.0246059
internal_weight=3990 2220 1770 815 903 145 46 99 56 758 244 514 471 54 190 170 148 790 379 82 61 297 270 231 93 55 92 53 867 126
internal_count=3990 2220 1770 815 903 145 46 99 56 758 244 514 471 54 190 170 148 790 379 82 61 297 270 231 93 55 92 53 867 126
is_linear=0
shrinkage=0.05


Tree=30
num_leaves=31
num_cat=0
split_feature=0 0 2 1 0 0 5 2 0 5 5 4 6 1 6 5 1 6 6 4 6 4 5 4 0 1 6 6 2 4
split_gain=327.031 43.6894 23.79 21.8185 25.6996 19.6781 19.5337 22.4523 31.0539 23.9346 22.0965 23.1825 22.2122 21.8362 24.878 18.7378 18.3553 25.5747 21.0704 16.3648 15.9032 31.0792 24.6444 24.0175 21.9075 22.7402 21.616 17.5394 15.5379 15.4788
threshold=11.918620549150519 30.466750258336639 1.1755401088968889 993.36494796000386 30.048057827725689 24.244427431216259 4.9455480672082075 60.035365773791376 3.8553296393442156 4.5277833552843365 5.7518741712266994 249.42872709538196 16.265577768192273 1020.6768263283574 70.16328665158106 19.544931531720902 1029.4185881450462 54.281874095515306 72.061034288041085 129.5530404542294 58.707122665585139 191.18953266177724 8.4600382020407334 222.65020528166994 32.321281000258232 1011.124999910195 79.746956778399081 30.408882312725552 61.101659053595775 351.8126959666493
decision_type=2 2 2 2 2 2 2 2 2 2 2 2 2 2 2 2 2 2 2 2 2 2 2 2 2 2 2 2 2 2
left_child=2 3 -1 5 15 -2 7 8 9 -4 11 19 -12 14 -10 -5 20 -18 -19 -8 21 27 26 -23 -24 -26 -22 28 -3 -14
right_child=1 16 6 4 -6 -7 10 -9 13 -11 12 -13 29 -15 -16 -17 17 18 -20 -21 22 23 24 -25 25 -27 -28 -29 -30 -31
leaf_value=-0.032987548622231071 -0.017301571022632512 -0.055625958953584943 0.038517893311922985 -0.010518817348007831 0.041555054806172852 -0.060506295182399063 -0.0029137141443789007 0.01134306907036047 0.0037678669998422267 0.092247324833200167 -3.7619982052732395e-05 0.021979215610082505 0.015682209999963597 -0.024138446927310958 0.069963908805088557 0.02418001499027014 -0.043933281904901381 0.053198767304420469 -0.011478071988505477 -0.063593774467706685 -0.11122455629317657 -0.08900901717336282 -0.06470638378159492 -0.029791048933654581 0.016816309665640194 -0.047070889404186834 -0.04405932582169772 0.020758468321547277 0.0051975865981408534 0.053977037255686748
leaf_weight=26 86 21 152 1424 25 38 20 199 40 24 243 27 1163 31 22 40 32 20 34 25 23 23 32 67 30 26 25 41 21 27
leaf_count=26 86 21 152 1424 25 38 20 199 40 24 243 27 1163 31 22 40 32 20 34 25 23 23 32 67 30 26 25 41 21 27
internal_value=0.000211904 -0.0140402 0.0145282 -0.0103905 -0.00871237 -0.0305417 0.0151543 0.024076 0.0334955 0.0458446 0.01238 -0.0146483 0.0137381 0.010125 0.0272568 -0.00957076 -0.0289439 -0.0085133 0.0124763 -0.0366249 -0.0346301 -0.0245729 -0.0474236 -0.0449245 -0.0317041 -0.0128456 -0.0762427 -0.0025048 -0.0252142 0.0165511
internal_weight=4007 2008 1999 1613 1489 124 1973 468 269 176 1505 72 1433 93 62 1464 395 86 54 45 309 173 136 90 88 56 48 83 42 1190
internal_count=4007 2008 1999 1613 1489 124 1973 468 269 176 1505 72 1433 93 62 1464 395 86 54 45 309 173 136 90 88 56 48 83 42 1190
is_linear=0
shrinkage=0.05


Tree=31
num_leaves=31
num_cat=0
split_feature=0 0 2 1 0 0 5 2 0 3 5 6 6 5 1 6 6 2 2 5 6 6 0 5 6 5 3 3 1 3
split_gain=295.146 39.4297 21.4705 19.6912 23.1939 17.7595 17.6292 20.2632 28.7568 20.4557 19.9421 20.0465 18.5994 16.9109 16.5656 23.0812 19.1187 15.5231 20.4623 17.0144 23.3367 23.5755 15.418 25.9415 16.2557 15.3174 14.987 14.7096 18.0015 27.4841
threshold=11.918620549150519 30.466750258336639 1.1755401088968889 993.36494796000386 30.048057827725689 24.244427431216259 4.9455480672082075 60.035365773791376 -0.16489991639843102 17.689465055300779 5.7518741712266994 16.265577768192273 15.609313703563386 19.544931531720902 1029.4185881450462 54.281874095515306 74.071349190594319 86.309921748889593 43.142635312334384 17.045989275151452 79.746956778399081 58.707122665585139 -2.7646705362014607 7.103383166524659 22.717759085113435 2.3683084157963945 22.541784044655909 23.289139184357953 1013.6585024592384 18.008932276698385
decision_type=2 2 2 2 2 2 2 2 2 2 2 2 2 2 2 2 2 2 2 2 2 2 2 2 2 2 2 2 2 2
left_child=2 3 -1 5 13 -2 7 8 12 25 -8 26 -4 -5 17 -16 -17 18 19 20 21 -3 23 -13 -24 -10 -12 28 29 -25
right_child=1 14 6 4 -6 -7 10 -9 9 -11 11 22 -14 -15 15 16 -18 -19 -20 -21 -22 -23 24 27 -26 -27 -28 -29 -30 -31
leaf_value=-0.031338171761196396 -0.01643649259972018 -0.024600328263222129 0.091156035467334418 -0.0099928764246725952 0.039477301989682023 -0.057480982279306973 -0.013915913924574853 0.010775916125793853 0.025317876398563383 0.04388621221570408 0.0038820382718068474 0.072226209537341046 0.040774207202096784 0.0229710141569376 -0.041736617439892147 0.047733605602248153 -0.012815764872357249 -0.0042465674145737804 -0.050591625187465621 0.015040980465710164 0.016972758322954178 -0.080626843058105024 0.035796664713953555 0.0015720496220248089 0.0097229065722160002 -0.012919780124317515 -0.03939159072258256 -0.015718997269868851 0.035221913061967057 0.051945736653664532
leaf_weight=26 86 57 23 1424 25 38 72 199 50 51 221 26 90 40 32 22 32 41 139 24 20 28 65 133 744 55 22 26 162 34
leaf_count=26 86 57 23 1424 25 38 72 199 50 51 221 26 90 40 32 22 32 41 139 24 20 28 65 133 744 55 22 26 162 34
internal_value=0.000201309 -0.0133382 0.0138018 -0.00987098 -0.00827675 -0.0290146 0.0143966 0.0228722 0.0318207 0.0179071 0.011761 0.0130512 0.0510289 -0.00909222 -0.0274967 -0.00808764 0.0118525 -0.0328986 -0.037282 -0.0229406 -0.031622 -0.0430561 0.0157235 0.0240167 0.0118178 0.00528863 -3.57388e-05 0.0204859 0.0233471 0.0118278
internal_weight=4007 2008 1999 1613 1489 124 1973 468 269 156 1505 1433 113 1464 395 86 54 309 268 129 105 85 1190 381 809 105 243 355 329 167
internal_count=4007 2008 1999 1613 1489 124 1973 468 269 156 1505 1433 113 1464 395 86 54 309 268 129 105 85 1190 381 809 105 243 355 329 167
is_linear=0
shrinkage=0.05


Tree=32
num_leaves=31
num_cat=0
split_feature=0 0 2 1 0 5 5 2 2 0 6 5 6 6 0 2 2 1 5 5 0 5 0 5 1 2 5 6 5 1
split_gain=266.369 35.5853 19.3771 17.7713 20.9325 16.464 15.9103 18.5248 24.1844 19.376 18.865 17.9977 18.092 15.6558 15.64 15.4846 17.7201 16.6073 16.1993 25.725 15.3271 15.2621 13.9147 23.4122 15.8136 17.1533 16.0107 30.3796 23.8927 27.411
threshold=11.918620549150519 30.466750258336639 1.1755401088968889 993.36494796000386 30.048057827725689 4.6166224171348409 4.9455480672082075 42.83981388147145 24.097058931132036 -0.16489991639843102 49.554098308546351 5.7518741712266994 16.265577768192273 29.956736114105542 25.965521858850245 13.47744802377834 86.309921748889593 1029.1423317649935 6.1084504462703304 14.646457581470601 1.1953274510542384 19.544931531720902 -2.7646705362014607 7.103383166524659 1036.1667340161414 53.856105866978801 17.976057980399695 35.599706355844866 13.477061130339917 1010.0750690100864
decision_type=2 2 2 2 2 2 2 2 2 2 2 2 2 2 2 2 2 2 2 2 2 2 2 2 2 2 2 2 2 2
left_child=2 3 -1 5 21 -2 7 8 10 13 20 -8 -13 -10 -7 -3 17 -17 -19 -20 -4 -5 23 -14 26 -26 28 -28 -24 -30
right_child=1 15 6 4 -6 14 11 -9 9 -11 -12 12 22 -15 -16 16 -18 18 19 -21 -22 -23 24 -25 25 -27 27 -29 29 -31
leaf_value=-0.02977126348190583 0.0078075208844473739 0.0066663694257537535 0.018725386458950548 -0.0094932326975170969 0.03750343690440059 -0.024315196000305669 -0.01322011865106308 0.013649606545528409 0.10981666654348375 0.031847639396786691 0.037780104414559902 -3.3951943468133853e-05 0.068614897905634006 0.047255194485187529 -0.068530595196144919 -0.039933983849150229 -0.00081697759912155259 -0.048129051802274975 0.031464820531677574 -0.039230972291393718 -0.0394952392205596 0.021822463162243368 0.0043202583541746198 0.019461602709242996 0.015425768696836062 0.072585998901299062 0.039145805142819887 -0.024094524839303539 0.040188635164119593 0.0079027567731034497
leaf_weight=26 26 33 26 1424 25 70 72 282 20 50 50 243 26 20 28 238 48 23 31 22 20 40 386 355 35 21 25 79 130 133
leaf_count=26 26 33 26 1424 25 70 72 282 20 50 50 243 26 20 28 238 48 23 31 22 20 40 386 355 35 21 25 79 130 133
internal_value=0.000191243 -0.0126713 0.0131117 -0.00937744 -0.00786291 -0.0275639 0.0136768 0.0217286 0.0339773 0.052598 0.0165204 0.011173 0.0123986 0.0785359 -0.0369482 -0.0261219 -0.0291109 -0.0334361 -0.0130874 0.0021194 -0.00658793 -0.00863761 0.0149374 0.0228159 0.0112269 0.0368609 0.00932057 -0.00889252 0.0122392 0.0238616
internal_weight=4007 2008 1999 1613 1489 124 1973 468 186 90 96 1505 1433 40 98 395 362 314 76 53 46 1464 1190 381 809 56 753 104 649 263
internal_count=4007 2008 1999 1613 1489 124 1973 468 186 90 96 1505 1433 40 98 395 362 314 76 53 46 1464 1190 381 809 56 753 104 649 263
is_linear=0
shrinkage=0.05


Tree=33
num_leaves=31
num_cat=0
split_feature=0 0 2 1 0 5 5 2 0 5 1 6 5 4 6 4 0 2 2 1 5 5 4 4 5 2 6 5 6 1
split_gain=240.398 32.1157 17.4878 16.0386 18.8916 14.8587 14.3591 17.0245 25.1961 20.533 19.4634 21.6443 16.2429 20.9222 16.328 14.7692 14.1151 13.9748 15.9924 14.9881 14.6198 23.2168 13.9141 18.1868 13.774 13.0217 33.5235 27.3281 27.3094 32.4397
threshold=11.918620549150519 30.466750258336639 1.1755401088968889 993.36494796000386 30.048057827725689 4.6166224171348409 4.9455480672082075 60.035365773791376 3.8553296393442156 4.5277833552843365 1020.6768263283574 70.16328665158106 5.7518741712266994 249.42872709538196 16.265577768192273 129.5530404542294 25.965521858850245 13.47744802377834 86.309921748889593 1029.1423317649935 6.1084504462703304 14.646457581470601 351.8126959666493 341.36742863245678 19.544931531720902 23.006718238749045 79.746956778399081 14.69852685118831 77.879835814899607 997.98466774513656
decision_type=2 2 2 2 2 2 2 2 2 2 2 2 2 2 2 2 2 2 2 2 2 2 2 2 2 2 2 2 2 2
left_child=2 3 -1 5 24 -2 7 8 9 -4 11 -10 13 15 -14 -8 -7 -3 19 -19 -21 -22 23 -16 25 26 27 -5 -27 -30
right_child=1 17 6 4 -6 16 12 -9 10 -11 -12 -13 14 -15 22 -17 -18 18 -20 20 21 -23 -24 -25 -26 28 -28 -29 29 -31
leaf_value=-0.028282700106501579 0.0074171443326542007 0.0063330516501358056 0.033181870505091193 -0.00048200177010513989 0.035628264740109446 -0.02309943627100438 -0.0014112267643213274 0.0095546398076682762 0.002058238825702574 0.082946992696573352 -0.024555115889938129 0.063802440904758201 -3.2254337589927177e-05 0.022237056197115669 0.01450011402360895 -0.059057284414768221 -0.065104066079116563 -0.037937284765780725 -0.0007761282475864089 -0.045722599845865498 0.029891579670290793 -0.037269423529505734 0.049674458238641146 -0.021125962416565905 0.02073134011588991 -0.010365390870537191 -0.04952999059195546 -0.03613024343647165 0.064205679638932145 0.0026530547747200335
leaf_weight=26 26 33 152 204 25 70 20 199 40 24 31 22 243 27 1126 25 28 238 48 23 31 22 27 37 40 859 66 73 24 198
leaf_count=26 26 33 152 204 25 70 20 199 40 24 31 22 243 27 1126 25 28 238 48 23 31 22 27 37 40 859 66 73 24 198
internal_value=0.000181681 -0.0120377 0.0124561 -0.00890856 -0.00746977 -0.0261857 0.012993 0.0206421 0.0288444 0.039968 0.00779328 0.0239675 0.0106143 -0.0125591 0.0117787 -0.0334368 -0.0351008 -0.0248158 -0.0276553 -0.0317643 -0.012433 0.00201343 0.0141905 0.0133667 -0.00820573 -0.00901857 -0.0175068 -0.00987666 -0.00632528 0.00930739
internal_weight=4007 2008 1999 1613 1489 124 1973 468 269 176 93 62 1505 72 1433 45 98 395 362 314 76 53 1190 1163 1464 1424 343 277 1081 222
internal_count=4007 2008 1999 1613 1489 124 1973 468 269 176 93 62 1505 72 1433 45 98 395 362 314 76 53 1190 1163 1464 1424 343 277 1081 222
is_linear=0
shrinkage=0.05


Tree=34
num_leaves=31
num_cat=0
split_feature=0 0 2 2 3 6 3 6 5 6 2 2 0 4 4 0 4 0 5 5 5 6 6 3 3 3 0 4 2 5
split_gain=216.959 28.9844 15.7828 14.3122 24.9943 23.5766 23.4139 24.6928 34.7067 22.2316 21.3133 31.491 23.3288 22.1786 18.0779 16.872 20.0583 18.2814 17.7095 29.6533 16.3064 23.428 19.0833 26.369 15.9473 15.858 14.6201 13.9681 13.5109 12.9591
threshold=11.918620549150519 30.466750258336639 1.1755401088968889 23.006718238749045 23.146443742831789 88.946704005857853 21.23442368893507 74.071349190594319 7.103383166524659 42.721506578338357 65.96099328392134 86.309921748889593 22.557291255554524 294.24267601807026 272.30606097740139 20.501274489109637 162.13542063080322 23.983022381644769 3.5753428561091662 7.3243567653442598 14.646457581470601 10.696200002823977 25.908614017297854 9.6656391122027525 7.009047085589537 13.659743954858167 29.886598489776457 272.30606097740139 3.0950847099500307 4.9455480672082075
decision_type=2 2 2 2 2 2 2 2 2 2 2 2 2 2 2 2 2 2 2 2 2 2 2 2 2 2 2 2 2 2
left_child=2 3 -1 4 5 20 10 9 -9 -8 12 15 13 14 -5 18 17 -17 -12 -20 21 -2 -22 -24 -18 -15 -14 -26 -23 -4
right_child=1 -3 29 6 -6 -7 7 8 -10 -11 11 -13 26 25 -16 16 24 -19 19 -21 22 28 23 -25 27 -27 -28 -29 -30 -31
leaf_value=-0.026868564778795612 0.036273157436932837 -0.023575020404287796 0.019610030245300558 0.008813771657012635 -0.05592731414614497 -0.051040336254259779 0.018802897189743817 0.089529702799128641 0.0038248102905021775 -0.02080023392507642 -0.077925662653377428 -0.00082653079951941629 -0.016478993188164485 -3.7874164991080765e-05 0.057175776318070443 0.042296144232915889 -0.0041603202300686988 -0.015259566438711576 0.014361309116849533 -0.047604226427773635 -0.062711098847480926 0.026135488048195838 -0.047685867699759979 0.019408454024232927 -0.075091190120348567 -0.055182752343402669 0.02792150779627264 -0.021599508421090638 -0.013246617025348562 0.010083624679073878
leaf_weight=26 35 395 468 242 37 36 74 21 27 68 26 179 254 32 21 22 31 37 26 75 26 25 27 32 26 22 20 23 169 1505
leaf_count=26 35 395 468 242 37 36 74 21 27 68 26 179 254 32 21 22 31 37 26 75 26 25 27 32 26 22 20 23 169 1505
internal_value=0.000172597 -0.0114358 0.0118333 -0.00846314 -0.0168461 -0.0127146 -0.00581697 0.0103179 0.0413207 -0.000161982 -0.00877606 -0.0170408 -0.00255303 0.00668262 0.0126754 -0.0279519 -0.0159152 0.00620188 -0.0411259 -0.0316527 -0.0083206 -0.00137874 -0.0270228 -0.0112957 -0.0322266 -0.0225043 -0.0132381 -0.0499828 -0.0081716 0.0123433
internal_weight=4007 2008 1999 1613 387 350 1226 190 48 142 1036 445 591 317 263 266 139 59 127 101 314 229 85 59 80 54 274 49 194 1973
internal_count=4007 2008 1999 1613 387 350 1226 190 48 142 1036 445 591 317 263 266 139 59 127 101 314 229 85 59 80 54 274 49 194 1973
is_linear=0
shrinkage=0.05


Tree=35
num_leaves=31
num_cat=0
split_feature=4 4 5 1 5 1 1 5 5 5 4 5 3 4 3 4 4 3 4 5 2 5 2 2 1 4 2 4 6 3
split_gain=18.7356 19.3081 17.5673 19.4778 15.3968 15.3786 50.4599 39.5955 31.6808 28.3363 26.9172 24.6299 20.7562 27.4998 20.7305 19.2671 68.2757 35.3785 18.9528 33.2976 26.6513 31.3677 42.2824 32.9037 41.8916 24.2039 24.692 17.4096 17.1458 17.4053
